tree
version=v3
num_class=5
num_tree_per_iteration=5
label_index=0
max_feature_idx=55
objective=multiclass num_class:5
feature_names=Column_0 Column_1 Column_2 Column_3 Column_4 Column_5 Column_6 Column_7 Column_8 Column_9 Column_10 Column_11 Column_12 Column_13 Column_14 Column_15 Column_16 Column_17 Column_18 Column_19 Column_20 Column_21 Column_22 Column_23 Column_24 Column_25 Column_26 Column_27 Column_28 Column_29 Column_30 Column_31 Column_32 Column_33 Column_34 Column_35 Column_36 Column_37 Column_38 Column_39 Column_40 Column_41 Column_42 Column_43 Column_44 Column_45 Column_46 Column_47 Column_48 Column_49 Column_50 Column_51 Column_52 Column_53 Column_54 Column_55
feature_infos=[-203:368432] [0:703417] [-409:1705038] [0:1492586] [0:264401] [0:365338] [0:703417] [-409:1705038] [0:1484412] [0:264401] [-126211:505691] [-56422:491763] [-52584:191899] [-111981:286656] [-118511:241268] [-100948:504884] [-56452:558015] [-52584:199457] [-118584:289247] [-116718:241192] [0:1901465] [0:4787500] [0:1047354] [0:899790] [0:785511] [-388:241817] [-500:3217547] [-1715:250389] [-215:255775] [-875:261589] [-26318:1795990] [-7657:1441253] [-6713:914916] [-24149:799128] [-4368:661167] [-9539:100] [-6475:101.7] [-1014.7:2100] [-10566.700000000001:1250] [-4100:136] [-20128.599999999999:4142] [-1540.9000000000001:21000] [-8100:9820.5] [-1931.5999999999999:47964.5] [-73600:20146.700000000001] [-96500:46620] [0:78116.699999999997] [-1700:48520] [-583.29999999999995:61033.300000000003] [-4100:39180] [0:11] [0:1] [0:5] [9:19] [0:5] [0:4]
tree_sizes=6533 6678 6524 6525 6562 6662 6746 6648 6626 6644 6687 6750 6698 6615 6640 6683 6766 6703 6615 6644 6720 6744 6684 6644 6636 6696 6715 6702 6665 6650 6713 6758 6696 6682 6637 6690 6754 6703 6696 6656 6727 6738 6703 6699 6643 6732 6733 6667 6683 6658 6732 6748 6714 6694 6699 6723 6742 6702 6712 6678 6700 6753 6714 6692 6691 6732 6741 6692 6678 6702 6714 6762 6727 6701 6699 6719 6756 6721 6680 6705 6716 6759 6710 6691 6705 6711 6748 6732 6690 6712 6723 6778 6725 6698 6672 6727 6769 6726 6719 6695 6713 6749 6717 6709 6693 6725 6783 6708 6689 6726 6730 6769 6728 6725 6709 6738 6768 6739 6719 6698 6737 6756 6719 6719 6695 6703 6774 6733 6704 6726 6728 6771 6740 6716 6692 6701 6772 6717 6683 6707 6724 6771 6728 6691 6716 6739 6769 6722 6735 6720 6734 6758 6734 6746 6736 6733 6775 6723 6710 6725 6740 6774 6717 6719 6737 6722 6775 6717 6732 6723 6726 6767 6721 6706 6756 6730 6778 6735 6751 6720 6727 6767 6759 6740 6732 6748 6781 6735 6755 6744 6735 6782 6739 6724 6715 6737 6772 6734 6739 6731 6756 6787 6737 6749 6732 6745 6754 6731 6766 6734 6746 6750 6737 6726 6706 6730 6772 6737 6726 6757 6748 6763 6721 6728 6745 6728 6766 6744 6735 6734 6733 6754 6732 6735 6722 6765 6753 6751 6721 6741 6725 6736 6728 6749 6744 6759 6731 6738 6754 6729 6743 6749 6753 6727 6779 6743 6748 6743 6746 6741 6749 6756 6759 6745 6764 6757 6753 6733 6726 6753 6754 6745 6734 6757 6757 6734 6730 6732 6741 6783 6739 6692 6739 6760 6771 6743 6704 6729 6751 6777 6733 6786 6754 6760 6742 6726 6760 6745 6775 6795 6766 6731 6768 6753 6784 6711 6735 6749 6776 6769 6721 6743 6754 6764 6798 6739 6737 6742 6809 6798 6707 6707 6744 6776 6780 6713 6732 6760 6767 6805 6764 6758 6739 6776 6822 6743 6740 6751 6785 6809 6727 6760 6736 6772 6813 6718 6765 6725 6788 6814

Tree=0
num_leaves=63
num_cat=0
split_feature=40 35 45 10 35 35 40 40 6 45 45 35 23 40 10 32 10 10 12 21 10 32 35 10 10 45 45 35 14 10 20 16 0 45 10 37 24 50 10 27 29 10 31 2 36 10 42 41 50 22 33 20 40 25 40 10 41 50 16 33 19 10
split_gain=826.638 303.952 292.745 310.039 236.751 147.478 104.201 83.8942 75.2949 56.9751 52.739 44.6211 43.7586 36.4438 29.03 28.5439 28.1111 26.6015 26 24.6985 22.4382 34.0844 21.4591 108.619 74.9134 88.0404 27.6985 23.9831 22.7452 21.303 20.1045 20.0603 18.8561 18.806 21.7619 18.3507 17.7434 20.3662 17.6641 15.9426 15.7807 14.4888 14.4208 14.1812 12.3787 15.1489 11.6607 11.5515 11.3189 11.3118 11.0155 10.7071 10.7068 12.7452 10.4291 14.6495 10.4241 19.4966 10.3668 10.3539 11.9568 10.2411
threshold=3.6500000000000008 5.0500000000000007 119.35000000000001 10.500000000000002 21.450000000000003 20.050000000000004 -4.5499999999999989 -5.3499999999999988 1.0000000180025095e-35 99.550000000000011 100.25000000000001 2.1500000000000008 1.0000000180025095e-35 5.6500000000000012 -15.499999999999998 1126.5000000000002 -194.49999999999997 348.50000000000006 200.50000000000003 1.0000000180025095e-35 -1257.4999999999998 1575.5000000000002 21.450000000000003 68.500000000000014 -90.499999999999986 100.75000000000001 105.55000000000001 19.150000000000002 426.50000000000006 3208.0000000000005 836.00000000000011 -7.4999999999999991 1499.5000000000002 110.95000000000002 -15.499999999999998 3.3500000000000001 14213.000000000002 5.5000000000000009 814.50000000000011 2241.0000000000005 472.50000000000006 393.50000000000006 412.50000000000006 15238.500000000002 22.650000000000002 479.50000000000006 4.0500000000000007 0.55000000000000016 5.5000000000000009 5788.5000000000009 311.50000000000006 13898.000000000002 1.8500000000000003 2558.0000000000005 10.850000000000003 1173.5000000000002 0.35000000000000003 4.5000000000000009 461.50000000000006 231.50000000000003 252.50000000000003 -386.49999999999994
decision_type=2 2 2 2 2 2 2 2 2 2 2 2 2 2 2 2 2 2 2 2 2 2 2 2 2 2 2 2 2 2 2 2 2 2 2 2 2 2 2 2 2 2 2 2 2 2 2 2 2 2 2 2 2 2 2 2 2 2 2 2 2 2
left_child=1 41 7 6 9 35 20 16 54 11 12 -2 -10 15 36 -14 -3 -11 -16 -19 -4 61 24 33 25 27 28 -9 40 31 -7 -13 -12 48 -35 -5 37 42 49 46 -25 -1 -8 -23 -33 -46 -26 -39 -24 -17 -27 -47 -37 -54 -6 -56 57 -34 -50 -59 -61 -22
right_child=4 2 3 5 8 30 14 22 10 17 32 29 13 -15 18 38 -18 19 -20 -21 21 43 23 26 39 50 -28 -29 -30 -31 -32 44 56 34 -36 52 -38 47 -40 -41 -42 -43 -44 -45 45 51 -48 -49 58 -51 -52 -53 53 -55 55 -57 -58 59 -60 60 -62 -63
leaf_value=-1.6870809616537268 -1.6956844270878844 -1.6439088958959933 -1.6905438564909752 -1.623716438731156 -1.6392635302925398 -1.5727577389009257 -1.567170162165155 -1.6789216968805718 -1.5189773128191315 -1.5622273058219731 -1.5457511180113668 -1.6233951530688491 -1.6576061263700386 -1.6764282180115144 -1.5243320738575785 -1.5928730151497008 -1.4753742586489198 -1.4979701733606086 -1.6759130017151567 -1.6579997930127983 -1.6789216968805718 -1.4741081082555925 -1.4736257652486104 -1.640324436044247 -1.5247771449049301 -1.548810981461908 -1.6625194554949219 -1.5243320738575785 -1.49669459753011 -1.6956844270878844 -1.6802311780542309 -1.5085827766856754 -1.679101941291403 -1.4876137124510844 -1.6489519671159827 -1.4769367421130259 -1.6022195071440812 -1.4643587502269715 -1.6280453402864479 -1.4485416099287896 -1.5430737374921433 -1.5554870471721796 -1.4745203432673735 -1.616598725596974 -1.4753742586489198 -1.654559862312611 -1.4876942351734672 -1.6044807552072378 -1.5029130297037905 -1.4493654193193199 -1.4570150779456728 -1.5157644561960633 -1.6004886752932701 -1.460074941396214 -1.5029130297037905 -1.6049684753777225 -1.6896466263110144 -1.6956844270878844 -1.6442787211187926 -1.4991331983825336 -1.6406068849781432 -1.5909691001138087
leaf_weight=92.985786497592926 5.8359280228614798 27.039799839258198 9.7265467047691327 4.8632733523845699 7.975768297910693 4.474211484193801 4.6687424182891837 17.896845936775211 6.2249898910522452 10.115608572959898 2.3343712091445914 6.2249898910522452 10.504670441150667 59.720996767282486 6.419520825147627 1.9453093409538249 2.7234330773353568 2.5289021432399741 5.05780428647995 51.745228469371796 8.948422968387602 5.6413970887660962 28.596047312021255 12.64451071619988 74.894409626722336 5.4468661546707144 18.09137687087059 2.9179640114307395 6.0304589569568625 2.3343712091445914 158.54271128773689 26.456207036972046 54.274130612611771 4.0851496160030365 4.2796805500984174 9.1429539024829882 4.2796805500984183 1.9453093409538258 3.6960877478122711 10.115608572959898 6.2249898910522452 2.1398402750492087 41.824150830507278 2.528902143239975 2.7234330773353559 4.8632733523845673 29.568701982498169 6.0304589569568634 3.8906186819076529 4.6687424182891846 8.1702992320060712 1.9453093409538267 5.2523352205753318 2.3343712091445923 5.4468661546707144 9.9210776388645154 770.14796808362007 1.9453093409538258 1.9453093409538267 3.3070258796215057 2.7234330773353577 5.2523352205753353
leaf_count=478 30 139 50 25 41 23 24 92 32 52 12 32 54 307 33 10 14 13 26 266 46 29 147 65 385 28 93 15 31 12 815 136 279 21 22 47 22 10 19 52 32 11 215 13 14 25 152 31 20 24 42 10 27 12 28 51 3959 10 10 17 14 27
internal_value=-1.64613 -1.60158 -1.58734 -1.62232 -1.67332 -1.66102 -1.55251 -1.5494 -1.68156 -1.60551 -1.6838 -1.56568 -1.6467 -1.65657 -1.5184 -1.5996 -1.62849 -1.63667 -1.59113 -1.65054 -1.62714 -1.59958 -1.53938 -1.5593 -1.52791 -1.59258 -1.61544 -1.65725 -1.58123 -1.54865 -1.67728 -1.54052 -1.68766 -1.50291 -1.57016 -1.53823 -1.50419 -1.49649 -1.5405 -1.50848 -1.60824 -1.68412 -1.48382 -1.51821 -1.52618 -1.57504 -1.51428 -1.5703 -1.48658 -1.49157 -1.49373 -1.6149 -1.51337 -1.55728 -1.59287 -1.5688 -1.68806 -1.66838 -1.55003 -1.59538 -1.56302 -1.64639
internal_weight=0 646.621 551.495 286.933 1059.61 184.61 102.323 264.562 944.837 114.773 921.493 50.3835 86.7608 80.5358 70.2257 20.8148 29.7632 64.3897 11.4773 54.2741 32.0976 22.3711 234.799 85.7881 149.011 34.432 42.9913 20.8148 24.9 44.5476 163.017 42.2132 834.732 42.7968 8.36483 21.5929 58.7483 54.4687 10.3101 114.579 18.8695 95.1256 46.4929 8.1703 35.9882 9.53202 104.463 7.97577 34.432 6.61405 13.6172 6.80858 16.7297 7.58671 23.3437 15.3679 832.398 62.2499 5.83593 7.97577 6.03046 14.2008
internal_count=8771 3324 2835 1475 5447 949 526 1360 4857 590 4737 259 446 414 361 107 153 331 59 279 165 115 1207 441 766 177 221 107 128 229 838 217 4291 220 43 111 302 280 53 589 97 489 239 42 185 49 537 41 177 34 70 35 86 39 120 79 4279 320 30 41 31 73
is_linear=0
shrinkage=1


Tree=1
num_leaves=63
num_cat=0
split_feature=10 34 35 34 35 10 10 45 45 30 31 9 45 45 35 35 10 40 35 20 44 34 38 50 20 45 10 31 44 10 35 33 40 40 33 11 29 2 11 35 14 9 49 40 47 10 45 10 20 0 21 50 45 24 35 40 45 45 10 45 40 30
split_gain=657.365 360.131 506.276 162.48 158.008 132.275 99.717 84.4983 59.8939 42.0725 36.9048 33.8999 43.7332 32.5255 31.134 30.2764 28.1558 24.4173 24.4033 23.1663 23.0863 23.0214 21.173 20.7046 20.2579 19.7014 21.1311 18.5256 17.6154 17.4365 28.2348 17.337 17.0499 16.6959 18.0246 16.0162 15.4573 15.1649 13.8475 13.5592 13.1836 13.1713 12.3897 12.2134 11.0413 10.8688 10.6494 12.1899 10.6382 10.3161 9.92973 9.87879 9.95395 9.71046 10.6428 12.4718 17.0866 12.6874 12.0052 16.5281 9.65493 9.5279
threshold=10.500000000000002 1346.5000000000002 20.050000000000004 609.50000000000011 36.150000000000013 393.50000000000006 364.50000000000006 157.55000000000004 107.65000000000002 7393.0000000000009 109.50000000000001 3578.5000000000005 97.250000000000014 102.35000000000001 17.850000000000005 43.250000000000007 216.50000000000003 4.2500000000000009 9.3500000000000032 26466.500000000004 9.6500000000000004 2378.5000000000005 4.8500000000000005 5.5000000000000009 40113.000000000007 108.75000000000001 103.50000000000001 6663.5000000000009 13.950000000000001 -26.499999999999996 22.850000000000005 7832.0000000000009 3.9500000000000006 4.4500000000000011 50.500000000000007 133.50000000000003 112.50000000000001 4011.5000000000005 663.50000000000011 49.350000000000001 -81.499999999999986 8258.5000000000018 93.950000000000017 2.2500000000000004 136.35000000000005 412.50000000000006 121.45000000000002 523.50000000000011 4847.5000000000009 31417.000000000004 231.50000000000003 5.5000000000000009 107.65000000000002 2134.5000000000005 33.350000000000001 4.8500000000000005 91.050000000000011 100.75000000000001 202.50000000000003 109.25000000000001 3.7500000000000004 797.50000000000011
decision_type=2 2 2 2 2 2 2 2 2 2 2 2 2 2 2 2 2 2 2 2 2 2 2 2 2 2 2 2 2 2 2 2 2 2 2 2 2 2 2 2 2 2 2 2 2 2 2 2 2 2 2 2 2 2 2 2 2 2 2 2 2 2
left_child=9 2 6 10 14 31 25 53 33 23 -4 12 22 19 32 36 -9 44 -10 -7 39 28 -12 29 42 -2 -27 40 -19 -1 -31 43 -3 -8 -35 -25 -13 -32 -34 -18 -14 -17 46 -6 -15 -24 47 -16 -28 -36 -20 -38 -53 -5 58 56 -56 -57 59 -55 61 -52
right_child=1 4 3 7 5 13 8 16 18 -11 11 15 27 17 24 41 20 21 50 -21 -22 -23 45 35 -26 26 48 -29 -30 30 37 -33 38 34 49 -37 51 -39 -40 -41 -42 -43 -44 -45 -46 -47 -48 -49 -50 -51 60 52 -54 54 55 57 -58 -59 -60 -61 -62 -63
leaf_value=-0.92921520223893961 -0.92985765946306631 -0.92881622423681387 -0.84874068991215068 -0.79479072848603138 -0.79700620370065667 -0.80979358248798461 -0.92256503506933329 -0.81420980720445701 -0.89396748967789086 -0.82982064806268496 -0.90081089676650106 -0.79748053520874884 -0.83687420574937199 -0.80331866655029949 -0.90938395619618861 -0.83355086937865452 -0.86972806078296716 -0.90520777279083586 -0.87813991738577168 -0.93281698530400137 -0.85233438533090633 -0.92015353893452001 -0.85793317489425203 -0.92399810338170629 -0.90657199270325117 -0.92939966855911205 -0.86231234509365262 -0.9164138649285325 -0.86642340283186536 -0.93281698530400137 -0.9171949658987929 -0.93281698530400137 -0.89766744164228229 -0.92461542511626693 -0.86447065040621429 -0.87477517474464983 -0.81692537395557974 -0.82462619133814263 -0.80837952038665106 -0.90206113459999715 -0.79072884926876708 -0.87736981783762769 -0.81521922999679353 -0.84259982323892246 -0.87936861554123757 -0.80002982035972936 -0.92256503506933329 -0.80979358248798461 -0.92650809285189795 -0.78050229610321864 -0.79860963677743757 -0.90428981943362063 -0.82801927179406121 -0.9164138649285325 -0.90206113459999715 -0.79731294741969305 -0.79954163225331654 -0.87078837884214422 -0.80452442370815525 -0.79065660871660426 -0.7935972241340552 -0.88032700010250087
leaf_weight=333.16832637786865 118.27018356323242 12.497622489929201 60.659192085266113 24.995244979858398 28.348265647888184 14.631362915039064 29.262725830078125 19.81330394744873 11.583162307739256 13.107262611389158 12.497622489929197 116.74608325958252 16.155463218688965 5.791581153869628 4.2674808502197292 82.606236457824707 55.477251052856445 123.14730453491211 5.4867610931396475 5.1819410324096671 65.23149299621582 252.69583034515381 14.0217227935791 28.348265647888184 7.6205015182495108 29.262725830078125 34.749486923217773 3.0482006072998038 38.407327651977539 24.080784797668457 6.4012212753295925 3.6578407287597647 8.5349617004394549 12.192802429199217 25.604885101318363 39.626607894897461 84.130336761474609 14.32654285430908 8.8397817611694318 78.033935546875 369.13709354400635 21.642224311828613 99.066519737243652 30.482006072998047 27.128985404968262 19.20366382598877 4.8771209716796866 10.973522186279295 7.9253215789794913 4.2674808502197257 6.7060413360595685 7.0108613967895534 10.973522186279295 6.0964012145996076 4.8771209716796902 7.0108613967895499 24.385604858398438 36.273587226867676 54.562790870666504 4.572300910949707 36.273587226867676 7.6205015182495117
leaf_count=1093 388 41 199 82 93 48 96 65 38 43 41 383 53 19 14 271 182 404 18 17 214 829 46 93 25 96 114 10 126 79 21 12 28 40 84 130 276 47 29 256 1211 71 325 100 89 63 16 36 26 14 22 23 36 20 16 23 80 119 179 15 119 25
internal_value=-0.863659 -0.852371 -0.838861 -0.823783 -0.882464 -0.895516 -0.893784 -0.850736 -0.861593 -0.918113 -0.811215 -0.808209 -0.799081 -0.904658 -0.838355 -0.820471 -0.871048 -0.907435 -0.827896 -0.841969 -0.876714 -0.910729 -0.845334 -0.920708 -0.827537 -0.917308 -0.896675 -0.793635 -0.895987 -0.925277 -0.895994 -0.827197 -0.884277 -0.893562 -0.873385 -0.895303 -0.809908 -0.853214 -0.85224 -0.888626 -0.792664 -0.842648 -0.822484 -0.82063 -0.865989 -0.824466 -0.858257 -0.837679 -0.874234 -0.852475 -0.814251 -0.824116 -0.857752 -0.823463 -0.828664 -0.841842 -0.816628 -0.858887 -0.814009 -0.862518 -0.807323 -0.842076
internal_weight=0 2214.52 1528.37 1199.16 686.15 529.472 329.206 381.33 138.998 459.059 817.832 757.173 434.064 466.984 156.678 323.109 218.556 447.171 67.6701 19.8133 198.743 414.25 45.723 445.952 126.805 190.208 71.9375 388.341 161.555 377.977 44.8085 62.4881 29.8724 71.3279 42.0652 67.9749 218.861 20.7278 17.3747 133.511 385.293 104.248 119.185 58.8303 32.9206 33.2254 20.1181 15.241 42.6748 29.8724 56.0869 102.115 17.9844 162.774 137.779 72.5472 29.2627 43.2844 65.2315 10.6687 50.6001 14.3265
internal_count=8771 7265 5014 3934 2251 1737 1080 1251 456 1506 2683 2484 1424 1532 514 1060 717 1467 222 65 652 1359 150 1463 416 624 236 1274 530 1240 147 205 98 234 138 223 718 68 57 438 1264 342 391 193 108 109 66 50 140 98 184 335 59 534 452 238 96 142 214 35 166 47
is_linear=0
shrinkage=1


Tree=2
num_leaves=63
num_cat=0
split_feature=35 34 10 34 4 45 35 3 40 40 45 44 10 45 20 40 40 40 45 45 24 34 30 35 32 16 24 20 4 16 40 49 35 20 21 39 33 44 2 24 31 36 35 22 44 39 28 43 10 45 6 5 34 45 39 3 49 11 52 50 45 5
split_gain=1452.7 916.571 636.815 105.6 85.6523 68.2234 66.7272 52.5025 46.8947 39.1815 37.5339 35.3607 31.5499 35.7232 30.0729 28.1042 25.1815 25.0225 22.5075 19.8666 22.7827 17.958 16.5009 16.0304 15.2145 16.0509 15.1956 14.7553 13.1072 12.9249 12.8905 12.3734 11.6308 11.5814 10.8392 11.518 10.6679 14.4784 11.7292 10.5948 12.9076 11.2732 10.383 10.109 10.0301 18.5403 17.8567 13.9123 9.93051 12.3147 9.71929 9.59526 9.53188 9.26143 8.7596 8.61105 8.35242 8.32887 14.0962 14.8929 11.6826 10.5346
threshold=36.150000000000013 609.50000000000011 364.50000000000006 2378.5000000000005 3161.5000000000005 100.75000000000001 29.150000000000002 11888.500000000002 4.2500000000000009 4.2500000000000009 102.35000000000001 15.450000000000001 118.50000000000001 157.55000000000004 26466.500000000004 5.2500000000000009 4.8500000000000005 64.90000000000002 118.25000000000001 154.30000000000004 3689.5000000000005 467.50000000000006 6580.5000000000009 67.350000000000009 854.50000000000011 216.50000000000003 1733.5000000000002 20573.500000000004 6032.5000000000009 2369.5000000000005 2.4500000000000006 174.75000000000003 43.550000000000004 4891.5000000000009 7243.0000000000009 61.650000000000013 358.50000000000006 12.350000000000003 4117.5000000000009 4917.5000000000009 2440.0000000000005 44.850000000000001 55.550000000000004 4968.0000000000009 8.4500000000000011 41.250000000000007 1512.5000000000002 4.9500000000000011 3313.5000000000005 138.35000000000005 13040.500000000002 18788.500000000004 4955.5000000000009 190.65000000000001 55.650000000000013 9504.5000000000018 1.1500000000000001 462.50000000000006 3.5000000000000004 1.0000000180025095e-35 166.45000000000002 7030.5000000000009
decision_type=2 2 2 2 2 2 2 2 2 2 2 2 2 2 2 2 2 2 2 2 2 2 2 2 2 2 2 2 2 2 2 2 2 2 2 2 2 2 2 2 2 2 2 2 2 2 2 2 2 2 2 2 2 2 2 2 2 2 2 2 2 2
left_child=6 4 12 5 17 -4 48 29 27 -6 14 16 57 -14 -10 -9 19 22 -17 -7 -21 -20 56 33 -18 34 -13 30 36 31 -5 -8 50 -15 35 -26 -11 38 -38 40 41 -28 -34 -24 -27 46 47 -46 -1 -50 -30 -35 -23 -32 -43 -40 -2 -3 -59 -60 -61 -62
right_child=1 2 3 8 9 11 7 15 10 28 -12 26 13 23 -16 18 24 -19 21 20 -22 52 43 -25 25 44 39 -29 32 -31 53 -33 42 51 -36 -37 37 -39 55 -41 -42 54 -44 -45 45 -47 -48 -49 49 -51 -52 -53 -54 -55 -56 -57 -58 58 59 60 61 -63
leaf_value=-1.4220008547860319 -1.4244079045180758 -1.421362446563831 -1.4148100976319709 -1.4244079045180758 -1.4052122907458662 -1.3810947247243719 -1.4152934404247963 -1.3880951829235135 -1.4000442408841174 -1.3928564933752483 -1.2327743821534947 -1.4052122907458662 -1.4190622905561947 -1.3308045507628676 -1.2132561530237689 -1.3838017984614783 -1.3086805022567729 -1.2977168536214916 -1.3860166769736564 -1.3559262553847871 -1.2516473805681883 -1.298265299729269 -1.4052122907458662 -1.2760309980626168 -1.2681007638015109 -1.2522240728274392 -1.3892159459356912 -1.2283384209876478 -1.4002762757758693 -1.3012360494797299 -1.3568393440398976 -1.3790364537837618 -1.2886674928431641 -1.4187011004236352 -1.3668210632014466 -1.350963817041795 -1.2601787644669482 -1.4171268096389618 -1.3540239873533069 -1.2673976277658987 -1.3617222282932033 -1.3452259977077106 -1.3507503167875037 -1.2735852248792852 -1.2554865033226301 -1.2617348714790944 -1.2449289157479149 -1.3933561763571483 -1.4076498290026547 -1.3132754037315983 -1.3265570928499824 -1.3188320287709223 -1.2132561530237687 -1.2601787644669482 -1.2564462840112407 -1.2554865033226301 -1.404508786576204 -1.4167759135002094 -1.4244079045180758 -1.3848169511128932 -1.3476254494292368 -1.2132561530237689
leaf_weight=747.80338868498802 126.44933804869652 49.253674745559692 10.419046580791472 3.7887442111969021 41.676186323165894 9.2350640147924441 131.65886133909225 37.177052572369576 6.1567093431949598 20.601296648383141 197.25149549543858 5.2095232903957358 18.706924542784691 22.969261780381203 3.315151184797287 12.313418686389921 24.626837372779846 4.7359302639961234 5.2095232903957394 8.7614709883928317 13.02380822598934 18.233331516385082 2.6047616451978675 8.7614709883928281 18.233331516385086 110.3471751511097 2.8415581583976772 3.3151511847972861 8.2878779619932192 2.8415581583976737 5.9199128299951536 28.652378097176552 19.890907108783725 8.7614709883928281 5.2095232903957358 5.446319803595542 4.262337237596511 6.8670988827943793 34.809087440371513 9.2350640147924405 15.154976844787596 3.7887442111968985 10.182250067591665 3.315151184797287 2.3679651319980612 46.412116587162018 4.7359302639961234 8.0510814487934095 14.918180331587793 4.4991337507963172 9.708657041192053 3.3151511847972861 4.0255407243967047 4.2623372375965118 10.419046580791472 2.3679651319980612 90.456268042325974 19.654110595583916 4.7359302639961234 3.7887442111968976 2.6047616451978683 3.315151184797287
leaf_count=3158 534 208 44 16 176 39 556 157 26 87 833 22 79 97 14 52 104 20 22 37 55 77 11 37 77 466 12 14 35 12 25 121 84 37 22 23 18 29 147 39 64 16 43 14 10 196 20 34 63 19 41 14 17 18 44 10 382 83 20 16 11 14
internal_value=-1.3708 -1.33021 -1.29542 -1.27028 -1.39178 -1.28901 -1.41389 -1.39088 -1.24406 -1.36358 -1.23744 -1.28468 -1.38807 -1.36122 -1.33467 -1.35684 -1.2774 -1.41144 -1.32763 -1.31964 -1.29359 -1.30245 -1.41386 -1.33652 -1.27159 -1.26704 -1.32473 -1.32317 -1.34875 -1.40694 -1.34567 -1.40881 -1.32871 -1.35165 -1.30152 -1.28716 -1.36273 -1.34988 -1.33874 -1.31461 -1.32815 -1.2983 -1.30969 -1.3315 -1.26125 -1.27741 -1.32543 -1.36202 -1.42108 -1.38578 -1.36051 -1.39129 -1.28289 -1.31638 -1.28012 -1.34775 -1.41611 -1.40821 -1.38922 -1.35172 -1.31626 -1.27238
internal_weight=0 1069.61 683.395 537.528 386.215 313.519 1007.33 240.112 224.01 158.654 206.723 303.1 145.867 62.5143 9.47186 76.9589 256.451 227.561 39.7818 31.0203 21.7853 27.4684 222.826 43.8074 225.43 200.803 46.6489 17.2861 116.977 163.153 13.971 160.311 48.0697 35.0459 28.8892 23.6797 68.9078 48.3065 41.4394 41.4394 32.2043 17.0493 30.0732 5.91991 171.914 61.5671 15.155 10.419 767.221 19.4173 17.9965 12.0766 22.2589 10.1823 14.2078 37.1771 216.906 83.3524 34.0987 14.4446 9.70866 5.91991
internal_count=8771 4517 2886 2270 1631 1324 4254 1014 946 670 873 1280 616 264 40 325 1083 961 168 131 92 116 941 185 952 848 197 73 494 689 59 677 203 148 122 100 291 204 175 175 136 72 127 25 726 260 64 44 3240 82 76 51 94 43 60 157 916 352 144 61 41 25
is_linear=0
shrinkage=1


Tree=3
num_leaves=63
num_cat=0
split_feature=10 35 35 35 30 15 45 10 20 10 30 30 30 30 50 10 20 21 10 24 6 16 18 42 17 19 34 10 0 33 10 35 20 37 10 36 30 17 23 46 26 7 35 35 46 42 28 43 30 36 4 45 45 6 6 25 20 36 52 41 30 26
split_gain=1150.76 541.548 215.144 387.371 210.306 93.5397 72.0426 108.061 69.0752 79.7375 60.352 58.437 55.7 51.6667 46.7539 40.9564 48.8431 39.3619 37.8148 37.242 34.0191 31.6394 29.8764 27.5523 25.1288 21.1721 20.1398 24.7716 20.0697 19.1716 33.9887 17.1095 23.4927 16.9086 16.66 16.4021 16.1404 15.7893 34.0992 17.3112 14.6448 13.6375 13.3614 13.3606 13.1769 17.3533 13.4793 12.8874 12.6245 12.3076 10.8652 10.6575 10.5168 8.70501 28.7037 7.81054 7.69106 7.21209 15.6277 18.2488 19.2077 31.6431
threshold=-101.99999999999999 5.0500000000000007 1.0000000180025095e-35 18.250000000000004 1.0000000180025095e-35 -341.49999999999994 103.45000000000002 -758.49999999999989 1619.5000000000002 -262.49999999999994 449.50000000000006 2823.0000000000005 164.50000000000003 213.50000000000003 2.5000000000000004 -423.49999999999994 3005.5000000000005 3111.5000000000005 -15.499999999999998 924.50000000000011 6955.0000000000009 134.50000000000003 21.500000000000004 1.7500000000000002 -1023.4999999999999 -1.0000000180025095e-35 1260.5000000000002 -1086.9999999999998 13100.000000000002 1709.5000000000002 -681.49999999999989 4.4500000000000011 2324.5000000000005 20.250000000000004 -2874.4999999999995 36.95000000000001 400.50000000000006 140.50000000000003 1559.5000000000002 103.05000000000001 41.500000000000007 4711.5000000000009 3.1500000000000008 9.9500000000000011 83.050000000000011 1.7500000000000002 456.50000000000006 5.8500000000000005 1197.5000000000002 22.050000000000004 5609.5000000000009 97.950000000000017 131.45000000000002 21161.000000000004 28945.500000000004 530.00000000000011 5549.5000000000009 20.350000000000005 3.5000000000000004 -0.54999999999999993 593.50000000000011 1973.5000000000002
decision_type=2 2 2 2 2 2 2 2 2 2 2 2 2 2 2 2 2 2 2 2 2 2 2 2 2 2 2 2 2 2 2 2 2 2 2 2 2 2 2 2 2 2 2 2 2 2 2 2 2 2 2 2 2 2 2 2 2 2 2 2 2 2
left_child=2 4 -1 6 -2 11 14 23 9 -7 17 26 18 28 24 16 -10 19 22 31 -16 43 -3 -8 -4 -15 35 -28 41 30 -18 32 -6 -19 -13 -5 -25 53 39 -39 -21 -9 -34 44 -14 46 55 -11 51 -22 -43 -40 -20 -26 -55 -46 -31 58 -45 60 -60 -62
right_child=1 12 3 5 10 8 7 13 15 47 -12 34 21 25 20 -17 29 33 52 40 49 -23 -24 36 37 -27 27 -29 -30 56 -32 -33 42 -35 -36 -37 -38 38 48 -41 -42 50 -44 57 45 -47 -48 -49 -50 -51 -52 -53 -54 54 -56 -57 -58 -59 59 -61 61 -63
leaf_value=-2.5481655288250566 -2.5560622109677564 -2.1454347395473476 -2.3949698952566734 -2.28757501811595 -2.3681211759714924 -2.0657812501079365 -2.019087825264144 -2.2108643915868624 -2.1085835562147448 -2.5023647723973954 -2.4755160531122149 -2.308227879104551 -2.5422936369753564 -2.3259303313804942 -2.1016992692185457 -2.5425703922314851 -2.1980792871653483 -2.0591605406151596 -2.5006325969596417 -2.2875750181159504 -2.4995385914200079 -2.5517940572585305 -2.5023647723973954 -2.0727852638345059 -2.0777488926099168 -2.5560622109677564 -2.1622809947851076 -2.4553795136483294 -2.1016992692185461 -2.3908393230589526 -2.5049217932816985 -2.019087825264144 -2.0489197355810118 -2.2875750181159504 -2.5354093499791563 -2.072785263834505 -2.3299677327767618 -2.4734507670133548 -2.045281697737491 -2.2108643915868629 -2.5560622109677564 -2.5147564889905558 -2.2669221571273499 -2.5323442610691873 -2.3119829447388422 -2.5162863305452667 -2.1801801409752279 -2.2875750181159504 -2.2875750181159504 -2.2875750181159504 -2.2875750181159504 -2.2108643915868629 -2.3770707490665526 -2.3949698952566729 -2.019087825264144 -2.5072463577219737 -2.5296536346216771 -2.5391260986171789 -2.4963983903340221 -2.5153823332629375 -2.2204532199029989 -2.5560622109677564
leaf_weight=12.663546025753019 5.7730871587991741 1.5829432532191305 0.93114309012890117 1.3036003261804561 1.8622861802577988 2.1416291072964668 2.8865435793995848 1.3036003261804565 1.1173717081546737 2.7934292703866954 1.8622861802577961 1.2104860171675684 3.6314580515027028 1.303600326180457 1.2104860171675671 18.52974749356509 1.6760575622320177 6.2386587038636199 14.43271789699793 0.93114309012889895 1.7691718712449076 492.01600882411003 0.93114309012889851 0.93114309012889895 11.080602772533899 4.2832582145929345 1.3967146351933482 1.4898289442062376 1.210486017167568 1.210486017167568 1.9554004892706851 1.210486017167568 1.6760575622320177 0.93114309012889851 2.4209720343351364 2.7934292703866959 1.7691718712449072 1.2104860171675667 3.8176866695284843 1.3036003261804578 1.1173717081546781 1.2104860171675684 1.210486017167568 52.702698901295662 1.0242573991417891 2.5140863433480263 0.93114309012889851 0.93114309012889851 0.93114309012889851 1.1173717081546781 0.93114309012889851 1.3036003261804578 1.955400489270686 0.93114309012889807 1.1173717081546781 1.0242573991417883 5.6799728497862816 100.37722511589527 3.3521151244640377 12.29108878970146 2.2347434163093571 1.0242573991417883
leaf_count=136 62 17 10 14 20 23 31 14 12 30 20 13 39 14 13 199 18 67 155 10 19 5284 10 10 119 46 15 16 13 13 21 13 18 10 26 30 19 13 41 14 12 13 13 566 11 27 10 10 10 12 10 14 21 10 12 11 61 1078 36 132 24 11
internal_value=-2.51253 -2.53494 -2.35531 -2.32793 -2.29525 -2.42745 -2.21884 -2.30337 -2.46587 -2.30888 -2.20688 -2.297 -2.54284 -2.39985 -2.16877 -2.4964 -2.42289 -2.17392 -2.45819 -2.25011 -2.32419 -2.54522 -2.27763 -2.12648 -2.14063 -2.50236 -2.2124 -2.31356 -2.27684 -2.45627 -2.3633 -2.18689 -2.22967 -2.08882 -2.45968 -2.14113 -2.24128 -2.12971 -2.18251 -2.33729 -2.43402 -2.33837 -2.14034 -2.52735 -2.46839 -2.41954 -2.33792 -2.44867 -2.11822 -2.41749 -2.41598 -2.08743 -2.48589 -2.09525 -2.18994 -2.40961 -2.50527 -2.53048 -2.51836 -2.47935 -2.41236 -2.32593
internal_weight=0 714.839 101.867 89.2035 22.813 46.6503 42.5532 15.8294 36.0352 5.8662 17.0399 10.615 692.026 10.2426 26.7238 30.169 11.6393 15.1776 18.9022 8.00783 4.09703 673.123 2.51409 5.58686 22.6268 5.58686 6.98357 2.88654 4.65572 10.5219 3.63146 5.95932 4.74883 7.1698 3.63146 4.09703 2.70031 21.6956 8.56652 2.51409 2.04851 3.44523 2.88654 181.107 9.1252 5.49374 2.97966 3.72457 6.05243 2.88654 2.14163 5.12129 16.3881 13.1291 2.04851 2.04851 6.89046 171.982 71.6049 18.9022 6.61112 3.259
internal_count=8771 7677 1094 958 245 501 457 170 387 63 183 114 7432 110 287 324 125 163 203 86 44 7229 27 60 243 60 75 31 50 113 39 64 51 77 39 44 29 233 92 27 22 37 31 1945 98 59 32 40 65 31 23 55 176 141 22 22 74 1847 769 203 71 35
is_linear=0
shrinkage=1


Tree=4
num_leaves=63
num_cat=0
split_feature=30 30 31 30 32 32 13 31 45 31 39 13 19 28 15 50 11 15 21 41 21 1 22 31 53 15 15 25 49 19 29 34 40 32 48 19 33 1 10 23 40 15 39 53 30 48 53 17 12 22 2 48 22 48 20 45 13 20 46 21 22 41
split_gain=2709.64 210.024 59.045 54.0802 40.5347 39.2278 36.5602 32.7043 30.8506 28.1835 28.0041 28.8047 29.9633 27.4777 29.4663 22.7897 50.1949 21.544 21.553 20.3555 19.5056 33.0225 18.7548 17.7878 28.4703 17.2394 15.2351 13.997 20.5351 15.2483 13.7027 17.7845 13.6057 13.0578 30.5081 11.4146 12.0782 11.2434 11.1796 15.4406 11.0975 11.0229 10.273 10.0925 9.20481 11.4528 8.73929 8.54216 8.35451 8.61273 9.31211 7.99432 12.0283 15.557 14.3941 10.7012 7.8575 7.41022 11.0021 7.05684 11.2766 21.551
threshold=1.0000000180025095e-35 260.50000000000006 -1.0000000180025095e-35 48.500000000000007 201.50000000000003 266.50000000000006 -1.0000000180025095e-35 3672.5000000000005 100.25000000000001 58.500000000000007 17.050000000000004 -129.49999999999997 15.500000000000002 26.500000000000004 -341.49999999999994 4.5000000000000009 55.500000000000007 -2.4999999999999996 1165.5000000000002 43.600000000000009 2707.5000000000005 10136.500000000002 2288.5000000000005 75.500000000000014 16.500000000000004 -706.49999999999989 378.50000000000006 111.50000000000001 106.55000000000001 1.5000000000000002 784.50000000000011 136.50000000000003 1.3500000000000003 115.50000000000001 100.55000000000001 111.50000000000001 389.50000000000006 16693.000000000004 -307.49999999999994 798.50000000000011 -0.54999999999999993 195.50000000000003 84.15000000000002 15.500000000000002 490.50000000000006 386.9500000000001 14.500000000000002 846.50000000000011 -618.49999999999989 1205.5000000000002 5919.5000000000009 106.45000000000002 927.00000000000011 163.75000000000003 2145.5000000000005 131.45000000000002 -114.49999999999999 3194.5000000000005 161.75000000000003 3016.5000000000005 3658.5000000000005 4.1500000000000012
decision_type=2 2 2 2 2 2 2 2 2 2 2 2 2 2 2 2 2 2 2 2 2 2 2 2 2 2 2 2 2 2 2 2 2 2 2 2 2 2 2 2 2 2 2 2 2 2 2 2 2 2 2 2 2 2 2 2 2 2 2 2 2 2
left_child=15 2 6 4 40 7 -2 19 10 -7 11 12 -5 14 -13 -1 -17 18 -10 26 21 23 -8 24 -16 27 30 -11 29 -29 42 -32 -26 34 -12 36 38 -15 -20 -40 -4 -19 48 -21 45 59 -22 -30 -3 50 51 57 53 54 -53 -55 -33 -50 -59 -27 61 -61
right_child=1 5 3 8 -6 9 22 -9 17 25 33 13 -14 37 20 16 -18 41 35 43 46 -23 -24 -25 32 44 -28 28 47 -31 31 56 -34 -35 -36 -37 -38 -39 39 -41 -42 -43 -44 -45 -46 -47 -48 -49 49 -51 -52 52 -54 55 -56 -57 -58 58 -60 60 -62 -63
leaf_value=-2.2124456193466333 -2.43799932171442 -2.7985199138530965 -2.9561549464240202 -2.8590517663603312 -2.3445310200488372 -2.728259727907199 -2.9700268292902612 -2.609357874767988 -2.68279725464809 -3.0255143607552264 -3.0255143607552264 -2.495860651316923 -2.3596639831756461 -3.0106516291128251 -2.5359184948878886 -2.1932013887807496 -2.7758204691628841 -3.0068804882483353 -3.0255143607552264 -2.6925891719654356 -2.8174361177616074 -2.4428952803730937 -2.6093578747679889 -2.9287337826186595 -2.7053939869188897 -3.0145628742818782 -3.0105327272596858 -2.8741847294871401 -3.0255143607552264 -2.5261265775705413 -2.6093578747679884 -2.798519913853097 -2.9792747512010891 -2.9886863531457366 -2.5715254669509671 -3.0255143607552264 -2.7053939869188897 -2.7758204691628836 -2.6925891719654365 -2.9765547741684926 -2.6787172890991946 -2.7985199138530965 -2.803564234895366 -2.9498495451211832 -3.0214753587158589 -2.7758204691628836 -3.0255143607552264 -2.8174361177616074 -3.0078055741174716 -3.0158922454722847 -2.803564234895366 -2.6338376680613553 -3.0255143607552264 -2.7758204691628841 -2.9422830635577788 -3.0255143607552264 -3.0255143607552264 -2.9714680638737669 -2.7943163129845385 -2.7877106544768044 -3.0072217679645785 -3.0255143607552264
leaf_weight=10.39272493124008 1.0212504267692568 0.66080909967422385 0.72088265419006359 0.60073554515838512 0.66080909967422474 0.84102976322173972 0.90110331773757824 0.60073554515838523 1.021250426769259 2.4630157351493827 0.84102976322173872 0.66080909967422385 0.60073554515838623 3.3641190528869624 1.0212504267692586 0.96117687225341686 0.60073554515838623 16.099712610244755 1.5018388628959654 0.90110331773757824 0.72088265419006381 0.60073554515838612 0.60073554515838623 2.5831628441810608 0.78095620870590199 18.262360572814949 30.036777257919312 0.66080909967422508 1.5619124174118044 0.60073554515838623 0.60073554515838568 0.66080909967422496 1.081323981285095 6.7883116602897644 0.66080909967422485 2.1025744080543518 0.78095620870590199 0.60073554515838612 0.90110331773757968 1.0212504267692564 0.7208826541900627 0.66080909967422385 0.90110331773757835 0.66080909967422485 358.99956178665161 0.60073554515838523 1.6820595264434812 0.72088265419006337 11.29382824897767 10.39272493124008 0.90110331773757835 1.0212504267692559 1.6820595264434812 0.60073554515838656 0.60073554515838612 1.5018388628959654 0.90110331773757901 4.6256636977195731 1.081323981285095 2.1025744080543505 5.4666934609413147 1.7421330809593198
leaf_count=173 17 11 12 10 11 14 15 10 17 41 14 11 10 56 17 16 10 268 25 15 12 10 10 43 13 304 500 11 26 10 10 11 18 113 11 35 13 10 15 17 12 11 15 11 5976 10 28 12 188 173 15 17 28 10 10 25 15 77 18 35 91 29
internal_value=-2.98338 -3.00066 -2.90466 -2.91686 -2.66881 -3.01128 -2.66881 -2.97668 -2.92804 -3.01739 -2.88606 -2.84366 -2.60936 -2.86516 -2.81744 -2.23921 -2.41729 -2.9674 -2.89589 -2.97988 -2.84252 -2.79477 -2.82576 -2.83344 -2.74808 -3.01801 -2.98401 -2.93396 -2.87034 -2.70844 -2.96272 -2.84056 -2.86442 -2.95917 -2.82576 -2.93039 -2.88283 -2.97507 -2.9233 -2.84345 -2.81744 -2.99867 -2.97022 -2.80143 -3.01932 -2.9918 -2.96309 -2.95981 -2.97459 -2.97804 -2.96116 -2.9675 -2.91454 -2.86442 -2.74808 -2.95417 -2.92948 -2.98434 -2.9379 -2.9965 -2.96108 -2.89547
internal_weight=0 514.951 51.3028 48.7797 2.10257 463.648 2.52309 69.6252 46.6772 394.022 22.5877 14.2975 1.20147 13.096 9.13118 11.9546 1.56191 24.0895 7.32897 69.0245 8.47037 6.06743 1.50184 5.46669 2.88353 393.181 67.4626 6.00736 3.54434 1.26154 37.4258 2.16265 1.86228 8.29015 1.50184 6.30772 4.20515 3.96485 3.42419 1.92235 1.44177 16.7605 35.2632 1.56191 387.174 28.1745 2.40294 2.2828 34.3621 33.7013 23.3085 22.4074 5.40662 3.72456 1.62199 2.10257 1.56191 17.0008 5.70699 27.5738 9.3114 3.84471
internal_count=8771 8572 854 812 35 7718 42 1159 777 6559 376 238 20 218 152 199 26 401 122 1149 141 101 25 91 48 6545 1123 100 59 21 623 36 31 138 25 105 70 66 57 32 24 279 587 26 6445 469 40 38 572 561 388 373 90 62 27 35 26 283 95 459 155 64
is_linear=0
shrinkage=1


Tree=5
num_leaves=63
num_cat=0
split_feature=40 35 45 40 35 35 46 40 15 45 35 23 35 40 45 40 45 0 40 30 40 32 35 40 45 33 53 30 21 37 40 45 30 2 16 40 30 16 40 30 38 23 38 40 32 30 38 16 5 15 31 0 42 41 50 33 41 48 20 16 25 25
split_gain=730.422 260.177 228.978 221.941 216.963 144.322 85.0223 81.0803 74.3508 46.0151 36.2981 28.9094 25.995 61.3978 52.4549 32.2685 29.1219 24.7434 23.2924 22.75 20.4826 19.9164 18.9698 23.5159 18.8614 21.8173 17.9727 16.5391 22.7888 15.6643 15.4635 15.1673 14.5815 14.2442 15.7915 18.3623 15.0431 13.8325 13.8084 13.5572 13.3619 13.2072 13.8461 12.8 14.2328 12.3218 12.1677 11.8651 11.5082 11.3278 12.4482 11.323 11.1246 10.4495 11.9033 10.4145 10.1414 11.6093 9.8492 10.4873 9.81521 9.75687
threshold=3.6500000000000008 5.0500000000000007 119.35000000000001 0.15000000000000005 21.450000000000003 20.050000000000004 74.250000000000014 -4.5499999999999989 -128.49999999999997 99.550000000000011 2.1500000000000008 1.0000000180025095e-35 20.050000000000004 0.45000000000000007 101.85000000000001 -1.4499999999999997 105.55000000000001 1499.5000000000002 5.6500000000000012 180.50000000000003 -0.14999999999999999 1126.5000000000002 17.850000000000005 -4.0499999999999989 100.25000000000001 63.500000000000007 16.500000000000004 894.50000000000011 13825.500000000002 3.3500000000000001 -12.049999999999999 101.85000000000001 4923.5000000000009 712.50000000000011 -1.4999999999999998 5.1500000000000012 870.50000000000011 1.5000000000000002 5.9500000000000011 316.50000000000006 28.550000000000004 1559.5000000000002 13.15 5.3500000000000005 1402.5000000000002 449.50000000000006 12.050000000000002 -1.4999999999999998 11308.000000000002 41.500000000000007 603.50000000000011 8502.5000000000018 2.3500000000000001 0.65000000000000002 4.5000000000000009 178.50000000000003 6.1500000000000012 142.15000000000001 4790.5000000000009 102.50000000000001 145.50000000000003 3171.0000000000005
decision_type=2 2 2 2 2 2 2 2 2 2 2 2 2 2 2 2 2 2 2 2 2 2 2 2 2 2 2 2 2 2 2 2 2 2 2 2 2 2 2 2 2 2 2 2 2 2 2 2 2 2 2 2 2 2 2 2 2 2 2 2 2 2
left_child=1 45 8 7 9 29 11 27 22 10 -2 -6 15 -14 41 16 -10 -8 21 -7 32 -13 31 -24 25 -19 38 -4 30 -5 -29 61 39 -12 36 -36 -35 47 56 -9 48 55 -43 44 -27 -1 -22 -21 -37 -31 -51 -44 -23 54 -26 -15 -11 -58 59 -33 -48 -3
right_child=4 2 3 5 6 19 17 20 12 26 33 18 13 14 -16 -17 -18 24 -20 37 46 52 23 -25 53 43 -28 28 -30 49 -32 58 -34 34 35 40 -38 -39 -40 -41 -42 42 51 -45 -46 -47 60 -49 -50 50 -52 -53 -54 -55 -56 -57 57 -59 -60 -61 -62 -63
leaf_value=-0.041151301624659985 -0.048910500188890871 -0.039896240056461994 -0.029201349405392537 0.020298695419942437 0.05990880660535252 0.13293176030559681 0.094320093099545185 0.06849394268256756 -0.016246377245720273 0.008962096427738998 0.14914514888946526 -0.024480260421329381 0.12888579281293219 0.098154653780614984 -0.0028649144266700462 0.11806741395372378 0.1296061128091999 0.098000088106990513 -0.0219124348174317 -0.0075898187847398121 0.15961382025846962 0.022829115570186048 0.014250736828611239 0.12759105071324137 -0.030669950933962482 -0.015410981432054478 0.10593030420246881 -0.011967855889670337 -0.049291428521038766 0.16538500610355877 0.10234395356858988 0.077043861897829011 0.03469809870600226 -0.050018388746372981 0.14367487517336139 0.11756911979895573 0.11055436495015369 -0.033933643737992382 -0.022426785842906971 0.14276899097799944 -0.0047890053052793841 0.0099198106530706265 0.16610220739455189 -0.037156409215148074 0.10262540413706185 0.047300540093518716 -0.00074807053234218681 0.10032660484134091 0.036575052120947561 0.035564351358820551 0.13469687306184897 0.092930000973370647 0.16520455749145269 -0.043270147368567574 0.032619004613476416 -0.024839689529024905 0.120080194435492 -0.010798630951913883 0.13143943580994621 -0.05008394498510358 0.096877241585895169 0.078605258640137371
leaf_weight=88.215698108077049 5.5846949517726889 15.901754960417753 12.260004505515097 4.9824220687150982 24.955216810107231 2.1873963177204123 3.4571118950843802 7.1214752644300452 8.9780958294868451 23.036979094147686 7.4846412539482108 4.0238995105028135 35.496337994933128 3.0322974324226371 28.860891938209534 126.85155829787254 5.5306919217109671 4.3698712289333335 42.145849674940109 10.816651985049246 2.3696138113737097 2.0457991361618042 10.082181513309481 8.3805814385414106 59.574712470173836 7.3432532697916013 4.4580052495002738 3.9525676518678656 4.9646785557270041 8.0637979060411471 11.762849837541582 3.5223594456911069 4.1069894582033148 4.4012068659067145 10.260345906019209 10.665569484233862 2.1815902441740036 147.52508705854416 29.65154717862606 44.741954296827316 5.4884673058986655 3.3041749745607403 8.2854049503803271 29.058772787451744 3.9156806021928787 4.1212730705738059 7.0667093694210035 3.3315486758947364 7.4486082643270484 5.7991875261068326 6.9762302488088608 14.609518289566038 4.1657218337059021 722.95613574981689 8.4878591448068601 3.9802673012018204 4.9967654943466178 2.5636933743953705 2.7401906698942184 3.0073387026786804 4.0502773970365524 1.9500213563442219
leaf_count=468 30 83 63 25 123 11 17 34 46 118 35 21 165 15 148 588 26 21 222 57 11 10 50 39 315 38 21 20 26 37 57 17 20 22 48 50 11 778 154 205 27 16 39 153 19 21 35 17 36 28 32 70 20 3855 43 20 25 13 13 15 19 10
internal_value=0 0.0407187 0.0531973 0.0220993 -0.026323 -0.00992425 -0.0345461 0.0814202 0.0851223 0.0374251 0.0717262 0.0156189 0.0962867 0.0764354 0.0464415 0.109988 0.039352 -0.0391693 -0.00548143 -0.0272374 0.11206 0.0621756 0.0266046 0.065698 -0.0397215 -0.00811837 0.00905678 0.0168132 0.0440925 0.0999429 0.0735935 -7.83123e-06 0.125388 0.0857824 0.0740568 0.0878317 0.00319667 -0.0294045 0.00188881 0.13257 0.063556 0.0892888 0.105601 -0.0196201 0.0256402 -0.0372034 0.0567464 0.0178218 0.0842641 0.118985 0.0896973 0.11941 0.118312 -0.0415069 -0.0227774 0.0283442 0.0254527 0.0757002 0.0518804 0.0184935 0.03482 -0.0269518
internal_weight=0 668.93 576.593 292.079 1034.72 189.682 916.5 102.397 284.514 118.222 53.5151 77.3365 238.929 97.5689 62.0726 141.36 14.5088 839.163 52.3813 163.861 69.457 10.2354 45.5844 18.4628 835.706 44.6876 64.707 32.9401 20.6801 25.8216 15.7154 27.1217 55.9704 47.9304 40.4458 33.863 6.5828 161.673 60.249 51.8634 23.6026 33.2117 26.1991 40.3177 11.2589 92.337 13.4866 14.1482 18.1142 20.8392 12.7754 22.8949 6.21152 791.019 68.0626 7.01256 30.5974 7.56046 9.26989 6.5297 11.117 17.8518
internal_count=8771 3324 2835 1475 5447 985 4857 490 1360 590 259 396 1133 473 308 660 72 4461 273 863 324 51 227 89 4444 231 331 166 103 122 77 138 259 229 194 161 33 852 310 239 113 160 125 210 57 489 65 74 86 97 60 109 30 4213 358 35 156 38 45 32 54 93
is_linear=0
shrinkage=0.05


Tree=6
num_leaves=63
num_cat=0
split_feature=10 34 35 34 35 10 10 45 45 46 30 45 49 35 40 20 35 34 35 50 20 45 10 40 40 45 33 40 33 10 49 37 35 19 40 45 11 11 23 52 52 40 49 40 25 20 45 10 35 9 24 35 10 45 40 45 45 10 30 19 46 0
split_gain=585.987 307.94 474.871 139.505 136.611 116.996 95.8257 72.9953 53.6577 43.4157 39.9313 30.0801 29.0039 28.623 24.7473 22.587 21.4588 20.3278 20.2895 18.9611 17.9985 17.4604 19.0652 16.7022 15.9491 15.948 15.4136 15.3361 16.4311 14.8777 14.5168 13.7262 12.9604 12.7453 12.7198 19.9268 12.4628 12.4441 11.7949 11.555 11.2522 11.0869 10.8192 10.7451 10.3429 10.3136 9.76699 10.8179 9.70096 9.42908 9.38753 9.38723 10.58 16.0912 10.4205 16.2252 11.1776 9.38822 9.20272 9.19553 10.7904 9.17315
threshold=1.0000000180025095e-35 1346.5000000000002 20.050000000000004 609.50000000000011 36.150000000000013 393.50000000000006 364.50000000000006 157.55000000000004 107.65000000000002 107.35000000000001 7393.0000000000009 131.45000000000002 1.0000000180025095e-35 17.850000000000005 4.3500000000000005 19435.000000000004 9.3500000000000032 3006.0000000000005 43.250000000000007 5.5000000000000009 40113.000000000007 110.95000000000002 103.50000000000001 2.4500000000000006 3.9500000000000006 101.85000000000001 7832.0000000000009 4.4500000000000011 50.500000000000007 193.50000000000003 147.85000000000005 5.6500000000000012 62.650000000000013 505.50000000000006 6.7500000000000009 102.35000000000001 663.50000000000011 133.50000000000003 2275.5000000000005 3.5000000000000004 3.5000000000000004 4.8500000000000005 93.950000000000017 2.2500000000000004 2858.5000000000005 3066.0000000000005 121.45000000000002 523.50000000000011 11.750000000000002 5813.5000000000009 2134.5000000000005 33.350000000000001 202.50000000000003 109.25000000000001 4.8500000000000005 115.55000000000001 100.75000000000001 489.50000000000006 8021.5000000000009 157.50000000000003 156.75000000000003 31417.000000000004
decision_type=2 2 2 2 2 2 2 2 2 2 2 2 2 2 2 2 2 2 2 2 2 2 2 2 2 2 2 2 2 2 2 2 2 2 2 2 2 2 2 2 2 2 2 2 2 2 2 2 2 2 2 2 2 2 2 2 2 2 2 2 2 2
left_child=10 2 6 9 13 26 21 50 27 29 19 15 25 24 39 34 -10 -13 -14 -1 42 -2 -23 -19 -3 -11 43 -8 -29 38 41 -31 -33 44 -7 -36 -26 -21 -4 -9 -39 -20 46 -6 49 48 47 -15 -24 -16 -5 52 53 -52 55 57 -56 -53 -27 60 -58 -30
right_child=1 4 3 7 5 11 8 14 16 12 -12 17 18 20 33 -17 -18 23 30 37 -22 22 45 -25 36 58 -28 28 61 31 -32 32 -34 -35 35 -37 -38 40 -40 -41 -42 -43 -44 -45 -46 -47 -48 -49 -50 -51 51 54 -54 -55 56 -57 59 -59 -60 -61 -62 -63
leaf_value=-0.060659513564897197 -0.062659377313958847 -0.062743072104684966 0.016282473300895724 0.064952529759284089 0.061284694179560652 0.066606207668277073 -0.056467637225818726 0.048632633248178118 -0.028538849225571462 0.0022634833079428558 0.032325618767207014 -0.032542174786051363 0.057305436903638152 -0.043829635606934203 -0.010546426142085605 -0.050790358013915342 0.046441904255694999 0.061247102947103296 0.05434724428284668 -0.057174407171003097 -0.041392529483485707 -0.063003850802713091 -0.068608342016027377 -0.056598224980120126 -0.03277434667003893 0.074499975947438235 -0.066855552327131862 -0.058490368888867994 -0.00063727177426170945 0.013170152977039573 0.048401944036346428 0.046787592550800193 -0.044998976765633497 0.0099745070069979635 0.060243761569509668 -0.039380283301491355 0.051860410578956656 -0.068265643407388721 -0.052364931307941932 -0.0098108220634204463 0.0010243181015184633 0.010925329351988547 0.044860256616203124 0.019021380761515879 0.040381208765437403 -0.037127050521072021 -0.057273426595105849 0.050198127589534194 0.027766895315986185 -0.037283019109654723 -0.051239425960360269 -0.045928856137183637 0.054807914879783176 0.06919146139265725 0.061663013800712832 0.067750241493471142 -0.059773792985506051 0.060541592074208728 -0.0091425172008580032 0.013588226393765449 0.046071503622095063 0.078111037810708869
leaf_weight=352.06511190533638 131.46604603528976 12.892821222543718 21.420825302600864 25.920389801263809 29.296090066432953 10.994056433439257 28.834728091955185 26.048840641975403 11.478920459747313 8.2666926085948926 13.16911146044731 219.21095490455627 236.00071716308594 4.224028795957568 62.199906677007675 15.323379784822462 56.553961724042892 3.0546694099903098 18.747976869344711 26.667414098978043 7.558857560157775 27.880839258432388 3.0379154384136227 191.46761894226074 8.4825377762317675 198.83094456791878 3.604590266942977 12.010613530874251 25.581713020801548 53.307980835437775 97.605999380350113 114.74632143974304 3.9792861044406882 41.113398134708405 8.328437417745592 12.633033812046049 8.9275886118412 7.2754656076431266 8.8394037783145887 12.523449599742888 30.098409861326218 68.092461705207825 100.32130196690559 30.903672009706497 6.3955876827239981 17.846598714590073 4.8316083550453177 11.090011835098265 18.584978193044662 70.185504943132401 6.3176726698875409 6.3999781310558337 55.228836923837662 4.9444085657596588 7.1010126471519461 20.377626597881317 11.532229423522947 3.0605738162994385 3.3438400328159323 21.882272243499756 3.0433156788349143 4.323007106781005
leaf_count=1177 439 43 70 84 95 36 96 85 38 27 43 727 765 14 205 51 184 10 61 89 25 93 10 639 28 643 12 40 84 174 317 373 13 135 27 42 29 24 29 41 99 222 326 101 21 59 16 36 61 232 21 21 179 16 23 66 38 10 11 72 10 14
internal_value=0 0.01038 0.0226724 0.0372223 -0.0176014 -0.0298824 -0.0297976 0.0123 0.00208611 0.0487168 -0.0533944 -0.0386649 0.0551798 0.0231066 -0.00668481 -0.000883345 0.0337907 -0.0429824 0.0475952 -0.0561073 0.0334495 -0.0520538 -0.0313521 -0.0547476 -0.0205906 0.0703333 0.0335752 -0.0284009 -0.00909293 0.0285606 0.0351709 0.0342475 0.0437112 -0.0144772 0.0230482 0.000202464 0.0106248 -0.0310819 -0.00377032 0.0296575 -0.0124642 0.0202997 0.0381455 0.0395887 -0.0217209 -0.00899355 0.00470759 0.0242627 0.0142266 -0.0247211 0.0373142 0.032193 0.0458014 0.00163353 0.019865 0.0426279 0.00427229 -0.0114847 0.0731166 -0.00690589 -0.0376737 0.0107465
internal_weight=0 2238.2 1555.06 1217.46 683.145 524.817 337.599 384.275 138.783 833.182 429.276 461.012 630.889 158.329 218.467 47.2789 68.0329 413.733 420.447 416.106 128.026 198.816 67.3503 194.522 30.3029 210.441 63.8044 70.7501 41.9153 202.294 184.446 172.034 118.726 179.894 31.9555 20.9615 17.4101 64.0413 30.2602 38.5723 37.3739 86.8404 120.467 60.1998 138.781 39.4695 20.1456 15.314 21.6229 132.385 165.808 139.888 66.4909 11.2621 73.397 29.8382 43.5588 9.46055 202.175 36.4578 14.5755 29.9047
internal_count=8771 7339 5082 3964 2257 1740 1118 1259 456 2705 1432 1532 2046 517 719 156 222 1376 1365 1389 417 662 223 649 100 681 208 234 138 659 600 560 386 593 105 69 57 212 99 126 123 283 392 196 458 130 66 50 71 437 540 456 216 37 240 97 143 31 654 120 48 98
is_linear=0
shrinkage=0.05


Tree=7
num_leaves=63
num_cat=0
split_feature=35 34 10 4 45 34 35 3 10 20 10 45 44 40 40 45 36 40 34 34 30 40 9 35 46 44 24 45 35 25 44 38 41 45 30 10 45 47 42 40 1 41 2 13 12 43 44 10 47 44 0 14 10 7 12 20 24 52 41 50 2 44
split_gain=1307.58 765.333 514.412 80.0712 78.4159 75.3588 65.4361 48.9984 36.7758 33.1266 29.3874 32.2683 29.2539 27.6626 25.2183 24.8488 24.6052 23.133 18.0358 15.9334 15.6205 15.5245 14.508 13.3022 12.8087 11.678 11.4204 16.4478 11.2434 12.0201 10.8074 12.4135 12.8966 11.4863 10.5465 9.71224 11.3039 9.48629 12.9903 9.31769 9.29291 9.38692 9.15812 9.08021 8.84071 10.8969 8.76116 8.75906 8.66227 8.51759 8.31249 8.54425 8.2484 8.1769 8.06986 8.06162 8.7034 7.84457 14.2883 13.924 15.8655 7.82735
threshold=36.150000000000013 609.50000000000011 364.50000000000006 3161.5000000000005 100.75000000000001 1558.5000000000002 29.150000000000002 11888.500000000002 185.50000000000003 23186.000000000004 118.50000000000001 157.55000000000004 15.450000000000001 4.2500000000000009 4.6500000000000012 118.25000000000001 50.050000000000004 64.90000000000002 3206.0000000000005 467.50000000000006 6580.5000000000009 4.7500000000000009 8258.5000000000018 67.350000000000009 119.75000000000001 8.3500000000000032 2374.5000000000005 143.15000000000001 42.650000000000013 111.50000000000001 14.050000000000002 48.45000000000001 13.65 166.45000000000002 2236.0000000000005 3313.5000000000005 138.35000000000005 128.35000000000005 16.850000000000005 2.4500000000000006 10136.500000000002 11.65 7226.5000000000009 735.50000000000011 392.50000000000006 6.5500000000000007 23.150000000000002 4785.0000000000009 212.95000000000002 13.750000000000002 5465.5000000000009 385.50000000000006 235.50000000000003 12079.500000000002 122.50000000000001 3469.5000000000005 2213.5000000000005 3.5000000000000004 6.0500000000000007 1.0000000180025095e-35 8314.0000000000018 4.9500000000000011
decision_type=2 2 2 2 2 2 2 2 2 2 2 2 2 2 2 2 2 2 2 2 2 2 2 2 2 2 2 2 2 2 2 2 2 2 2 2 2 2 2 2 2 2 2 2 2 2 2 2 2 2 2 2 2 2 2 2 2 2 2 2 2 2
left_child=6 3 10 17 9 12 35 26 -5 -4 57 -12 16 24 -9 -16 21 20 49 -17 -2 44 30 34 -7 47 -8 -28 -24 53 31 33 -33 43 50 -1 -37 42 -39 -26 -27 -42 -35 -10 -6 -46 -14 55 -22 -15 -13 54 -53 -30 -52 56 -23 -3 -59 -60 -61 -18
right_child=1 2 4 8 5 13 7 14 22 -11 11 23 46 18 15 19 61 -19 -20 -21 48 25 28 -25 39 40 27 -29 29 -31 -32 32 -34 37 -36 36 -38 38 -40 -41 41 -43 -44 -45 45 -47 -48 -49 -50 -51 51 52 -54 -55 -56 -57 -58 58 59 60 -62 -63
leaf_value=-0.050234083960035925 -0.044119052634754775 -0.049607704666183972 -0.040357285861056996 -0.045646833844170641 -0.053797120650861542 -0.037647307181556872 -0.044087598787996424 -0.020384888563169234 -0.031517235703271924 0.10871740572866202 -0.047178074639181222 -0.029623218302755418 0.03919497306957212 0.10697450255417165 -0.017635832945079276 -0.01592429956700794 0.11554219281388428 0.068133831493608132 0.12370651321714923 0.07877263542556695 -0.020965005132104586 0.0031948852083686155 0.011224526492591369 0.085439284950745598 0.015509767221286717 0.066168008939664708 -0.034290219441646168 0.02771544857061739 0.090346698735992659 0.13875868971433289 -0.05309113138564904 0.068531355358381979 -0.01481982116054356 0.11181298649433169 -0.024424433092682312 -0.035791820000516714 0.054024043696700885 -0.0003482901052234374 0.10631485254399403 0.088949613176083464 -0.032840875841122455 0.065752940796479892 -0.001206044282756454 0.059245550317053843 0.072982648402257377 -0.053794911258085179 -0.023028504824865945 0.0013078375741723972 0.0993373663377764 0.081650402097792313 0.0094553367790065398 -0.053724649458794106 0.045468038053070869 0.0084619550422137153 0.10364883671427559 0.091562582153355984 0.090331850947155762 -0.043469060687834682 -0.052784895779433495 -0.0084058263959288504 0.12518555703320269 0.084146512194127943
leaf_weight=722.58901578187943 209.49678826332092 47.041337534785271 16.069033429026607 27.276161894202232 4.048556685447692 3.0943805128335979 108.50342428684235 31.972414970397949 25.123156577348713 4.8517370522022238 18.068483024835587 4.089073300361636 18.697849303483967 117.50865793228149 14.028533801436422 5.3645440340042141 32.11776328086853 4.8900644928216925 152.67296051979065 25.829583659768105 3.0642864406108847 5.9891159236431104 11.575281649827959 9.2401441484689695 5.7495812624692944 11.95021937787533 34.849427312612534 15.430705040693281 5.8655276000499743 5.1668667048215857 6.4967260658740988 16.740722909569744 6.4207419008016577 4.820434406399726 10.337008953094481 14.555162250995638 4.6135814040899268 33.723423838615417 3.1184712648391715 17.358552187681198 6.8635922223329526 3.7239975929260254 2.8534694463014603 3.0951130092144004 5.8743101209402067 2.3823418468236923 8.1111374050378782 3.5207727402448645 2.9242526739835739 46.281394883990288 3.1416523903608349 3.0881534367799741 6.5220561176538467 6.3485996723175049 8.2320530116558057 47.584955155849457 5.4947907626628876 21.190666407346725 4.1293363869190207 4.4492222219705564 4.4406808763742447 51.985664412379265
leaf_count=3158 916 205 70 118 17 13 472 137 107 19 79 17 77 461 60 23 127 20 592 105 13 24 49 37 24 48 151 66 24 21 28 70 27 20 44 63 19 142 13 70 28 15 12 13 24 10 34 14 12 184 13 13 27 26 34 189 22 92 18 19 18 208
internal_value=0 0.0375487 0.0679646 -0.0199046 0.0892295 0.092837 -0.0420064 -0.0190733 0.00718392 -0.00578537 -0.0165118 0.0092 0.0691232 0.107255 0.0136029 0.0376323 0.0763232 -0.0394027 0.111343 0.0624873 -0.041843 0.0592208 0.0181549 0.0320144 0.0578844 0.0668089 -0.0349594 -0.015261 0.049403 0.0748289 0.009318 0.0135461 0.045425 0.00339455 0.0180733 -0.0493022 -0.0141747 0.0192143 0.00868018 0.0706769 0.0359476 0.00183776 0.0697879 -0.0215619 0.00672594 0.0364028 0.0203691 0.0779218 0.0377796 0.0998188 0.0355942 0.0483029 0.0135934 0.047785 0.0776306 0.0824883 0.044888 -0.0363589 -0.0181408 0.0230845 0.0583257 0.096136
internal_weight=0 1094.9 715.901 379 571.931 551.011 977.736 235.979 158.625 20.9208 143.97 62.7186 208.345 342.666 77.1951 45.2227 181.536 220.375 316.463 31.1941 215.485 97.4327 131.349 44.6501 26.2025 85.1274 158.784 50.2801 28.9563 17.381 102.392 95.8955 23.1615 72.7341 35.41 741.758 19.1687 44.5158 36.8419 23.1081 22.5378 10.5876 7.6739 28.2183 12.3052 8.25665 26.809 62.5896 5.98854 163.79 25.073 20.9839 9.61021 12.2141 11.3737 59.0689 11.4839 81.2512 34.2099 13.0192 8.8899 84.1034
internal_count=8771 4517 2886 1631 2270 2181 4254 1014 670 89 616 264 837 1344 325 188 726 961 1237 128 941 391 552 185 107 340 689 217 120 71 432 404 97 307 148 3240 82 187 155 94 91 43 32 120 51 34 111 249 25 645 104 87 40 50 47 235 46 352 147 55 37 335
is_linear=0
shrinkage=0.05


Tree=8
num_leaves=63
num_cat=0
split_feature=15 35 35 35 40 35 40 11 40 35 40 36 50 35 45 45 40 40 35 45 39 19 32 0 15 40 11 41 8 47 40 20 26 25 6 40 21 11 0 36 23 22 26 49 26 15 48 37 50 41 36 41 49 42 13 6 46 35 35 40 11 14
split_gain=872.062 318.068 138.995 220.445 197.36 86.939 46.8501 42.0297 35.6768 33.2874 33.961 28.7318 29.4631 26.4891 55.7295 26.0899 23.5635 21.7572 21.0202 17.9678 15.9498 15.5469 15.4876 20.8371 14.0197 29.8917 13.281 13.6617 13.2562 13.2038 12.5793 13.4454 12.5385 11.3361 17.5304 15.2421 14.8162 12.6698 11.3225 14.8603 11.2004 10.8442 16.3441 17.3084 10.1947 9.86727 9.66678 9.18522 8.71684 14.2621 15.0837 10.627 8.93116 8.58684 8.54189 14.5973 17.5227 13.8544 7.86701 20.2478 7.6766 7.58941
threshold=5.5000000000000009 5.0500000000000007 -1.0000000180025095e-35 10.850000000000003 -3.7499999999999996 1.0000000180025095e-35 -4.0499999999999989 163.50000000000003 4.4500000000000011 5.0500000000000007 1.0000000180025095e-35 63.550000000000004 2.5000000000000004 18.650000000000002 100.75000000000001 101.85000000000001 -0.34999999999999992 -3.1499999999999999 14.050000000000002 121.45000000000002 7.5500000000000007 2.5000000000000004 2578.5000000000005 7596.5000000000009 11.500000000000002 0.45000000000000007 140.50000000000003 4.9500000000000011 18566.500000000004 53.350000000000001 -5.3499999999999988 1555.0000000000002 1131.5000000000002 2280.0000000000005 21161.000000000004 0.15000000000000005 3016.5000000000005 543.50000000000011 7646.5000000000009 39.850000000000001 1387.5000000000002 2101.5000000000005 129.50000000000003 112.95000000000002 3045.0000000000005 -1017.4999999999999 420.50000000000006 3.9500000000000006 5.5000000000000009 -7.8499999999999988 18.550000000000004 -0.34999999999999992 100.45000000000002 -0.24999999999999997 221.50000000000003 3813.5000000000005 129.55000000000004 9.3500000000000032 16.650000000000002 -0.54999999999999993 -39.499999999999993 -12.499999999999998
decision_type=2 2 2 2 2 2 2 2 2 2 2 2 2 2 2 2 2 2 2 2 2 2 2 2 2 2 2 2 2 2 2 2 2 2 2 2 2 2 2 2 2 2 2 2 2 2 2 2 2 2 2 2 2 2 2 2 2 2 2 2 2 2
left_child=2 5 -1 9 11 -2 22 18 26 28 15 12 29 14 16 47 -6 19 24 40 -10 -14 23 -3 25 -8 -7 -28 33 -5 32 -32 -31 34 35 37 -37 61 -33 -40 -17 42 -15 -44 -34 -13 -47 -11 -20 -50 51 52 -51 -16 55 -26 57 60 59 -9 -57 -4
right_child=1 6 3 4 13 8 7 58 20 10 -12 45 21 41 53 17 -18 -19 48 -21 -22 -23 -24 -25 54 -27 27 -29 -30 30 31 38 44 -35 -36 36 -38 -39 39 -41 -42 -43 43 -45 -46 46 -48 -49 49 50 -52 -53 -54 -55 -56 56 -58 -59 -60 -61 -62 -63
leaf_value=-0.036061317739692886 -0.043331401685871671 0.030865100680637272 0.1646458183387931 0.093224364592120815 0.28594239460277965 0.2821335402603381 -0.043592209785821706 0.14850395178143319 0.20104751082993638 0.12015541682967611 0.032530348963291759 0.16543625169033555 0.21603392842732655 -0.012576476648631705 0.099850547234909187 0.20705268269400789 0.070418391378087128 0.011246558777743608 -0.022171848717972963 0.32291151022795356 -0.018707168761733298 0.009218093245410992 0.0061710026576081954 0.24605883074151139 -0.022201708788933593 0.34632147756783194 0.055497257639967934 0.2653462899870333 0.33107737710284046 0.2855445321902782 0.3157728599261691 -0.0019046800060267559 0.047255847671470605 0.29488491488304597 0.053158130203002002 -0.0045631481563983617 0.22960310052884278 0.10348468139092848 0.3118172558594704 0.089713240379687531 -0.0021800601831712127 -0.036418877628933727 0.29492162492851492 0.02624930671522846 0.24216320373787453 -0.043749561190628686 0.13765608744681807 0.26739128513429183 0.1651741518178316 0.26375128990218716 -0.034610497304321419 0.020709308690436169 0.052763792617289598 -0.036389665087139804 -0.034499157114216299 0.18794340469655932 0.21506006203145667 1.6671923348601409e-05 -0.039861331268248978 -0.023843651204122216 0.05553716356769367 0.27857716089327111
leaf_weight=13.69035281985998 3.9029473438859013 1.9956632703542698 1.6698070019483662 1.8170956894755459 3.0210336819291115 10.376734219491484 0.944692343473437 1.8142761811614061 1.4229522943496697 1.2106059789657653 3.9283601343631736 1.6668631359934805 1.3430907800793637 6.4343436881899851 1.3909545391798008 1.3897617608308794 2.1857649236917487 2.7068369686603537 119.85731724649668 1.6297209933400152 1.9671799540519712 2.8095274493098259 3.0133855417370796 2.5781700611114502 7.0237603113055291 1.0246929526329038 1.4960497021675103 1.6105185002088545 4.1149901449680319 10.581049442291269 1.2466142475604929 1.1900145933032034 1.0909836962819093 5.8761038333177558 1.5304820910096157 1.261966630816459 1.4535766094923017 1.3465323820710171 1.2621419131755831 1.8672947511076925 1.1849537640810011 21.223625779151917 1.0323087275028231 1.4295907318592069 1.7423701286315916 2.2181049138307567 1.0978634431958196 8.4729432985186559 1.436197899281981 0.97547914087772403 11.34343810379505 5.4509892165660885 1.0324306115508077 6.8627901747822753 5.4794998914003363 1.9397966712713239 1.7368513420224179 6.8770265504717827 455.98251610249281 28.07468143850565 2.5126798972487432 11.729122251272203
leaf_count=153 44 19 14 17 25 79 10 17 12 10 40 15 12 68 14 12 22 26 1315 13 19 27 32 22 75 10 13 13 31 84 10 12 10 45 13 12 11 11 11 18 11 231 10 15 15 23 10 66 15 10 125 59 10 72 58 19 17 73 5091 309 25 91
internal_value=0 -0.0232963 0.115068 0.131887 0.0769606 0.169334 -0.0293501 -0.0307843 0.218526 0.213449 0.164726 0.175813 0.197704 0.00906431 0.0673756 0.19602 0.195467 0.121811 -0.00919688 0.192993 0.0735312 0.076109 0.0941812 0.152165 0.0307373 0.159284 0.254982 0.164288 0.24795 0.221983 0.23431 0.171119 0.26053 0.234195 0.215417 0.229639 0.120781 0.249686 0.129371 0.179291 0.110758 -0.016995 0.0293444 0.138907 0.167114 0.0661965 0.0163109 0.248984 -0.0170468 0.0133046 0.0017042 0.0569313 0.155265 -0.0134299 0.0208366 0.0359292 0.0671772 0.0445063 -0.0382324 -0.0133821 0.113222 0.264379
internal_weight=0 681.87 136.71 123.019 73.5134 20.7764 661.094 653.506 16.8734 49.5058 20.5232 29.933 24.9502 43.5804 13.4605 16.5948 5.2068 6.91127 167.635 4.20444 3.39013 4.15262 7.58722 4.57383 27.539 1.96939 13.4833 3.10657 28.9826 20.7976 18.9805 5.56607 13.4144 24.8676 18.9915 17.461 2.71554 14.7455 4.31945 3.12944 2.57472 30.1199 8.89624 2.4619 2.83335 4.98283 3.31597 9.68355 140.096 20.2385 18.8023 7.4589 2.00791 8.25374 25.5696 20.0901 13.0664 11.3295 485.871 29.889 4.45248 13.3989
internal_count=8771 7491 1280 1127 721 180 7311 7238 136 406 178 264 216 457 133 138 47 62 1821 36 31 39 73 41 287 20 105 26 228 177 160 51 109 197 152 139 23 116 41 29 23 324 93 25 25 48 33 76 1534 219 204 79 20 86 267 209 134 117 5417 326 44 105
is_linear=0
shrinkage=0.05


Tree=9
num_leaves=63
num_cat=0
split_feature=30 35 52 31 32 43 35 10 40 15 36 36 36 25 9 20 43 18 48 18 42 39 39 15 35 35 40 25 34 14 41 31 39 15 33 30 21 21 53 46 24 30 24 37 47 46 42 30 34 47 35 41 41 25 44 20 43 48 41 36 37 11
split_gain=1281.85 168.013 55.985 42.1139 39.1083 22.0516 21.6722 20.0502 18.168 16.2846 16.9539 14.3567 17.4084 13.0455 16.6263 16.6718 35.4601 39.9247 25.147 24.3954 17.8876 15.5989 20.9806 16.6638 18.5224 15.0274 12.5504 15.896 12.4587 12.0285 11.0754 11.8807 11.4554 10.2676 19.4565 9.61257 11.3987 21.0671 8.89967 8.54629 7.62399 7.33959 10.9546 17.4249 13.1075 20.8674 17.4754 11.2036 15.9153 9.03363 12.4556 6.36542 5.9105 8.45393 5.80941 5.55347 5.31009 18.89 6.85065 5.197 4.7473 4.67719
threshold=48.500000000000007 13.350000000000003 2.5000000000000004 -1.0000000180025095e-35 243.50000000000003 -4.4499999999999993 -1.0000000180025095e-35 802.50000000000011 -3.4499999999999997 -18.499999999999996 7.2500000000000009 38.350000000000001 18.550000000000004 740.50000000000011 3976.5000000000005 1903.5000000000002 0.45000000000000007 63.500000000000007 126.25000000000001 167.50000000000003 0.55000000000000016 28.150000000000002 23.850000000000005 -249.99999999999997 4.0500000000000007 6.9500000000000011 4.7500000000000009 74.500000000000014 3474.0000000000005 439.50000000000006 43.600000000000009 2381.0000000000005 98.750000000000014 -90.499999999999986 119.50000000000001 753.50000000000011 3111.5000000000005 2427.0000000000005 14.500000000000002 98.65000000000002 691.50000000000011 569.50000000000011 2805.5000000000005 14.250000000000002 104.05000000000001 106.45000000000002 4.7500000000000009 470.50000000000006 110.50000000000001 194.05000000000004 30.750000000000004 13.65 1.3500000000000003 45.500000000000007 -121.55 2188.5000000000005 5.4500000000000011 68.850000000000009 -0.34999999999999992 2.0500000000000003 -9.5499999999999989 506.50000000000006
decision_type=2 2 2 2 2 2 2 2 2 2 2 2 2 2 2 2 2 2 2 2 2 2 2 2 2 2 2 2 2 2 2 2 2 2 2 2 2 2 2 2 2 2 2 2 2 2 2 2 2 2 2 2 2 2 2 2 2 2 2 2 2 2
left_child=6 3 -3 5 8 -2 61 13 11 10 -8 12 -4 14 15 20 35 18 -18 -19 25 22 23 24 -16 39 27 -7 51 -25 31 32 41 34 -6 36 37 55 -32 -5 -36 42 44 -44 60 46 -46 49 -49 -47 -51 56 53 -27 -35 -17 -15 -58 -59 -56 -10 -1
right_child=1 2 4 7 33 26 9 -9 30 -11 -12 -13 -14 28 21 16 17 19 -20 -21 -22 -23 -24 29 -26 52 -28 -29 -30 -31 38 -33 -34 54 40 -37 -38 -39 -40 -41 -42 -43 43 -45 45 47 -48 48 -50 50 -52 -53 -54 -55 59 -57 57 58 -60 -61 -62 -63
leaf_value=0.36204279613078744 0.42495100980143763 0.44948275891987421 0.039915072505128074 0.33783003908434756 0.22511153785042884 0.082076325129951361 0.47232428630489737 -0.042117884180726109 0.10852864080050278 0.019670787495125967 0.18534994020484691 -0.042119676310064733 0.39464436423308946 -0.0083482632327810235 0.33358183289879084 0.15497733150283982 0.26668441961647266 -0.04251311808953824 0.64556422384638079 0.27705817730807408 -0.020578117122035437 -0.042164182867347959 0.3027494147266348 -0.024009028620445939 0.038349040770993048 0.19009352495112031 -0.042438257812139245 0.35097017065474634 0.22124834276745348 0.169072621237562 0.23355574735439588 0.17610380166325024 0.16580154655318752 0.11100448947821931 0.13505600984074498 0.26449468771719159 -0.022532255589390923 0.2906175305301798 0.012327037607023542 0.12179926980529487 -0.019697844914263851 -0.025584001090764853 0.3264525940496335 -0.042206639930086332 0.083661529961826089 -0.042162817912002631 0.40216539802542173 0.25982182068688786 -0.042146406919498891 0.25525095545319809 -0.042248003815122746 0.12681662805414159 -0.042276365452860572 -0.042216023870882483 0.095431180170544527 0.020527451968683878 0.27815747405791696 0.1182888853235613 -0.042187405557772138 -0.038531014085225468 -0.027860078027891495 0.28191963868570169
leaf_weight=21.382699154317386 0.96023739874362979 0.60969307273626228 0.6091338545083993 0.91921319067478335 0.93399243056774039 1.1981666050851343 0.77562438696622926 5.7533345222473136 0.66213025152683869 0.79660587012767692 1.5296671316027639 0.65404275059700001 0.8002326563000679 13.291773930192003 0.92922219634055947 1.0126855000853519 0.9690580517053593 1.1418023444712164 0.79907641932368279 1.2520311214029787 4.5691519975662231 4.7727489098906508 0.8696097172796734 5.4659291580319387 1.2404761947691438 1.0747885368764403 0.66388668119907368 1.015416909009218 0.75890734046697517 0.94626573100686062 0.90461955592036136 0.91432375833392043 0.96098922938108344 0.65307696908712287 0.84627948328852554 0.65164986252784718 2.5430222898721695 1.1998814158141611 0.91383363306522369 0.91205889731645584 13.359643731266258 30.267927620559931 0.67761848866939434 0.60822422802448273 1.1909734681248654 5.6005953736603242 0.67460623383522023 0.99249617755413033 0.77870062738656998 0.67165049538016297 0.73887070268392563 1.1818476803600777 1.129377383738756 0.61611120775341977 0.7254599966108789 3.1792280711233616 0.7798762284219255 0.93438906222581897 2.3071113638579845 355.54896513000131 17.516373906284574 1.9910149425268162
leaf_count=179 10 9 10 12 14 15 9 97 10 10 18 11 11 218 12 15 13 17 11 19 69 79 14 87 20 16 10 13 12 15 12 13 15 11 14 10 42 17 14 13 223 512 10 10 19 93 10 15 13 10 12 18 18 10 11 49 12 15 38 6146 293 18
internal_value=0 -0.018195 -0.0293106 0.0568022 -0.0299768 0.217474 0.338738 0.046727 0.00545176 0.214559 0.281904 0.151484 0.241329 0.0559457 0.0736347 0.100903 0.137946 0.257722 0.437912 0.12463 0.0496878 0.0315189 0.0687269 0.0450132 0.164789 0.118709 0.148237 0.205424 0.0226939 0.00448458 0.000749007 -0.0028038 -0.00547052 -0.0362745 0.00405494 0.0798896 0.0647288 0.105885 0.122381 0.230237 -0.0104788 -0.00819643 0.00928105 0.152071 0.00291171 0.0469653 0.198835 0.0147045 0.127063 -0.0136802 0.0994126 0.0145466 0.0462914 0.105447 -0.0379851 0.053008 0.00688274 0.0572255 0.0040712 -0.0382582 -0.0228923 0.355218
internal_weight=0 503.853 438.814 65.0383 438.205 3.83771 26.4756 61.2006 66.1373 3.1019 2.30529 2.06341 1.40937 55.4473 36.1934 21.9691 12.7484 4.16197 1.76813 2.39383 9.2207 14.2243 9.4515 8.58189 2.1697 4.65155 2.87747 2.21358 19.2539 6.41219 64.0739 62.2555 61.3412 372.067 15.1399 8.58647 7.93482 5.39179 1.81845 1.83127 14.2059 60.3802 30.1122 1.28584 28.8264 10.6479 1.86558 8.78231 1.7712 7.01112 1.41052 18.495 2.82028 1.6909 356.928 4.19191 17.3132 4.02138 3.2415 356.274 18.1785 23.3737
internal_count=8771 8537 7521 1016 7512 48 234 968 1093 37 27 32 21 871 558 331 193 60 24 36 138 227 148 134 32 69 38 28 313 102 1061 1035 1022 6419 251 133 123 81 26 25 237 1007 495 20 475 172 29 143 28 115 22 301 44 26 6168 64 283 65 53 6157 303 197
is_linear=0
shrinkage=0.05


Tree=10
num_leaves=63
num_cat=0
split_feature=40 35 45 10 46 35 40 15 23 35 35 35 10 10 0 40 30 10 30 35 14 45 10 20 45 45 10 35 40 10 10 17 46 40 16 50 31 30 47 50 31 24 2 10 31 45 3 45 15 25 50 41 33 32 46 32 30 10 30 27 30 42
split_gain=649.457 211.514 210.212 230.361 171.682 113.117 61.6488 55.5748 51.7572 45.3865 32.7633 28.3004 71.1971 29.7489 21.2861 19.7296 19.0814 18.5862 29.2881 18.3876 18.0887 26.167 17.4587 19.8115 16.9561 16.5749 16.3279 16.1201 18.7079 15.7388 15.5857 17.3326 14.1465 13.8565 13.812 13.7439 13.6726 13.3872 12.1643 12.0894 11.9802 11.5558 14.6683 11.54 13.3129 11.3749 11.5535 11.2586 11.0969 10.5583 10.0264 11.9438 11.7249 13.7611 9.98934 9.91393 9.75236 9.39829 12.3083 9.36685 9.30007 9.29909
threshold=3.9500000000000006 5.0500000000000007 119.35000000000001 10.500000000000002 107.35000000000001 20.350000000000005 -4.5499999999999989 -128.49999999999997 1.0000000180025095e-35 21.750000000000004 12.450000000000001 21.450000000000003 103.50000000000001 -512.49999999999989 1499.5000000000002 5.6500000000000012 180.50000000000003 -1257.4999999999998 894.50000000000011 2.1500000000000008 426.50000000000006 100.25000000000001 2023.5000000000002 12583.000000000002 105.55000000000001 93.750000000000014 393.50000000000006 14.750000000000002 -5.3499999999999988 -53.499999999999993 -15.499999999999998 153.50000000000003 56.000000000000007 6.5500000000000007 14.500000000000002 5.5000000000000009 886.50000000000011 7118.5000000000009 95.250000000000014 5.5000000000000009 41.500000000000007 2712.5000000000005 8991.0000000000018 456.50000000000006 523.50000000000011 100.25000000000001 5644.5000000000009 101.85000000000001 37.500000000000007 1383.0000000000002 4.5000000000000009 4.4500000000000011 294.50000000000006 931.50000000000011 118.65000000000002 864.50000000000011 196.50000000000003 -423.49999999999994 1640.5000000000002 2241.0000000000005 248.50000000000003 10.65
decision_type=2 2 2 2 2 2 2 2 2 2 2 2 2 2 2 2 2 2 2 2 2 2 2 2 2 2 2 2 2 2 2 2 2 2 2 2 2 2 2 2 2 2 2 2 2 2 2 2 2 2 2 2 2 2 2 2 2 2 2 2 2 2
left_child=1 26 7 6 8 43 17 27 25 19 33 13 24 54 -12 32 -7 -4 -19 -10 38 -22 23 41 -13 -2 -1 47 -29 -26 37 -32 -11 -6 35 -18 -31 39 -14 56 -27 -21 -43 44 48 46 49 -3 -5 -16 60 52 -52 -54 -9 -49 -8 58 -20 -15 -17 -34
right_child=4 2 3 5 10 16 30 11 9 15 14 12 20 59 45 50 34 18 57 22 21 -23 -24 -25 29 40 -28 28 -30 36 31 -33 61 -35 -36 -37 -38 -39 -40 -41 -42 42 -44 -45 -46 -47 -48 55 -50 -51 51 -53 53 -55 -56 -57 -58 -59 -60 -61 -62 -63
leaf_value=-0.039557967251433387 0.10698005410759837 -0.031997096936462965 -0.043771683552686146 0.12422029165570803 0.10563269761808908 0.10605277838065358 0.030758338806057762 -0.049510770460746069 -0.048542797044578416 0.10239224917670969 0.088803412471992416 0.11682438058362486 0.032462483447382305 0.096520397823470397 -0.003075915500664586 0.068885660027919335 -0.010249532685162786 -0.024886545541976248 -0.031325824742275042 0.014472382113173613 0.14203862787875424 -0.0033004904042625359 -0.026941067705884364 0.126819578365405 0.11064241838377982 0.059288102032291595 0.076546288566591653 -0.00012738802811342623 0.088597390607658616 0.085375461676827247 0.091839933487292344 -0.029020224960303355 -0.0074904682639466051 -0.0018657364973101651 -0.037323439243351429 0.10684613471969218 -0.040610071939304798 -0.0095076527163911202 -0.03095415551758543 0.057424925695042331 -0.0035620959339946918 0.12701907044315094 0.023482588024381808 -0.00048205215925818272 0.13810285373239062 -0.041243430092443516 -0.039755215618088924 0.0014658714826366694 0.031175778126771032 0.10474807615481602 -0.049052737557923082 -0.029148520818871024 0.18216523571307455 0.024974961676643717 0.070297336003837793 0.12362261139851266 0.12276450087546059 0.15285797482098873 0.095114514943759942 0.13652697172509762 -0.037418713696275578 0.098702546410499636
leaf_weight=87.784513369202614 12.521177262067793 14.650400429964067 9.3979189693927747 4.7701901048421922 5.0977946370840055 2.5450066924095145 3.0371074080467215 4.4450842589139929 5.4226761758327475 4.5404556095600155 3.2124590873718253 40.575945779681206 12.654959172010424 145.41795067489147 6.3614809513092059 2.1120553165674201 19.326842933893207 10.1902042478323 2.6374408006668073 16.865789622068409 5.907314404845236 6.5095630884170532 6.5284978300333014 8.934089392423628 7.3061410784721401 24.892974078655243 3.1363177001476279 10.063773542642595 14.503323227167128 3.6753080040216428 7.622309133410452 4.8565002083778381 17.906034082174305 7.2766840159893036 149.71208491921425 2.8792626559734336 5.2010236382484436 2.4468056559562674 18.788220539689064 9.5756785422563535 10.903063163161276 6.9839752316474897 6.7051104456186295 3.9571996182203284 9.3884322643280012 710.90058721601963 10.582755491137503 4.7786465138196936 9.7631486952304822 3.5304013043642044 2.0672173500061062 10.166857436299322 2.369620069861412 3.3759430795907974 2.8587415516376495 2.5457709729671478 55.732945814728737 3.8897712379693976 7.122465118765831 16.267624586820602 79.541492998600006 2.3297486752271643
leaf_count=480 55 78 50 20 24 12 14 23 30 21 15 175 62 630 32 11 103 53 13 82 26 34 33 40 31 117 15 51 64 18 34 25 94 37 818 15 26 12 97 43 57 32 32 19 40 3921 56 23 47 17 11 55 12 18 13 11 233 17 32 68 433 11
internal_value=0 0.0357734 0.045986 0.01734 -0.0267452 -0.014909 0.0733471 0.0748768 0.0116306 -0.000963037 -0.038262 0.0835868 0.062593 0.0960868 -0.0396211 -0.0172968 -0.0298534 0.0157787 0.0392541 0.0385407 0.0147474 0.0658444 0.0488026 0.0613249 0.0995658 0.0574647 -0.0355529 0.0244215 0.0522518 0.0562915 0.0963256 0.0448036 0.022632 0.0424194 -0.0318653 0.00493319 0.0115551 0.105407 -0.00543082 0.109521 0.0401447 0.0421746 0.0763054 0.0786109 0.0916946 -0.0401852 -0.00344252 -0.00669178 0.0617152 0.0354063 -0.0272261 0.00657549 0.0530635 0.0898043 -0.00261748 0.0439243 0.11801 0.0871385 0.0609463 0.100546 -0.034669 0.00473555
internal_weight=0 725.922 635.001 318.851 971.129 202.342 116.509 316.15 224.167 175.85 746.962 269.608 100.618 168.989 734.588 124.409 174.463 33.2378 23.8399 51.4401 43.8601 12.4169 46.0175 39.489 56.7584 48.3172 90.9208 46.5419 24.5671 16.1825 83.2713 12.4788 24.7762 12.3745 171.918 22.2061 8.87633 70.7925 31.4432 68.3457 35.796 30.5549 13.6891 27.879 23.9218 731.375 20.4746 21.9748 14.5333 9.89188 99.6332 17.9796 7.81278 5.74556 7.30383 7.32442 58.7701 13.6497 9.75991 161.686 81.6535 20.2358
internal_count=8771 3525 3030 1600 5246 1074 526 1430 1144 915 4102 1203 469 734 4041 666 948 165 115 249 219 60 219 186 250 229 495 227 115 75 361 59 126 61 936 118 44 302 159 290 174 146 64 126 107 4026 105 112 67 49 540 96 41 30 36 34 247 62 45 698 444 105
is_linear=0
shrinkage=0.05


Tree=11
num_leaves=63
num_cat=0
split_feature=10 35 33 35 40 10 35 24 35 33 45 31 33 43 45 45 15 22 24 20 45 52 40 45 4 35 33 10 11 50 44 35 10 45 11 45 35 45 10 45 20 10 44 45 10 45 15 39 47 40 35 45 45 9 40 39 24 10 39 43 40 50
split_gain=525.876 249.612 392.374 154.329 97.6402 63.7667 63.3419 64.6876 61.567 53.7982 41.745 34.0433 29.3003 28.628 28.4266 22.2459 21.7201 18.8421 18.363 17.9197 16.648 16.4576 15.8617 15.8381 23.7997 27.821 20.4192 15.6692 15.3636 16.1668 14.6535 14.5049 13.6645 12.7393 11.5777 11.6758 12.9221 11.1587 11.0689 11.0336 15.8165 10.9158 10.6283 10.5086 21.4595 25.5527 14.4969 10.2934 10.2249 13.3933 13.7088 9.99938 9.97385 9.94244 9.59359 9.15631 8.99408 8.94465 8.88178 8.81528 8.77534 8.77495
threshold=1.0000000180025095e-35 16.650000000000002 1116.0000000000002 36.150000000000013 4.2500000000000009 370.50000000000006 20.050000000000004 1811.5000000000002 43.550000000000004 2893.0000000000005 107.65000000000002 109.50000000000001 12326.000000000002 24.150000000000002 112.15000000000002 102.35000000000001 277.50000000000006 19397.500000000004 2263.0000000000005 40113.000000000007 100.25000000000001 3.5000000000000004 2.1500000000000008 97.250000000000014 2765.5000000000005 50.150000000000013 55.500000000000007 103.50000000000001 133.50000000000003 1.0000000180025095e-35 4.8500000000000005 9.3500000000000032 889.50000000000011 150.95000000000002 212.50000000000003 147.75000000000003 27.750000000000004 407.20000000000005 1904.5000000000002 95.65000000000002 26466.500000000004 262.50000000000006 12.750000000000002 140.45000000000002 193.50000000000003 106.05000000000001 340.50000000000006 31.350000000000005 87.950000000000017 4.8500000000000005 5.8500000000000005 106.05000000000001 125.45000000000002 8135.5000000000009 1.7500000000000002 55.650000000000013 4515.5000000000009 446.50000000000006 62.650000000000013 -1.8499999999999999 3.7500000000000004 5.5000000000000009
decision_type=2 2 2 2 2 2 2 2 2 2 2 2 2 2 2 2 2 2 2 2 2 2 2 2 2 2 2 2 2 2 2 2 2 2 2 2 2 2 2 2 2 2 2 2 2 2 2 2 2 2 2 2 2 2 2 2 2 2 2 2 2 2
left_child=12 5 6 19 17 -2 14 11 43 13 48 52 21 15 32 -6 53 20 37 34 -5 -1 -22 26 -25 -26 -13 -16 -23 -30 -27 38 -3 -24 61 41 -37 -17 -12 40 -11 51 47 44 45 -9 -45 -18 -7 -50 -51 -36 -8 -10 -28 -44 -35 -38 -32 -48 -33 -4
right_child=1 2 3 4 9 10 7 8 16 39 31 23 -14 -15 27 18 42 -19 -20 -21 22 28 33 24 25 30 54 -29 29 -31 58 60 -34 56 35 36 57 -39 -40 -41 -42 -43 55 46 -46 -47 59 -49 49 50 -52 -53 -54 -55 -56 -57 -58 -59 -60 -61 -62 -63
leaf_value=-0.06012874157500081 -0.054972473814456385 -0.056450497605583433 0.02095389755626435 -0.052724320717519015 0.0589644191436191 -0.055536236409377861 -0.028824364725828684 -0.038395947082740758 0.057262214105172939 0.060129436652821236 -0.045915942617733387 -0.033668970616504368 0.036037914812590589 0.041276176084323823 -0.056069322779888311 0.030256996395927039 -0.00060298991607538315 -0.053340769945902089 -0.026819547236990662 -0.038998557364673621 0.056818327891888391 -0.058198571925697808 0.057247094154845773 0.06256993511148938 0.053539702780978374 -0.0061203502538625986 -0.031701106324751337 0.031762753755421695 -0.0528037547290705 -0.0062020579757477556 0.049813341308392635 0.0025943533135123122 0.020348387200114247 0.030597865488280293 -0.056836985710783196 0.073307015069219869 0.070859506896784288 -0.049297953761577723 0.063778647179963593 -0.049682482825763936 -0.064403214648353274 0.052972946529289779 0.046575698308820163 0.049713636116467848 0.053784456257377572 0.053525254582017845 -0.047140665645106501 -0.036961569034293568 -0.045089480702850786 -0.067273311642329872 0.043631893234097864 0.043281121591815616 0.022240576262531207 -0.0081074660971068146 0.050330104501156693 -0.028749881747616775 -0.016309913995612598 -0.021101198804164396 -0.01785969572107253 0.015004581840224896 0.056227220796714876 -0.042500072738979836
leaf_weight=274.5286557674408 161.23483663797379 28.412958413362503 27.969622135162354 6.0806191861629477 8.6661802828311902 28.840137630701065 11.963268995285032 15.363340973854067 16.967292159795765 5.5842256247997266 9.5878375768661481 11.524988353252409 9.4382672607898694 20.495903104543686 5.8896296322345725 23.466356515884403 30.466375887393951 7.7497288584709159 246.31863313913345 8.7300115227699262 39.69675001502037 58.924055993556976 13.876138180494307 330.95698982477188 154.53412136435509 36.836213827133179 3.9651529788970938 36.841309159994125 30.52428537607193 47.682421237230301 29.893929868936539 10.370102494955061 7.2748909890651694 16.834359169006348 4.5176832079887372 6.4848899245262173 3.1045078039169338 5.4271803498268119 3.0253817439079276 230.49333181977272 4.6919345259666443 101.54430216550827 11.051616132259371 32.81391429901123 124.67561855912209 14.885810166597365 6.4204492866992942 53.914914548397064 17.451279252767563 3.6070270836353293 12.246458381414412 5.5673801600933075 47.643080562353134 8.8510904014110547 35.248051404953003 6.3538152873516074 26.004491746425629 17.83485546708107 5.7871303260326377 51.307410687208176 28.830331653356552 6.7664594054222098
leaf_count=937 548 96 91 20 28 97 39 51 55 18 32 38 31 67 20 77 100 26 823 29 128 201 45 1063 498 120 13 120 104 159 97 34 24 55 15 21 10 18 10 784 16 328 36 106 402 48 21 179 59 12 40 18 155 29 114 21 86 58 19 167 93 22
internal_value=0 0.0098506 0.0161182 -0.00975927 -0.0210833 -0.034738 0.0354807 0.0387438 0.0220647 -0.029762 -0.00610914 0.048054 -0.0510659 -0.015792 -0.00785449 -0.0199124 -0.00610681 0.0218325 -0.0223961 0.0309028 0.0275166 -0.053063 0.0325773 0.0515851 0.0540171 0.0415502 0.0248394 0.0196568 -0.0389178 -0.0243908 0.0160005 0.0270329 -0.0407952 0.0156102 0.0344141 0.0408643 0.0116333 0.0153139 -0.0196048 -0.0474225 0.00326977 0.0480455 -0.0164961 0.0367096 0.0446183 0.00683909 0.0231769 -0.0238341 -0.0337415 -0.0148684 0.0183984 -0.00156757 0.0119916 0.0348521 0.0420353 0.0190783 0.00212341 -0.00746694 0.0388374 0.00809283 0.0420392 0.0085933
internal_weight=0 2232.94 1957.75 837.906 655.386 275.193 1119.84 1041.42 373.072 545.144 113.959 668.353 421.098 304.374 78.4188 283.878 127.605 110.242 275.212 182.52 102.492 411.659 96.4117 608.747 558.008 227.051 50.7382 42.7309 137.131 78.2067 72.5173 51.8137 35.6878 56.715 173.79 139.054 27.4243 28.8935 12.6132 240.769 10.2762 111.629 101.787 245.467 154.925 30.2492 90.5418 84.3813 62.1449 33.3048 15.8535 10.0851 59.6063 25.8184 39.2132 17.4054 42.8389 20.9394 35.6811 57.7279 39.2004 34.7361
internal_count=8771 7339 6414 2783 2191 925 3631 3371 1215 1831 377 2156 1432 1013 260 946 420 360 918 592 334 1401 314 1962 1797 734 165 140 464 263 236 169 120 186 563 450 89 95 42 818 34 361 336 795 501 99 294 279 208 111 52 33 194 84 127 57 141 68 116 188 127 113
is_linear=0
shrinkage=0.05


Tree=12
num_leaves=63
num_cat=0
split_feature=35 34 10 9 35 45 34 24 40 45 15 20 10 45 40 44 31 46 40 31 44 11 45 46 40 40 24 20 35 40 31 29 10 45 50 36 12 34 36 47 47 26 41 37 24 24 40 16 24 31 36 11 52 50 45 22 19 34 9 12 19 0
split_gain=1179.42 645.98 423.685 75.3965 64.2709 62.5122 57.7158 46.1696 32.2352 33.709 31.6701 28.6021 27.5666 29.3598 25.1939 23.2715 19.9982 19.4049 19.4255 17.0499 15.1159 12.8448 17.1192 12.7085 12.5754 12.2998 12.2135 11.8705 11.2515 10.7006 10.1487 9.70987 9.53157 10.3828 8.83202 10.5701 8.57066 8.49333 8.63758 10.3186 9.26384 8.78973 8.38521 8.31379 8.23154 8.88727 8.60378 8.93753 7.98487 10.7772 8.95041 7.95634 12.5946 12.7131 9.33313 7.50069 9.42833 12.7281 8.82025 8.6736 7.51317 7.4849
threshold=36.150000000000013 609.50000000000011 364.50000000000006 2738.5000000000005 29.150000000000002 100.75000000000001 2378.5000000000005 2374.5000000000005 4.0500000000000007 99.550000000000011 163.50000000000003 23186.000000000004 118.50000000000001 157.55000000000004 4.2500000000000009 15.450000000000001 6225.5000000000009 152.75000000000003 4.8500000000000005 4672.5000000000009 4.5500000000000007 543.50000000000011 160.65000000000001 268.00000000000006 7.9500000000000011 64.90000000000002 1733.5000000000002 20573.500000000004 66.450000000000017 2.4500000000000006 2323.0000000000005 397.50000000000006 3313.5000000000005 138.35000000000005 2.5000000000000004 33.250000000000007 484.50000000000006 703.50000000000011 62.550000000000004 313.85000000000008 193.15000000000001 31.500000000000004 -0.74999999999999989 61.45000000000001 5290.5000000000009 2134.5000000000005 4.2500000000000009 352.50000000000006 4917.5000000000009 2440.0000000000005 44.850000000000001 462.50000000000006 3.5000000000000004 1.0000000180025095e-35 166.45000000000002 2924.5000000000005 45.500000000000007 474.50000000000006 12955.500000000002 798.50000000000011 25.500000000000004 7159.5000000000009
decision_type=2 2 2 2 2 2 2 2 2 2 2 2 2 2 2 2 2 2 2 2 2 2 2 2 2 2 2 2 2 2 2 2 2 2 2 2 2 2 2 2 2 2 2 2 2 2 2 2 2 2 2 2 2 2 2 2 2 2 2 2 2 2
left_child=4 3 12 16 32 11 15 -6 -9 -10 -5 -4 51 -14 27 17 25 18 -7 43 21 22 -12 55 -24 31 -17 29 30 -8 44 -2 -1 -34 -20 -36 37 -19 39 40 41 -39 -38 -11 45 -15 -47 -48 49 50 -28 -3 -53 -54 -55 59 58 -58 60 -23 -57 -56
right_child=1 2 5 10 7 6 14 8 9 19 20 -13 13 28 -16 26 -18 36 34 -21 -22 23 24 -25 -26 -27 48 -29 -30 -31 -32 -33 33 -35 35 -37 42 38 -40 -41 -42 -43 -44 -45 -46 46 47 -49 -50 -51 -52 52 53 54 61 56 57 -59 -60 -61 -62 -63
leaf_value=-0.049330980366878129 -0.046669886558028756 -0.048815569998073384 -0.039112224887836111 -0.038880366075761896 -0.041616966334567074 -0.004438584811973339 -0.052951225029081443 -0.032408674027740114 -0.04882830449070652 0.031378035725169361 -0.031009204099908167 0.096987143550176513 -0.046178862422365297 0.080595784685562361 0.10602204928160011 -0.034379889620218075 0.061758235465006431 0.014636908279653117 0.072385144647550401 0.10285077984752067 -0.0039514814308109327 0.059473190487283722 0.071549109504856059 -0.040179451890120954 0.0024438765509991328 0.043857806862641735 -0.019584358260777864 0.13018540285946945 0.075194588807206253 0.048432727646113352 -0.030149163554122727 0.014434145620094738 -0.034718228144215921 0.050920100815367721 -0.043394162169255311 0.060278142340380349 0.0079895726327114652 0.013144245839439048 0.10963170696028693 -0.036374847052168077 0.10682702571514607 0.080374854010158342 0.091084884968965718 -0.053467828879581986 0.098985878730448618 -0.020410613621756484 -0.0035198655334590934 0.12523433505027753 0.085470814522326799 0.0048511004987147437 0.076244403120222917 -0.044030167997107683 -0.052115086034875462 -0.013273695303609143 0.021963983489045491 0.01288925583356542 -0.04511029617777948 0.076807336588453567 0.14731179194946895 0.13948571664040485 0.11371867920787537 0.13232584878064788
leaf_weight=697.45321346819401 181.32446511089802 46.239683985710144 15.521670088171961 33.340503245592117 109.74761807918549 11.933306738734244 3.4602563828229931 41.966603547334671 13.981944635510443 54.504729777574539 15.921193361282347 5.138270527124404 17.449156403541565 4.7747366428375306 228.6217448413372 5.2015739232301703 4.7004854679107657 7.0052499920129767 57.894191548228264 8.4734088331460935 59.385835483670235 11.008561864495276 12.315189138054849 3.5984908044338217 14.14417017996311 4.0248767435550681 2.8928896635770824 3.191683053970336 10.616143092513083 10.500351727008818 8.763111546635626 6.7432831078767768 14.178942158818247 4.7166692316532126 3.8472784310579282 6.8117904216051102 3.0990351140499106 9.3049395680427605 12.242225110530851 2.5420138686895362 10.337697625160216 10.180944398045538 149.24983370304108 3.0486994236707678 3.9059185683727256 11.821870461106302 2.9336594343185416 2.4933741688728333 10.181878998875616 15.862619429826735 15.449677139520643 18.512457013130188 4.4583746492862693 3.7421348392963392 2.6331239342689514 5.9780758768320101 5.718942314386366 3.4215586483478546 2.7175145000219336 4.8923094719648352 2.6738772392272949 3.6884028166532516
leaf_count=3158 821 208 70 148 493 49 15 184 62 229 69 19 79 19 833 22 19 27 221 33 252 46 51 15 59 16 12 12 41 41 38 30 63 19 15 26 12 36 46 10 39 39 563 13 16 49 12 10 39 64 60 83 20 16 11 25 24 14 11 20 11 14
internal_value=0 0.0348901 0.0618318 -0.0188981 -0.0409774 0.080201 0.0832463 -0.0180881 0.00308213 0.0216979 0.00496727 -0.00526337 -0.0158278 0.00892933 0.101637 0.0697149 -0.0401348 0.0752251 0.054436 0.0366327 0.0152786 0.0291395 0.00995749 0.0494584 0.0346081 -0.0426281 0.0381069 0.0431923 0.0301524 0.0233038 0.0163692 -0.044479 -0.0483817 -0.0133414 0.0646845 0.0228587 0.0834289 0.0658196 0.0738573 0.0603257 0.068568 0.0482708 0.0893946 0.0268836 0.0320905 0.0202265 0.00351549 0.0556344 0.0466014 0.0350312 0.0611308 -0.0354269 -0.0166863 0.0181713 0.0493094 0.0583174 0.0383356 0.000527064 0.0687319 0.0840911 0.0440505 0.0863565
internal_weight=0 1114.41 742.503 371.909 948.072 600.471 579.811 231.723 121.975 80.0088 175.116 20.6599 142.032 62.758 245.774 334.037 196.793 284.449 80.4866 66.0268 141.776 82.3899 42.3806 40.0093 26.4594 192.093 49.5886 17.1523 45.3088 13.9606 34.6927 188.068 716.349 18.8956 68.5533 10.6591 203.962 51.6131 44.6078 32.3656 29.8236 19.4859 152.349 57.5534 25.9296 22.0236 17.2489 5.42703 44.3871 34.2052 18.3426 79.2742 33.0345 14.522 10.0637 36.4108 20.51 9.1405 11.3695 15.9009 8.65195 6.32153
internal_count=8771 4517 2886 1631 4254 2270 2181 1014 521 337 745 89 616 264 901 1280 886 1083 311 275 597 345 179 166 110 867 197 68 185 56 144 851 3240 82 262 41 772 197 170 124 114 75 575 242 106 90 71 22 175 136 72 352 144 61 41 151 85 38 47 66 36 25
is_linear=0
shrinkage=0.05


Tree=13
num_leaves=63
num_cat=0
split_feature=10 35 35 35 40 30 11 30 30 30 10 45 10 35 47 35 10 10 21 27 38 16 49 5 15 24 49 49 17 35 40 30 12 44 12 36 52 16 26 32 32 17 25 11 15 6 30 12 40 9 24 39 31 5 37 14 26 21 6 20 41 41
split_gain=757.178 302.348 104.136 174.424 117.533 66.9448 47.2196 31.1454 28.4794 21.405 20.358 19.8238 41.8218 27.7238 16.912 12.6393 20.7583 12.1211 28.5436 13.9962 12.528 11.9371 11.4577 11.4454 11.3768 12.8262 10.9446 18.8444 10.8427 12.1446 10.6472 10.4827 9.49726 11.5524 11.8966 9.0973 21.1919 13.6618 24.5967 10.1305 10.6263 10.1124 13.4228 13.517 9.04727 8.99257 8.62773 12.1782 15.8966 7.29096 10.1668 7.07838 7.40915 7.13782 6.93548 7.15711 12.1823 8.95699 7.62004 8.08042 6.57639 9.019
threshold=-53.499999999999993 5.0500000000000007 1.0000000180025095e-35 16.650000000000002 -3.7499999999999996 1.0000000180025095e-35 163.50000000000003 2263.0000000000005 154.50000000000003 1115.5000000000002 -15.499999999999998 104.85000000000001 -512.49999999999989 5.8500000000000005 51.150000000000013 3.1500000000000008 157.50000000000003 -360.49999999999994 1944.5000000000002 1719.0000000000002 37.95000000000001 38.500000000000007 145.95000000000002 9488.5000000000018 -706.49999999999989 1452.0000000000002 75.550000000000011 116.85000000000001 1209.5000000000002 68.15000000000002 -4.9499999999999993 503.50000000000006 424.50000000000006 9.7500000000000018 528.50000000000011 19.950000000000003 3.5000000000000004 -20.499999999999996 322.50000000000006 321.50000000000006 802.50000000000011 -112.49999999999999 250.50000000000003 26.500000000000004 -72.999999999999986 7636.5000000000009 213.50000000000003 6.5000000000000009 2.6500000000000008 11828.000000000002 2570.5000000000005 25.850000000000005 1737.5000000000002 17109.500000000004 24.250000000000004 156.50000000000003 960.50000000000011 1110.5000000000002 10660.000000000002 4790.5000000000009 1.5500000000000003 0.8500000000000002
decision_type=2 2 2 2 2 2 2 2 2 2 2 2 2 2 2 2 2 2 2 2 2 2 2 2 2 2 2 2 2 2 2 2 2 2 2 2 2 2 2 2 2 2 2 2 2 2 2 2 2 2 2 2 2 2 2 2 2 2 2 2 2 2
left_child=2 5 -1 11 7 -2 8 14 10 15 -3 32 30 -14 -5 -7 -17 19 20 22 -19 23 -16 -9 -6 44 -12 -28 -23 -30 -13 -32 51 34 -34 36 41 38 -38 -40 -41 42 -10 -44 -26 -24 47 48 -8 50 -47 52 53 54 55 57 -57 -4 -59 -60 61 -39
right_child=1 6 3 4 24 9 46 21 35 -11 26 12 13 -15 17 16 -18 18 -20 -21 -22 28 45 -25 25 -27 27 -29 29 -31 31 -33 33 -35 -36 -37 37 60 39 40 -42 -43 43 -45 -46 49 -48 -49 -50 -51 -52 -53 -54 -55 -56 56 -58 58 59 -61 -62 -63
leaf_value=-0.035318056618281669 -0.043200807613935674 0.20883921717905088 0.10027729863446178 -0.011523628686867926 0.12239193092038328 0.21016061910763528 0.22791395734807882 0.027027901768327922 -0.043408110681628677 -0.044058651447641421 0.0034784613381185145 0.22477494971615375 0.16111466100839078 -0.0052851707784469298 0.23662848328309019 0.18505786217112175 0.031781477785591185 0.073246958427239203 -0.024825518004650795 0.065398181020874788 0.27367395814985934 -0.044017825870416867 0.23382125592901645 0.2271339863007299 0.10240070414522817 -0.038896854032709427 0.25825741024905247 0.028718606693982757 0.17266549247748195 -0.043858263297064423 0.20067220802317751 -0.0015790058191255591 0.048113897477682466 0.045942013309559583 0.19699002624349238 -0.024757757093004557 -0.010152977107714655 0.0059824609447666488 0.048991932240596003 0.30980654498164495 0.11711302842096108 -0.024985968069812584 0.043759396747791855 0.28119067353770627 -0.0057470552334707237 0.14013656297503427 -0.039106369936768248 -0.03131377160360483 -0.043536028637118085 0.20389953546552475 -0.044627453355554569 0.23829440207213201 0.071045720210186236 0.25555055998967097 0.10163306162940151 0.21065890246805952 0.020716597855231528 0.24855935158039866 0.078288784426683425 0.22332377958071273 -0.043535805412211824 0.11657938875675478
leaf_weight=12.631276041269301 4.4519236981868771 1.9686811938881881 1.6976230144500863 1.5180242806673074 1.4940175265073801 13.200099803507333 1.2872957810759538 1.3917656987905487 2.0666814818978301 1.1391195431351651 8.4663603976368851 8.6297809332609159 4.0941133946180326 6.4415003955364227 8.6474732831120544 6.8929654657840711 3.2506317794322968 1.2672199904918664 2.6093910411000252 2.2606484219431868 2.0264859572052956 4.0354871451854706 2.1366544663906089 1.4686029180884359 3.0551872774958611 22.05317485332489 1.3233631402254111 2.7568703964352608 1.6092522442340853 1.0837250351905821 1.4151517301797896 1.1706236898899076 1.5970034077763546 2.1703414171934119 8.3995394781231862 86.213613748550415 2.9498525485396412 7.054786801338194 1.0777575150132177 1.6907776892185213 1.2403166592121122 45.988794177770615 1.7141126468777659 0.92180059850215901 5.2689503058791178 1.8701515570282938 461.98844104260206 4.0988517478108406 0.92826092988252629 1.403084799647331 1.2370347082614896 9.6261696889996511 1.2863677889108647 3.9639376550912848 2.3607624173164359 1.937403999269008 1.4960004836320875 8.786653131246565 1.6003646180033673 2.4013498350977898 3.713283233344554 2.4954010173678398
leaf_count=146 52 16 11 14 13 82 13 12 23 11 87 53 29 63 58 45 27 11 26 19 13 40 14 12 27 244 13 28 14 11 10 11 12 16 54 977 29 75 11 14 12 505 18 9 56 12 5365 45 10 11 11 60 10 25 16 12 11 55 11 15 40 26
internal_value=0 -0.0229423 0.101989 0.114788 0.0569461 0.13515 -0.0300904 0.120806 -0.00765616 0.167581 0.0593533 0.170421 0.130911 0.0593774 0.150214 0.177909 0.135939 0.160681 0.0987002 0.181522 0.196562 0.0442061 0.198687 0.129769 -0.0123111 -0.0189361 0.0358975 0.103166 0.0078322 0.0855306 0.198108 0.10911 0.18858 0.150505 0.173206 -0.0138464 -0.000580927 0.0426947 0.0994327 0.18007 0.228267 -0.0178447 0.0519925 0.126791 0.0339461 0.149325 -0.0383129 0.0197373 0.114183 0.109297 0.0665782 0.201757 0.187981 0.194185 0.182191 0.192804 0.127897 0.208188 0.222513 0.165321 0.012927 0.0348807
internal_weight=0 668.88 148.142 135.511 66.4363 28.9347 639.945 34.565 171.642 24.4828 14.5153 69.0747 21.7512 10.5356 24.9762 23.3437 10.1436 23.4581 5.9031 17.555 3.29371 9.58883 15.2944 2.86037 31.8713 30.3773 12.5466 4.08023 6.72846 2.69298 11.2156 2.58578 47.3235 12.1669 9.99654 157.127 70.9136 20.2222 6.9587 4.00885 2.93109 50.6914 4.70259 2.63591 8.32414 6.64693 468.303 6.31441 2.21556 4.51027 3.10719 35.1566 25.5305 24.2441 20.2802 17.9194 3.4334 14.486 12.7884 4.00171 13.2635 9.55019
internal_count=8771 7533 1238 1092 618 217 7316 278 1883 165 144 474 166 92 189 154 72 175 50 125 24 89 106 24 340 327 128 41 65 25 74 21 308 82 66 1739 762 207 66 37 26 555 50 27 83 48 5433 68 23 34 23 226 166 156 131 115 23 92 81 26 141 101
is_linear=0
shrinkage=0.05


Tree=14
num_leaves=63
num_cat=0
split_feature=35 35 32 36 45 27 35 15 18 25 7 12 42 15 21 48 32 45 0 1 42 45 10 10 47 48 15 15 34 36 21 10 40 43 45 48 39 42 0 40 20 35 47 1 25 0 52 43 21 15 48 5 21 50 48 11 18 50 11 25 44 3
split_gain=838.363 181.458 42.3606 25.2343 25.4634 19.5679 21.0452 15.9133 15.8656 23.5177 14.2274 14.1931 18.7888 11.9845 16.9245 12.3022 11.6339 14.8723 10.7267 15.619 17.0008 9.95128 15.5999 21.3378 17.8168 12.3638 26.9723 9.74454 14.5197 16.5194 9.71507 9.48975 8.41901 8.71575 8.31919 8.10837 10.5923 8.06518 7.94959 7.49934 10.3631 7.47763 12.2609 14.0501 7.34687 6.97084 6.60065 9.71533 9.07297 7.74116 9.80057 7.81993 8.65511 5.95338 5.79388 5.56472 5.27997 5.6535 10.7887 10.2386 5.16603 4.73976
threshold=1.0000000180025095e-35 13.350000000000003 243.50000000000003 -1.0000000180025095e-35 99.550000000000011 1288.5000000000002 4.4500000000000011 -40.499999999999993 -1.0000000180025095e-35 1331.0000000000002 13463.500000000002 -191.99999999999997 5.9500000000000011 -853.49999999999989 10793.000000000002 114.05000000000001 67.500000000000014 113.85000000000001 10963.500000000002 5904.5000000000009 6.3500000000000005 74.250000000000014 282.50000000000006 30.500000000000004 119.05000000000001 128.95000000000002 33.500000000000007 -90.499999999999986 315.50000000000006 28.050000000000004 91.000000000000014 216.50000000000003 -2.8499999999999992 0.95000000000000007 229.35000000000005 99.65000000000002 17.950000000000003 4.1500000000000012 6362.5000000000009 0.75000000000000011 4847.5000000000009 6.4500000000000011 73.65000000000002 14689.500000000002 40.500000000000007 17803.500000000004 3.5000000000000004 7.1500000000000012 1772.5000000000002 63.500000000000007 90.65000000000002 7705.5000000000009 1520.5000000000002 1.0000000180025095e-35 92.350000000000009 152.50000000000003 956.50000000000011 5.5000000000000009 4.5000000000000009 349.50000000000006 -121.55 1.0000000180025095e-35
decision_type=2 2 2 2 2 2 2 2 2 2 2 2 2 2 2 2 2 2 2 2 2 2 2 2 2 2 2 2 2 2 2 2 2 2 2 2 2 2 2 2 2 2 2 2 2 2 2 2 2 2 2 2 2 2 2 2 2 2 2 2 2 2
left_child=-1 3 8 11 5 6 13 18 9 16 21 -2 -13 -5 15 35 17 -3 19 -6 32 22 23 24 38 30 -27 28 29 -4 -23 45 33 -21 61 36 39 -31 -8 40 44 -7 43 -43 -15 46 47 49 -49 50 51 55 -53 -20 -19 -10 57 -33 59 -59 -29 -18
right_child=1 2 27 4 7 41 10 -9 31 -11 -12 12 -14 14 -16 -17 34 54 53 20 -22 25 -24 -25 -26 26 -28 60 -30 37 -32 56 -34 -35 -36 -37 -38 -39 -40 -41 -42 42 -44 -45 -46 -47 -48 48 -50 -51 -52 52 -54 -55 -56 -57 -58 58 -60 -61 -62 -63
