tree
version=v3
num_class=5
num_tree_per_iteration=5
label_index=0
max_feature_idx=55
objective=multiclass num_class:5
feature_names=Column_0 Column_1 Column_2 Column_3 Column_4 Column_5 Column_6 Column_7 Column_8 Column_9 Column_10 Column_11 Column_12 Column_13 Column_14 Column_15 Column_16 Column_17 Column_18 Column_19 Column_20 Column_21 Column_22 Column_23 Column_24 Column_25 Column_26 Column_27 Column_28 Column_29 Column_30 Column_31 Column_32 Column_33 Column_34 Column_35 Column_36 Column_37 Column_38 Column_39 Column_40 Column_41 Column_42 Column_43 Column_44 Column_45 Column_46 Column_47 Column_48 Column_49 Column_50 Column_51 Column_52 Column_53 Column_54 Column_55
feature_infos=[-203:368432] [0:401833] [-409:641488] [-10:1492586] [0:282827] [0:365338] [0:398170] [-409:620245] [0:1484412] [0:280696] [-174466:317930] [-68919:490800] [-52584:191899] [-111981:286656] [-118511:241268] [-174466:415808] [-68462:492186] [-52584:199457] [-118584:289247] [-116718:241192] [4:1052477] [0:4787500] [0:897043] [0:1342484] [0:1021086] [-1100:447478] [-500:3217547] [-558:250389] [-215:1235239] [-155:917796] [-26318:548586] [-7657:1017634] [-6713:806314] [-24149:720731] [-4360:532356] [-9539:103.40000000000001] [-6475:154.80000000000001] [-7800:2100] [-10566.700000000001:1250] [-34700:136] [-20128.599999999999:4142] [-1540.9000000000001:3633.3000000000002] [-8100:9820.5] [-2092.3000000000002:47964.5] [-73600:20146.700000000001] [-96500:36569.599999999999] [-182.59999999999999:78116.699999999997] [-1700:48520] [-583.29999999999995:39796] [-4100:39180] [0:11] [0:1] [0:5] [9:19] [0:4] [0:4]
tree_sizes=6546 6668 6522 6528 6553 6665 6746 6698 6620 6658 6694 6750 6700 6621 6655 6689 6746 6697 6627 6627 6701 6756 6708 6662 6636 6700 6751 6696 6660 6651 6729 6753 6722 6652 6660 6711 6758 6710 6673 6683 6699 6754 6714 6688 6668 6717 6754 6714 6681 6661 6734 6759 6716 6697 6673 6727 6760 6721 6706 6657 6720 6759 6733 6703 6671 6726 6754 6724 6694 6644 6715 6729 6723 6713 6669 6713 6751 6727 6714 6671 6707 6774 6725 6691 6680 6704 6763 6735 6693 6677 6690 6795 6718 6705 6672 6727 6757 6717 6690 6687 6725 6763 6715 6731 6684 6729 6758 6716 6731 6699 6714 6772 6753 6667 6708 6718 6755 6718 6727 6705 6734 6740 6735 6690 6709 6736 6768 6722 6715 6724 6740 6771 6719 6716 6713 6732 6752 6731 6723 6729 6737 6712 6732 6725 6716 6690 6743 6726 6708 6717 6742 6743 6728 6721 6720 6730 6762 6725 6713 6708 6726 6783 6761 6730 6705 6733 6753 6745 6706 6722 6709 6769 6733 6702 6723 6725 6751 6744 6740 6686 6724 6772 6758 6719 6697 6732 6763 6714 6728 6717 6770 6759 6744 6730 6719 6720 6750 6760 6763 6742 6722 6775 6752 6729 6711 6749 6736 6727 6747 6722 6762 6747 6734 6716 6743 6748 6766 6720 6729 6723 6730 6732 6756 6715 6772 6743 6736 6734 6754 6735 6738 6769 6748 6733 6725 6740 6742 6722 6770 6749 6749 6745 6756 6739 6760 6746 6737 6710 6742 6744 6748 6738 6754 6758 6754 6751 6709 6734 6744 6754 6724 6730 6744 6751 6774 6724 6735 6738 6749 6755 6748 6714 6749 6761 6771 6739 6737 6714 6733 6769 6774 6720 6749 6749 6789 6745 6748 6736 6755 6785 6716 6743 6732 6774 6788 6764 6739 6713 6775 6773 6728 6717 6750 6755 6755 6753 6724 6743 6761 6797 6731 6710 6761 6757 6807 6725 6742 6733 6766 6787 6719 6738 6741 6769 6803 6756 6728 6757 6763 6847 6749 6751 6744 6771 6771 6718 6699 6729 6779 6841 6732 6705 6768 6806 6808 6722 6715 6749 6795 6813 6733 6740 6732 6773 6828 6715 6722 6753 6798 6814 6711 6696 6764 6793 6829

Tree=0
num_leaves=63
num_cat=0
split_feature=40 35 45 10 35 35 40 40 47 45 10 35 20 41 10 50 0 45 53 21 20 16 31 24 45 40 10 35 45 35 45 40 10 27 24 10 45 2 27 40 25 45 10 20 39 10 4 35 40 45 32 22 40 40 32 32 40 4 16 36 21 41
split_gain=896.428 311.799 249.745 285.979 241.416 169.156 105.056 103.513 64.062 53.178 41.4826 40.3827 37.0188 30.7913 30.0649 28.5131 24.7069 22.3862 35.679 19.4908 18.8869 20.9688 18.5548 18.5933 17.272 29.1187 25.0743 69.9969 84.8682 49.8088 50.0297 24.4253 19.695 17.7561 17.1445 28.1919 16.6702 15.7764 15.3647 15.3231 15.647 14.435 20.1042 20.2148 14.9112 14.4071 16.2615 14.2391 20.3785 14.181 13.6772 13.6763 13.5566 13.1398 21.7519 13.0174 12.4559 17.9575 12.3521 11.9329 12.3683 11.8691
threshold=3.2500000000000004 5.0500000000000007 120.85000000000001 -5.4999999999999991 21.350000000000005 20.550000000000004 -5.5499999999999989 -5.5499999999999989 82.550000000000011 97.550000000000011 -330.49999999999994 2.1500000000000008 827.50000000000011 0.55000000000000016 352.50000000000006 5.5000000000000009 1311.0000000000002 98.550000000000011 15.500000000000002 1.0000000180025095e-35 4332.5000000000009 1215.5000000000002 412.50000000000006 16223.000000000002 115.05000000000001 1.5500000000000003 -78.499999999999986 15.250000000000002 100.65000000000002 21.350000000000005 100.65000000000002 1.6500000000000001 -5.4999999999999991 100.50000000000001 3670.5000000000005 -1255.4999999999998 109.85000000000001 4489.0000000000009 1034.0000000000002 1.1500000000000001 2180.5000000000005 89.850000000000009 457.50000000000006 6420.5000000000009 5.1500000000000012 -21.499999999999996 7231.5000000000009 19.850000000000005 0.45000000000000007 100.05000000000001 217.50000000000003 978.50000000000011 3.6500000000000008 5.7500000000000009 1283.0000000000002 2824.0000000000005 -3.3499999999999992 5158.0000000000009 -21.499999999999996 5.8500000000000005 6405.5000000000009 -0.54999999999999993
decision_type=2 2 2 2 2 2 2 2 2 2 2 2 2 2 2 2 2 2 2 2 2 2 2 2 2 2 2 2 2 2 2 2 2 2 2 2 2 2 2 2 2 2 2 2 2 2 2 2 2 2 2 2 2 2 2 2 2 2 2 2 2 2
left_child=1 -1 6 7 9 39 10 34 13 11 -3 -2 -7 61 37 22 -10 18 53 -16 -13 -22 -9 45 26 47 27 28 -8 51 31 -31 -32 49 -4 -36 52 -11 -17 -5 -41 42 43 -18 -44 56 -47 -26 -49 -29 -30 -28 -21 54 -15 -37 57 -24 -39 60 -53 -6
right_child=4 2 3 5 8 12 24 15 16 14 -12 20 -14 17 19 38 41 -19 -20 36 21 -23 23 -25 25 -27 29 33 50 30 32 -33 -34 -35 35 55 -38 58 -40 40 -42 -43 44 -45 -46 46 -48 48 -50 -51 -52 59 -54 -55 -56 -57 -58 -59 -60 -61 -62 -63
leaf_value=-1.6822695768871818 -1.6873931841896437 -1.6565713899374883 -1.6752853374176098 -1.4716082728636384 -1.6557022113341462 -1.548810981461908 -1.6895647001868019 -1.5822894874501821 -1.5243320738575785 -1.6314272946265196 -1.4688945478124797 -1.6083917188384833 -1.6816842697359669 -1.6621589666732592 -1.541467309180609 -1.6331639738822321 -1.6344871580770608 -1.6796201439725431 -1.4570150779456728 -1.4900616032115175 -1.5176123737309 -1.6503264512328033 -1.5992987283958373 -1.6314272946265196 -1.49685103607536 -1.6413130073128834 -1.5293718489525876 -1.6073308699535078 -1.6100082504727313 -1.4744446798791353 -1.4814939855500024 -1.5638749246030337 -1.6353614047772154 -1.4769367421130259 -1.679101941291403 -1.6022195071440812 -1.6754989404508063 -1.6185758681342468 -1.4937334393521668 -1.5901191380442139 -1.4753742586489198 -1.688473953215557 -1.5414673091806093 -1.4386558972424259 -1.6861648519084229 -1.4814939855500027 -1.6723181971019334 -1.5168819715432176 -1.6805651018028573 -1.4957733483191944 -1.4716082728636384 -1.5855293428684021 -1.6314272946265196 -1.6625822679411206 -1.4957733483191944 -1.4814939855500022 -1.4634825166024985 -1.4733894823566769 -1.4694993208238807 -1.4795467997178395 -1.4386558972424259 -1.5871120308600613
leaf_weight=93.180317431688309 6.0304589569568625 26.845268905162815 12.255448848009111 7.5867064297199276 8.7538920342922228 5.4468661546707144 16.34059846401215 6.6140517592430106 2.3343712091445914 4.6687424182891828 3.3070258796215048 10.310139507055281 139.28414881229401 4.474211484193801 3.8906186819076529 7.1976445615291578 4.0851496160030392 68.474888801574707 2.7234330773353568 1.9453093409538258 29.763232916593552 3.3070258796215048 4.6687424182891757 2.3343712091445914 10.310139507055288 10.115608572959898 26.456207036972046 6.2249898910522479 2.3343712091445905 15.367943793535234 2.3343712091445949 15.173412859439848 19.064031541347504 18.285907804965973 6.0304589569568625 4.2796805500984174 37.155408412218094 1.9453093409538267 2.7234330773353577 10.893732309341429 4.0851496160030356 804.38541248440742 1.9453093409538293 1.9453093409538267 21.009340882301331 2.3343712091445985 2.1398402750492096 4.474211484193801 3.3070258796215057 5.2523352205753326 7.5867064297199249 5.4468661546707144 13.228103518486021 25.678083300590515 3.5015568137168884 4.6687424182891846 34.237444400787354 7.1976445615291595 4.8632733523845673 59.915527701377869 1.9453093409538267 22.565588355064392
leaf_count=479 31 138 63 39 45 28 84 34 12 24 17 53 716 23 20 37 21 352 14 10 153 17 24 12 53 52 136 32 12 79 12 78 98 94 31 22 191 10 14 56 21 4135 10 10 108 12 11 23 17 27 39 28 68 132 18 24 176 37 25 308 10 116
internal_value=-1.64613 -1.59799 -1.58301 -1.61727 -1.67342 -1.65683 -1.54823 -1.54881 -1.68159 -1.6056 -1.63599 -1.56616 -1.67668 -1.64979 -1.63438 -1.51641 -1.68677 -1.66278 -1.63108 -1.64944 -1.5493 -1.53088 -1.50333 -1.49346 -1.53673 -1.57337 -1.5316 -1.56003 -1.61953 -1.52067 -1.55995 -1.51887 -1.61858 -1.50753 -1.63143 -1.59554 -1.65746 -1.56064 -1.59489 -1.5295 -1.55883 -1.68722 -1.65256 -1.57132 -1.6739 -1.4871 -1.57276 -1.53539 -1.58645 -1.55628 -1.50417 -1.49891 -1.6133 -1.64517 -1.58911 -1.53923 -1.47878 -1.52293 -1.51209 -1.48694 -1.54688 -1.60628
internal_weight=0 617.247 524.066 263.978 1088.98 167.297 260.088 96.6819 971.877 117.108 30.1523 49.4109 144.731 136.172 67.6968 69.4475 835.705 104.852 36.3773 56.2194 43.3804 33.0703 59.5265 52.9124 229.936 28.207 201.729 56.0249 26.2617 145.704 51.9398 30.5414 21.3984 29.7632 27.2343 14.9789 52.3288 11.4773 9.92108 22.5656 14.9789 833.371 28.9851 6.03046 22.9547 50.578 4.47421 18.0914 7.78124 11.4773 9.92108 93.7639 15.1734 33.6539 7.97577 8.94842 46.1038 11.8664 6.80858 67.3077 7.39218 31.3195
internal_count=8771 3173 2694 1357 5598 860 1337 497 4996 602 155 254 744 700 348 357 4296 539 187 289 223 170 306 272 1182 145 1037 288 135 749 267 157 110 153 140 77 269 59 51 116 77 4284 149 31 118 260 23 93 40 59 51 482 78 173 41 46 237 61 35 346 38 161
is_linear=0
shrinkage=1


Tree=1
num_leaves=63
num_cat=0
split_feature=10 34 35 35 10 34 45 10 45 30 45 34 10 35 33 4 31 35 44 40 50 21 10 35 10 45 30 10 30 40 44 2 45 19 16 22 48 45 45 35 40 24 45 31 15 22 28 45 21 15 40 40 38 40 20 40 35 45 15 16 25 49
split_gain=641.684 373.382 525.714 169.62 159.559 101.224 92.258 77.2139 74.0487 49.5484 42.0725 37.725 33.6714 32.7382 31.4145 28.6276 43.387 28.5332 27.0348 25.5599 24.5097 21.734 21.5907 34.5347 19.8789 18.9461 18.8445 18.4061 18.2835 17.7038 17.3623 15.9753 15.8247 15.6695 14.2679 14.2277 14.2067 13.4756 13.4542 13.2878 12.8371 11.215 11.1161 10.773 10.3373 10.3333 10.1716 10.0697 13.6683 9.92093 9.87532 9.73823 9.43116 9.84198 9.16642 9.13889 11.6695 9.0152 8.8412 17.5561 8.74943 8.46774
threshold=10.500000000000002 1070.5000000000002 19.550000000000004 36.350000000000001 388.50000000000006 600.50000000000011 108.25000000000001 167.50000000000003 158.05000000000004 9720.5000000000018 95.15000000000002 3045.5000000000005 871.50000000000011 17.650000000000002 55.500000000000007 2713.5000000000005 60.500000000000007 43.150000000000013 10.250000000000002 3.9500000000000006 5.5000000000000009 33670.000000000007 -21.499999999999996 24.150000000000002 248.50000000000003 101.85000000000001 11428.500000000002 215.50000000000003 312.50000000000006 3.9500000000000006 16.450000000000003 3622.5000000000005 100.05000000000001 65.500000000000014 45.500000000000007 2645.5000000000005 106.65000000000002 175.75000000000003 187.95000000000002 68.850000000000009 6.0500000000000007 4926.5000000000009 59.150000000000013 338.50000000000006 203.50000000000003 18162.500000000004 3.5000000000000004 96.15000000000002 14620.000000000002 170.50000000000003 27.850000000000005 1.9500000000000002 27.050000000000004 12.450000000000001 4464.0000000000009 7.0500000000000007 5.9500000000000011 70.950000000000017 417.50000000000006 592.50000000000011 5802.0000000000009 126.05000000000001
decision_type=2 2 2 2 2 2 2 2 2 2 2 2 2 2 2 2 2 2 2 2 2 2 2 2 2 2 2 2 2 2 2 2 2 2 2 2 2 2 2 2 2 2 2 2 2 2 2 2 2 2 2 2 2 2 2 2 2 2 2 2 2 2
left_child=9 2 6 13 32 10 12 51 -7 20 14 25 -2 19 -4 16 -12 37 27 -3 22 46 -1 -24 35 -6 44 -10 43 45 38 -25 -5 -19 -22 -16 -35 -17 40 -34 61 54 -21 -9 -18 -13 -15 48 -31 -48 -26 -8 -29 -54 -32 -14 -57 -58 -20 -60 -44 -27
right_child=1 3 5 4 11 8 7 28 18 -11 15 29 55 21 24 17 26 33 58 42 34 -23 23 31 50 30 -28 52 -30 47 41 -33 39 36 -36 -37 -38 -39 -40 -41 -42 -43 60 -45 -46 -47 49 -49 -50 -51 -52 -53 53 -55 -56 56 57 -59 59 -61 -62 -63
leaf_value=-0.92818250219129028 -0.92698358613557053 -0.91638933268397393 -0.90959755223310301 -0.90131848847002327 -0.82321411334662942 -0.81774680708799186 -0.92704698851067069 -0.89014148306443419 -0.81824383492968622 -0.81287056096542321 -0.84742050746884157 -0.83517384578739917 -0.90522370722619294 -0.80934582430032931 -0.84424221434138935 -0.80229419550811265 -0.80813188918487067 -0.85664278589944198 -0.7966586258046755 -0.90732651732566894 -0.92255906853406822 -0.90826109959210277 -0.93256023851938086 -0.91529506086052537 -0.80681219457071673 -0.8246528781515341 -0.90522370722619294 -0.84855041064275472 -0.82020709490437882 -0.79587758205344161 -0.89838957440289602 -0.81774680708799186 -0.80975190195601432 -0.87632508843053725 -0.87574313426295114 -0.93256023851938086 -0.81475280604159506 -0.84905956111473435 -0.90867048725881228 -0.86695256341573002 -0.89655602657225542 -0.89760532965268158 -0.78069062022389279 -0.79587758205344161 -0.78664100663355896 -0.91287793598828559 -0.86747325924988594 -0.92395429348263647 -0.93256023851938086 -0.82696848674311874 -0.89975640096755538 -0.85875160402777362 -0.88368583408610557 -0.91980319058255988 -0.83492976961513854 -0.91764940326855116 -0.86080184387476277 -0.7685410507602537 -0.90066761867732836 -0.82321411334662942 -0.86695256341573002 -0.87788717593300514
leaf_weight=342.64283812046051 152.42119133472443 21.643809169530869 15.242119133472441 6.401690036058425 10.05979862809181 124.98537689447403 36.276243537664413 17.680858194828037 10.05979862809181 11.279168158769606 39.9343521296978 9.7549562454223651 7.3162171840667751 62.492688447237015 15.851803898811342 189.61196202039719 70.723432779312134 53.347416967153549 10.669483393430708 3.9629509747028377 24.997075378894806 8.2307443320751172 23.77770584821701 5.7920052707195309 45.726357400417328 11.584010541439055 3.6581085920333853 12.498537689447401 60.968476533889771 3.6581085920333853 7.3162171840667716 15.242119133472441 60.663634151220322 10.669483393430708 46.640884548425674 6.401690036058425 76.820280432701111 16.766331046819687 140.22749602794647 12.193695306777952 74.991226136684418 18.59538534283638 8.2307443320751172 3.6581085920333853 267.95645436644554 7.6210595667362204 19.205070108175278 197.53786396980286 3.6581085920333862 71.028275161981583 3.0484238266944876 6.0968476533889762 60.358791768550873 27.435814440250397 25.606760144233704 3.3532662093639365 4.8774781227111799 5.7920052707195282 10.974325776100157 21.948651552200317 4.5726357400417319 21.034124404191971
leaf_count=1124 500 71 50 21 33 410 119 58 33 37 131 32 24 205 52 622 232 175 35 13 82 27 78 19 150 38 12 41 200 12 24 50 199 35 153 21 252 55 460 40 246 61 27 12 879 25 63 648 12 233 10 20 198 90 84 11 16 19 36 72 15 69
internal_value=-0.863388 -0.852071 -0.836374 -0.87906 -0.892128 -0.820337 -0.895199 -0.862381 -0.846338 -0.916403 -0.811446 -0.901995 -0.918748 -0.839014 -0.844465 -0.807541 -0.798101 -0.817934 -0.869551 -0.880491 -0.918946 -0.829116 -0.923914 -0.891276 -0.830488 -0.890707 -0.792348 -0.88272 -0.834149 -0.917711 -0.892975 -0.844608 -0.825948 -0.835285 -0.892079 -0.869649 -0.822262 -0.806093 -0.898465 -0.819325 -0.885167 -0.866564 -0.834149 -0.873982 -0.791129 -0.869255 -0.824851 -0.921821 -0.864219 -0.835589 -0.812621 -0.91722 -0.889187 -0.894973 -0.849032 -0.859923 -0.836288 -0.810717 -0.836213 -0.849032 -0.811498 -0.858982
internal_weight=0 2203.4 1393.13 810.271 610.904 1094.69 298.441 124.681 278.931 470.372 815.758 531.645 173.76 199.367 86.2704 729.488 382.272 347.215 153.945 38.4101 459.093 160.957 387.455 44.8118 71.0283 309.415 342.338 110.353 82.3074 222.23 299.355 21.0341 79.259 140.837 71.638 22.2535 87.4898 206.378 247.837 72.8573 107.609 51.5184 16.7663 21.339 338.68 17.376 152.726 204.854 7.31622 90.2333 48.7748 42.3731 100.293 87.7946 32.923 21.339 14.0227 10.6695 43.5925 32.923 12.8034 32.6181
internal_count=8771 7228 4570 2658 2004 3591 979 409 915 1543 2676 1744 570 654 283 2393 1254 1139 505 126 1506 528 1271 147 233 1015 1123 362 270 729 982 69 260 462 235 73 287 677 813 239 353 169 55 70 1111 57 501 672 24 296 160 139 329 288 108 70 46 35 143 108 42 107
is_linear=0
shrinkage=1


Tree=2
num_leaves=63
num_cat=0
split_feature=35 34 10 34 24 45 15 31 40 44 40 10 45 40 34 34 35 35 35 9 45 20 45 24 44 40 35 10 34 45 50 41 44 33 30 37 11 9 3 6 36 22 13 45 49 30 53 48 45 2 44 35 36 20 2 44 24 22 17 17 48 34
split_gain=1439.96 899.023 706.698 103.224 78.7744 66.1168 63.5305 38.5217 38.3179 35.7834 37.4016 33.0151 37.1411 27.572 27.3135 24.5103 22.8665 21.9368 21.8427 21.4042 19.3896 23.5283 18.9225 18.5581 17.9222 17.4372 17.311 16.1036 19.7379 16.877 15.98 16.1837 15.7633 19.1243 15.1931 14.8653 13.2966 12.3457 12.4827 15.8061 11.9144 11.8814 11.863 13.5652 11.8099 11.5357 10.6891 10.6815 10.5885 10.4044 10.3608 10.1112 12.8053 9.99656 10.7252 9.80382 9.60308 9.59767 9.50729 9.4596 9.36073 9.35565
threshold=36.050000000000004 600.50000000000011 388.50000000000006 2991.0000000000005 185.50000000000003 100.65000000000002 1012.5000000000001 5426.5000000000009 4.5500000000000007 15.450000000000001 4.3500000000000005 125.50000000000001 158.05000000000004 4.3500000000000005 1563.5000000000002 1351.5000000000002 28.650000000000002 27.250000000000004 27.550000000000004 7995.0000000000009 102.45000000000002 18095.000000000004 145.05000000000004 4782.5000000000009 7.7500000000000009 32.95000000000001 70.250000000000014 498.50000000000006 414.50000000000006 114.45000000000002 5.5000000000000009 6.1500000000000012 7.6500000000000012 321.50000000000006 11428.500000000002 23.550000000000004 109.50000000000001 9605.0000000000018 7022.5000000000009 5622.5000000000009 31.550000000000004 18162.500000000004 522.50000000000011 140.05000000000004 164.95000000000002 2253.5000000000005 13.500000000000002 150.25000000000003 150.85000000000005 12646.500000000002 8.9500000000000011 44.350000000000001 45.45000000000001 5476.5000000000009 24753.500000000004 23.050000000000004 4926.5000000000009 5991.0000000000009 205.50000000000003 577.50000000000011 324.80000000000007 384.50000000000006
decision_type=2 2 2 2 2 2 2 2 2 2 2 2 2 2 2 2 2 2 2 2 2 2 2 2 2 2 2 2 2 2 2 2 2 2 2 2 2 2 2 2 2 2 2 2 2 2 2 2 2 2 2 2 2 2 2 2 2 2 2 2 2 2
left_child=6 4 11 5 34 -4 16 17 -6 10 22 30 -13 41 55 24 -1 -8 -9 25 21 -15 -7 -19 35 32 53 -18 -29 -30 -3 -32 33 -10 -2 -12 50 38 39 -26 -38 48 43 -35 -40 -39 -25 51 -5 -24 -17 59 -53 58 -55 -11 57 60 -14 -21 -16 -49
right_child=1 2 3 13 8 9 7 18 19 14 15 12 26 20 56 36 27 23 -20 47 -22 -23 49 46 37 -27 -28 28 29 -31 31 -33 -34 42 -36 -37 40 45 44 -41 -42 -43 -44 -45 -46 -47 -48 61 -50 -51 -52 52 -54 54 -56 -57 -58 -59 -60 -61 -62 -63
leaf_value=-1.4227537865738085 -1.4229931524142614 -1.4185244191823212 -1.3995665219893338 -1.4093256365541968 -1.4078004633893102 -1.4244079045180758 -1.4164897138370394 -1.3668210632014466 -1.3892159459356912 -1.3305626816317171 -1.3577284040461894 -1.4193804818634495 -1.3756805772501588 -1.4093256365541968 -1.2324517667959787 -1.2677469276029447 -1.4168498999903154 -1.3956144838597613 -1.2288970235048287 -1.3737314841594421 -1.2283613772554771 -1.2132561530237689 -1.3848169511128932 -1.3063060774110906 -1.2580459184922581 -1.2964371460366777 -1.264223817177567 -1.4145294600037224 -1.4140233921495033 -1.3505047914950683 -1.4072874922347536 -1.3037497608070432 -1.3941160920674158 -1.4042982138995703 -1.3107108075596028 -1.2643312079574949 -1.3064113375065514 -1.2924380598341338 -1.3107108075596028 -1.344110759583621 -1.2434206889515269 -1.247040433262858 -1.3733602283326389 -1.3158993655557236 -1.2192890602093205 -1.4060468826490056 -1.3727930319305786 -1.2977168536214916 -1.2977168536214916 -1.2910489035743029 -1.3657546402141016 -1.2278183427819969 -1.3540239873533069 -1.4183749973325241 -1.2977168536214916 -1.3935076482018358 -1.2533021748588959 -1.3594381348275197 -1.3132754037315983 -1.2554865033226301 -1.3227422463911873 -1.4244079045180758
leaf_weight=695.23456275463104 141.36751838028431 76.485273763537407 12.076622173190115 3.3151511847972852 63.224669024348259 4.7359302639961269 37.887442111968994 5.2095232903957349 36.940256059169769 17.049348950386051 4.4991337507963172 19.890907108783722 9.2350640147924441 3.3151511847972861 5.209523290395742 7.3406919091939908 105.84804140031338 26.047616451978683 6.3935058563947678 5.9199128299951607 155.57530917227268 2.8415581583976746 3.7887442111969021 13.970994278788567 7.8142849355936077 7.8142849355936042 6.8670988827943793 40.492203757166862 14.444587305188177 37.887442111968994 8.7614709883928281 6.6303023695945731 56.120773628354073 4.9727267771959296 3.0783546715974799 80.274017974734306 8.0510814487934095 3.7887442111968976 6.1567093431949607 16.812552437186241 111.05756469070911 5.9199128299951544 21.548482701182365 34.098697900772095 8.2878779619932157 5.4463198035955429 10.65584309399128 2.3679651319980612 5.9199128299951553 13.497401252388952 4.2623372375965118 6.8670988827943784 2.8415581583976746 8.2878779619932157 2.3679651319980612 9.708657041192053 13.734197765588759 6.1567093431949607 17.996535003185272 2.3679651319980621 6.3935058563947678 3.7887442111968994
leaf_count=2936 597 323 51 14 267 20 160 22 156 72 19 84 39 14 22 31 447 110 27 25 657 12 16 59 33 33 29 171 61 160 37 28 237 21 13 339 34 16 26 71 469 25 91 144 35 23 45 10 25 57 18 29 12 35 10 41 58 26 76 10 27 16
internal_value=-1.3708 -1.33091 -1.2965 -1.26907 -1.39123 -1.28458 -1.41425 -1.37649 -1.37418 -1.28054 -1.27326 -1.38991 -1.36253 -1.23785 -1.31626 -1.26803 -1.41848 -1.38771 -1.29082 -1.36273 -1.23181 -1.31883 -1.33586 -1.36619 -1.28314 -1.3693 -1.33727 -1.40352 -1.38832 -1.36804 -1.40917 -1.36269 -1.373 -1.36086 -1.4206 -1.26929 -1.25266 -1.30745 -1.29516 -1.3168 -1.24768 -1.30234 -1.34358 -1.32715 -1.25826 -1.35944 -1.33507 -1.31883 -1.33778 -1.3116 -1.30375 -1.29938 -1.26476 -1.3505 -1.39156 -1.3534 -1.2847 -1.30898 -1.33444 -1.33995 -1.2822 -1.37568
internal_weight=0 1082.87 689.551 533.029 393.319 356.142 994.072 100.165 248.873 344.065 285.813 156.522 64.6454 176.887 58.2519 263.791 893.907 88.5619 11.603 185.648 161.732 6.15671 22.0221 50.6745 133.08 161.495 44.7545 198.672 92.8242 52.332 91.877 15.3918 153.681 97.5602 144.446 84.7732 130.712 48.3065 39.0714 24.6268 119.109 15.155 60.6199 39.0714 14.4446 9.23506 24.6268 24.1532 9.23506 17.2861 11.603 17.9965 9.70866 37.8874 10.6558 26.758 31.4939 17.7597 27.2316 8.28788 11.603 6.15671
internal_count=8771 4573 2912 2251 1661 1504 4198 423 1051 1453 1207 661 273 747 246 1114 3775 374 49 784 683 26 93 214 562 682 189 839 392 221 388 65 649 412 610 358 552 204 165 104 503 64 256 165 61 39 104 102 39 73 49 76 41 160 45 113 133 75 115 35 49 26
is_linear=0
shrinkage=1


Tree=3
num_leaves=63
num_cat=0
split_feature=15 35 35 35 30 10 20 10 45 10 35 10 31 30 47 10 37 15 20 21 10 37 31 25 49 43 0 50 35 10 50 37 11 30 41 46 45 10 30 18 42 6 34 30 7 34 35 10 32 41 20 7 6 37 33 19 47 38 30 53 20 35
split_gain=1138.52 552.365 240.263 291.18 174.604 144.84 110.546 73.7934 73.6605 81.4188 51.9327 47.6958 43.9402 42.5556 41.6381 41.1841 59.353 40.4626 37.7357 35.9179 43.7051 42.0416 33.8282 31.9637 27.7449 27.4103 24.9918 22.5775 20.6255 30.5707 18.1701 18.2955 14.945 22.5282 25.6129 18.0124 14.2333 14.0415 22.1372 13.6619 18.5887 13.7114 13.4468 16.3315 13.4416 12.5146 11.9403 12.4207 28.9164 12.7523 11.6947 11.3192 9.35427 9.11616 8.96107 8.60262 8.56483 15.4519 8.30256 8.71824 8.2995 8.14853
threshold=1.0000000180025095e-35 5.0500000000000007 -1.0000000180025095e-35 16.650000000000002 1.0000000180025095e-35 -357.49999999999994 3425.5000000000005 -409.99999999999994 102.45000000000002 -755.99999999999989 7.1500000000000012 -829.99999999999989 293.50000000000006 3386.5000000000005 106.45000000000002 -21.499999999999996 7.9500000000000011 252.50000000000003 11913.000000000002 1901.0000000000002 -139.49999999999997 31.550000000000004 120.50000000000001 11359.000000000002 171.65000000000001 2.1500000000000008 15792.500000000002 5.5000000000000009 3.1500000000000008 103.50000000000001 5.5000000000000009 7.9500000000000011 -88.499999999999986 153.50000000000003 -4.3499999999999988 58.150000000000013 81.550000000000011 -1721.9999999999998 2103.0000000000005 50.500000000000007 5.5500000000000007 23713.500000000004 317.50000000000006 109.50000000000001 5314.5000000000009 1215.5000000000002 18.350000000000005 -53.499999999999993 521.50000000000011 -6.8499999999999988 1460.5000000000002 12139.500000000002 7740.0000000000009 10.950000000000001 5451.0000000000009 79.500000000000014 118.95000000000002 33.050000000000004 69.500000000000014 17.500000000000004 270.50000000000006 38.45000000000001
decision_type=2 2 2 2 2 2 2 2 2 2 2 2 2 2 2 2 2 2 2 2 2 2 2 2 2 2 2 2 2 2 2 2 2 2 2 2 2 2 2 2 2 2 2 2 2 2 2 2 2 2 2 2 2 2 2 2 2 2 2 2 2 2
left_child=2 4 -1 8 -2 6 45 13 15 51 22 18 32 14 25 23 -17 27 37 20 21 -7 -11 30 -16 -3 -19 28 53 36 39 -32 33 34 -9 -35 -30 -8 -39 40 41 -4 43 -24 -31 -5 47 48 -14 -49 -12 -10 -42 -6 -20 -44 -41 -58 -34 -60 -22 -37
right_child=1 7 3 5 17 19 11 12 9 10 50 -13 46 -15 24 16 -18 26 54 -21 60 -23 42 -25 -26 -27 -28 -29 29 44 31 -33 58 35 -36 61 -38 38 -40 56 52 -43 55 -45 -46 -47 -48 49 -50 -51 -52 -53 -54 -55 -56 -57 57 -59 59 -61 -62 -63
leaf_value=-2.5501491160427388 -2.5574642722860417 -2.0198002884032551 -2.1143346152397897 -2.0870082863886039 -2.0404796723987468 -2.4747467363040747 -2.1146821679119827 -2.4806551317313579 -2.0198002884032564 -2.0795407310568979 -2.3593775413818574 -2.5330250002913699 -2.2502277100673069 -2.5464915379210868 -2.5161055042950582 -2.091488819587628 -2.510710882383191 -2.5574642722860417 -2.378242944325113 -2.5420141578066513 -2.3782429443251134 -2.0830548747424071 -2.3155154795387878 -2.4499314755094845 -2.2744832281372069 -2.3360732200990122 -2.2153144643606324 -2.3360732200990122 -2.2502277100673069 -2.5036978738977633 -2.3894442773226712 -2.1542162843739519 -2.4159737502116245 -2.3093116643401403 -2.1542162843739532 -2.5273550891886059 -2.0422029543983715 -2.1542162843739523 -2.4159737502116245 -2.0404796723987468 -2.1810994835680915 -2.2886322803446486 -2.3423986787329274 -2.5574642722860417 -2.2348658819563703 -2.2886322803446486 -2.5525897955248738 -2.3894442773226712 -2.5574642722860417 -2.5382619871473708 -2.5085857282966977 -2.1990216163641843 -2.3920292003221078 -2.1990216163641843 -2.5574642722860417 -2.1273330851798131 -2.2707101475485558 -2.0480983928181389 -2.5284204997706343 -2.4159737502116245 -2.5324566451287027 -2.4230482763153454
leaf_weight=13.670247897505758 4.1847697645425823 1.2089334875345215 8.46253441274167 4.4637544155120876 4.8357339501380903 1.2089334875345232 1.5809130221605308 1.301928371191025 1.8598976731300383 1.6739079058170299 1.7669027894735334 4.0917748808860752 1.3019283711910241 4.5567492991685858 3.626800462603569 1.3949232548475294 2.1388823240995407 1.1159386038780206 1.3949232548475268 16.181109756231308 1.1159386038780237 1.5809130221605299 1.8598976731300356 0.9299488365650167 1.7669027894735334 1.5809130221605299 1.0229437202215192 1.580913022160529 1.301928371191025 0.92994883656501748 1.4879181385040277 1.8598976731300352 1.7669027894735325 1.2089334875345219 1.1159386038780237 11.624360457062719 2.2318772077560425 1.4879181385040285 1.7669027894735334 4.8357339501380912 0.92994883656501715 1.3019283711910237 0.92994883656501748 1.115938603878021 0.9299488365650177 0.92994883656501759 543.64808985590935 1.4879181385040272 1.8598976731300352 44.265564620494843 5.1147186011075974 1.6739079058170316 1.2089334875345228 1.115938603878021 1.3949232548475263 0.9299488365650177 1.3949232548475268 1.7669027894735334 70.583116695284843 1.7669027894735325 3.9987799972295761 2.2318772077560416
leaf_count=147 45 13 91 48 52 13 17 14 20 18 19 44 14 49 39 15 23 12 15 174 12 17 20 10 19 17 11 17 14 10 16 20 19 13 12 125 24 16 19 52 10 14 10 12 10 10 5846 16 20 476 55 18 13 12 15 10 15 19 759 19 43 24
internal_value=-2.51394 -2.53596 -2.35546 -2.32446 -2.27175 -2.42032 -2.30909 -2.54326 -2.23599 -2.31817 -2.37451 -2.39531 -2.54548 -2.42403 -2.35584 -2.18579 -2.34523 -2.19238 -2.32142 -2.49934 -2.41198 -2.25279 -2.27327 -2.16249 -2.43695 -2.19902 -2.39383 -2.15905 -2.13438 -2.2052 -2.15099 -2.25876 -2.51325 -2.47167 -2.32999 -2.4944 -2.11884 -2.23693 -2.29631 -2.13286 -2.16682 -2.13757 -2.34033 -2.40625 -2.36928 -2.12177 -2.55046 -2.5268 -2.43096 -2.53342 -2.47028 -2.10469 -2.30032 -2.07021 -2.46785 -2.23487 -2.08232 -2.14631 -2.52306 -2.52567 -2.49881 -2.51055
internal_weight=0 716.154 99.5045 85.8343 19.2499 41.1967 17.1111 696.904 44.6375 16.9251 13.3913 11.7174 684.163 12.7403 8.18355 27.7125 3.53381 15.0652 7.62558 24.0857 7.90457 2.78985 6.50964 24.1787 5.3937 2.78985 2.13888 12.9263 11.3454 5.3937 23.2487 3.34782 91.6 17.483 2.41787 15.0652 3.53381 4.83573 3.25482 19.9009 11.9033 9.76446 4.83573 2.97584 1.8599 5.3937 592.563 48.9153 3.16183 45.7535 6.88162 3.53381 2.13888 5.95167 2.78985 1.8599 7.99756 3.16183 74.1169 72.35 5.11472 13.8562
internal_count=8771 7701 1070 923 207 443 184 7494 480 182 144 126 7357 137 88 298 38 162 82 259 85 30 70 260 58 30 23 139 122 58 250 36 985 188 26 162 38 52 35 214 128 105 52 32 20 58 6372 526 34 492 74 38 23 64 30 20 86 34 797 778 55 149
is_linear=0
shrinkage=1


Tree=4
num_leaves=63
num_cat=0
split_feature=30 30 17 52 32 15 23 1 21 10 48 15 30 20 18 21 15 23 49 45 1 16 41 37 40 16 25 25 37 21 33 45 21 5 52 11 39 45 34 31 15 13 25 50 41 15 20 50 6 20 21 37 16 15 41 45 21 5 23 20 20 1
split_gain=2616.02 230.95 48.8544 47.455 35.3017 33.7378 39.8344 37.2999 39.4578 29.291 26.299 25.4519 26.8782 25.2941 30.0247 24.7587 23.0707 22.4492 22.3088 29.5951 21.8671 21.3071 31.0826 22.6574 19.9341 16.8665 16.3527 28.5626 15.6061 24.5797 25.8473 16.5997 19.5917 29.0491 15.4799 21.4344 29.2187 13.317 11.6596 11.6291 11.3844 10.9897 10.2388 14.9217 10.1488 9.42635 12.4195 14.7322 10.8831 9.16303 14.8579 8.72118 9.62266 18.2483 20.0423 11.3394 15.1793 8.67719 15.019 15.6099 26.444 12.1186
threshold=1.0000000180025095e-35 281.50000000000006 -204.99999999999997 2.5000000000000004 180.50000000000003 -163.49999999999997 1210.5000000000002 5477.0000000000009 3313.5000000000005 235.50000000000003 106.65000000000002 105.50000000000001 382.50000000000006 3161.0000000000005 62.500000000000007 1874.5000000000002 -995.99999999999989 171.00000000000003 112.15000000000002 89.850000000000009 22813.500000000004 -157.49999999999997 -1.8499999999999999 34.350000000000001 1.5500000000000003 -1.0000000180025095e-35 111.50000000000001 1435.5000000000002 29.250000000000004 854.50000000000011 1.0000000180025095e-35 106.65000000000002 2753.5000000000005 10326.000000000002 3.5000000000000004 56.500000000000007 4.6500000000000012 96.750000000000014 414.50000000000006 1.0000000180025095e-35 -63.499999999999993 1052.5000000000002 208.50000000000003 1.5000000000000002 -2.5499999999999994 380.50000000000006 3833.0000000000005 3.5000000000000004 3960.5000000000005 1636.0000000000002 447.50000000000006 29.850000000000005 137.50000000000003 -163.49999999999997 -0.94999999999999984 47.750000000000007 6616.0000000000009 6837.5000000000009 2643.5000000000005 2099.5000000000005 2409.5000000000005 9306.5000000000018
decision_type=2 2 2 2 2 2 2 2 2 2 2 2 2 2 2 2 2 2 2 2 2 2 2 2 2 2 2 2 2 2 2 2 2 2 2 2 2 2 2 2 2 2 2 2 2 2 2 2 2 2 2 2 2 2 2 2 2 2 2 2 2 2
left_child=34 2 9 -4 11 6 7 -5 18 25 13 12 -3 -8 -15 24 26 28 19 -9 -17 22 23 -19 -14 -2 -6 -28 31 30 -30 32 33 42 -1 -36 -37 -35 -27 -18 -33 45 43 -7 -29 46 -13 48 -48 50 -45 52 53 54 -41 56 -55 -23 59 -59 -61 -62
right_child=1 4 3 5 16 17 10 8 -10 -11 -12 41 15 14 -16 20 39 21 -20 -21 -22 57 -24 -25 -26 38 27 44 29 -31 -32 40 -34 37 35 36 -38 -39 -40 51 -42 -43 -44 49 -46 -47 47 -49 -50 -51 -52 -53 -54 55 -56 -57 -58 58 -60 60 61 -63
leaf_value=-2.2050915740946708 -2.6093578747679889 -3.0091944985596486 -2.495860651316923 -2.9792747512010891 -3.0255143607552264 -2.6093578747679902 -2.9817084148618331 -2.6925891719654365 -2.8867955320928136 -2.4201958356828803 -3.0255143607552264 -2.9862954249030262 -2.8064846312882592 -2.4201958356828803 -2.886795532092814 -2.9687657490296941 -2.8174361177616074 -3.0023945559781575 -2.7758204691628836 -2.2452209495291555 -2.6471902825850102 -3.0168444339638256 -2.5261265775705404 -2.678717289099195 -2.4706390461055761 -2.7654165570132023 -2.6093578747679889 -2.7758204691628836 -2.4492976878498198 -2.9462464586624191 -2.8741847294871401 -2.7758204691628836 -3.0255143607552264 -2.4428952803730937 -2.2209451545132324 -2.2625608031119571 -2.7228550982190534 -2.7758204691628841 -3.0255143607552264 -3.0255143607552264 -3.0059305261205331 -2.7758204691628836 -2.9922218418762476 -2.9561549464240202 -3.0255143607552264 -3.0098472930474718 -2.8064846312882592 -2.678717289099195 -3.0002927555438785 -2.9638615480163764 -2.6413699121516223 -3.0229512947360071 -3.0176488601609659 -2.7053939869188897 -2.6413699121516219 -2.9996745789455614 -2.9858804097088227 -2.9772643333943871 -3.0255143607552264 -2.577345837384355 -3.0255143607552264 -2.8083892376314501
leaf_weight=8.4102976322174055 0.8410297632217415 3.063751280307768 0.66080909967422385 1.0813239812850932 1.742133080959319 0.60073554515838834 1.1413975358009341 0.6007355451583869 1.081323981285095 0.66080909967422474 3.0637512803077698 11.474048912525175 1.1413975358009336 0.66080909967422463 0.72088265419006348 2.6432363986968999 0.72088265419006248 2.1626479625701913 0.60073554515838612 0.96117687225341797 0.66080909967422474 11.534122467041021 0.60073554515838523 0.72088265419006337 0.72088265419006337 0.96117687225341686 0.9611768722534183 0.60073554515838612 0.78095620870590143 1.2615446448326109 0.66080909967422485 0.60073554515838612 1.6219859719276426 0.60073554515838601 1.802206635475158 0.72088265419006325 0.66080909967422485 0.60073554515838623 0.7809562087059021 0.60073554515838623 5.1062521338462821 0.60073554515838523 1.5018388628959654 0.7208826541900637 1.2615446448326109 25.531260669231415 1.1413975358009336 0.72088265419006337 1.9824272990226743 1.6219859719276426 0.7809562087059021 292.61828404664993 69.925617456436157 0.78095620870590154 0.78095620870590099 36.765015363693237 1.2615446448326109 4.1450752615928632 4.8058843612670898 0.78095620870590243 1.2014710903167727 1.3816917538642881
leaf_count=140 14 51 11 18 29 10 19 10 18 11 51 191 19 11 12 44 12 36 10 16 11 192 10 12 12 16 16 10 13 21 11 10 27 10 30 12 11 10 13 10 85 10 25 12 21 425 19 12 33 27 13 4871 1164 13 13 612 21 69 80 13 20 23
internal_value=-2.98338 -3.00009 -2.90574 -2.91699 -3.01197 -2.92217 -2.83887 -2.72496 -2.64018 -2.71725 -2.92707 -2.97217 -2.89186 -2.80753 -2.66364 -2.82228 -3.01681 -2.94103 -2.51688 -2.41729 -2.90445 -2.96881 -2.85331 -2.92148 -2.67648 -2.79324 -2.90505 -2.83072 -2.8949 -2.78507 -2.64404 -2.91648 -2.87023 -2.83105 -2.24064 -2.33454 -2.4827 -2.60936 -2.88201 -3.01808 -2.98171 -2.98812 -2.88201 -2.83757 -2.94497 -2.99124 -2.96023 -2.88246 -2.92948 -2.88146 -2.79247 -3.01844 -3.00644 -2.98695 -2.80839 -2.9933 -2.87864 -2.98568 -2.95649 -2.91232 -2.8323 -2.90938
internal_weight=0 515.311 57.6105 54.3666 457.7 53.7058 9.91214 4.3253 3.24397 3.24397 5.58684 49.6808 8.23008 2.52309 1.38169 5.16633 408.02 43.7936 2.16265 1.56191 3.30405 27.3335 3.48427 2.88353 1.86228 2.58316 4.56559 2.82346 16.4602 2.70331 1.44177 13.7568 8.04986 6.42787 11.5942 3.1839 1.38169 1.20147 1.74213 403.454 5.70699 41.4508 5.2264 3.72456 1.86228 40.85 15.3188 3.84471 3.12382 3.12382 1.50184 402.733 110.115 40.1892 1.38169 38.8075 2.0425 23.8492 12.3151 7.50919 3.36412 2.58316
internal_count=8771 8578 959 905 7619 894 165 72 54 54 93 827 137 42 23 86 6792 729 36 26 55 455 58 48 31 43 76 47 274 45 24 229 134 107 193 53 23 20 29 6716 95 690 87 62 31 680 255 64 52 52 25 6704 1833 669 23 646 34 397 205 125 56 43
is_linear=0
shrinkage=1


Tree=5
num_leaves=63
num_cat=0
split_feature=40 35 35 45 40 35 15 46 40 45 35 20 53 35 40 45 30 40 20 0 45 33 50 40 42 40 40 20 15 16 45 41 50 15 32 30 21 30 50 41 40 40 41 41 40 40 5 43 15 34 16 7 36 35 40 32 15 25 50 46 19 30
split_gain=789.322 264.918 220.951 195.478 191.729 146.385 117.412 71.3064 68.0985 43.1783 32.6642 32.1825 30.4729 27.3756 26.1268 22.3898 36.9009 24.4372 21.7107 20.7414 19.257 26.307 19.1306 17.6746 27.1887 16.8341 20.5466 23.3067 19.6318 16.0453 15.6208 14.3282 17.2256 13.8451 13.6177 13.5617 13.182 13.0749 12.9635 15.6983 12.2091 12.0483 13.9158 11.8418 11.4127 11.4086 27.8057 11.112 11.0629 11.0232 10.9142 19.0302 12.5318 10.7148 17.0828 13.8212 13.19 11.59 10.8582 10.0763 11.2967 9.96732
threshold=3.2500000000000004 5.0500000000000007 21.350000000000005 120.85000000000001 0.15000000000000005 20.550000000000004 -118.49999999999999 92.050000000000011 -7.9499999999999993 97.550000000000011 2.1500000000000008 827.50000000000011 15.500000000000002 15.250000000000002 -3.3499999999999992 111.55000000000001 473.50000000000006 1.0000000180025095e-35 728.50000000000011 1311.0000000000002 98.550000000000011 50.500000000000007 5.5000000000000009 5.6500000000000012 10.350000000000003 -0.14999999999999999 -3.0499999999999994 1662.5000000000002 -386.49999999999994 -21.499999999999996 112.15000000000002 1.1500000000000001 3.5000000000000004 1381.5000000000002 1329.5000000000002 4988.0000000000009 2067.5000000000005 453.50000000000006 5.5000000000000009 8.9500000000000011 1.8500000000000003 6.3500000000000005 10.250000000000002 0.8500000000000002 3.6500000000000008 -6.5499999999999989 7350.0000000000009 2.0500000000000003 -9.4999999999999982 255.50000000000003 -260.99999999999994 4623.5000000000009 5.2500000000000009 30.650000000000002 1.4500000000000002 584.50000000000011 -17.499999999999996 16.500000000000004 5.5000000000000009 96.350000000000009 2.5000000000000004 191.50000000000003
decision_type=2 2 2 2 2 2 2 2 2 2 2 2 2 2 2 2 2 2 2 2 2 2 2 2 2 2 2 2 2 2 2 2 2 2 2 2 2 2 2 2 2 2 2 2 2 2 2 2 2 2 2 2 2 2 2 2 2 2 2 2 2 2
left_child=1 37 9 6 8 40 13 12 -5 10 -2 61 23 -3 -15 45 -17 -18 -10 -9 21 -21 25 24 34 26 27 -20 -29 -12 -14 32 -22 59 -4 -28 50 -1 -25 -40 -6 42 -23 -24 49 46 -8 -42 -27 -38 -11 52 -52 55 58 56 57 -47 -55 -31 -61 -7
right_child=2 3 7 4 5 11 15 19 18 36 29 -13 30 14 -16 16 17 -19 22 20 31 41 43 38 -26 48 35 28 -30 33 -32 -33 -34 -35 -36 -37 44 -39 39 -41 47 -43 -44 -45 -46 53 -48 -49 -50 -51 51 -53 -54 54 -56 -57 -58 -59 -60 60 -62 -63
leaf_value=-0.039341372444562442 -0.040397914775746613 -0.021473911959535873 -0.024874723890296602 -0.0085733250330720309 0.12963520316402677 0.17055940702336295 0.14229357912112536 0.099465103778938802 -0.050125964145211102 -0.04947168143189673 9.4320666243827636e-05 -0.032020596911105446 0.14017682198471079 0.01125567285696482 0.12055678997725144 0.11526551744951355 0.1196108486968573 0.00034273289030962208 -0.025130610559267432 0.16031045149314277 -0.030404663610685709 -0.0050599266050626486 0.14678178775126377 -0.032364461279081269 0.15278701958049556 0.14150140475301107 0.15110793362025388 0.020710448988900905 0.13618217572397306 0.11796772384939601 0.033812684964286355 -0.043851034218503837 0.039186947901742201 -0.027068897720590436 0.074324449124172964 0.020439719021386235 -0.010243079960354192 0.055019267547361209 0.067787652392426762 -0.049237496994173929 0.013094506808862625 -0.042542405262382094 0.13073727190894432 0.020380795101380165 -0.014063392947803094 0.13787777014683464 -0.04953001845503871 0.12861969798984843 0.021909490456994925 0.13502552945432661 0.075247213349538045 0.12762540664424837 -0.018534275586557052 0.12949487828245512 0.036464908958917311 0.13561767827393323 0.11017404475125869 -0.0013429481612252147 0.021863915619227913 0.12124637712275117 0.018985004154504839 0.035752262373018935
leaf_weight=86.806441813707352 5.8103162199258795 24.879842445254326 12.263606503605848 18.220709905028343 16.300775274634365 2.2620240747928611 3.8715794384479514 2.6676818877458564 2.4137288630008689 2.8995687216520336 4.9378152936696997 134.03449121117592 4.1865952908992794 13.889664635062219 9.0164684951305372 23.449254155158997 5.5591479986906078 18.883700639009476 4.0065908879041627 2.361987084150317 69.654273569583893 7.888110354542734 2.2789596021175376 59.327687010169029 3.6892438828945151 2.590775728225708 36.447592213749893 4.9130717962980315 14.676381170749661 28.417517527937889 19.669065877795219 715.89254978299141 10.193274244666098 2.1862861365079871 4.8190999776124945 2.1001205593347541 2.5364645719528189 3.8332142382860175 7.6812409758567792 4.5711188614368439 5.513628423213957 15.142245456576346 2.4795727133750916 9.9117209613323194 39.495183110237122 2.1163455992937079 3.6894567906856537 3.3438976407051086 7.6254758536815626 2.6916928589344025 6.3632343262434032 6.1720271557569495 8.0923821777105314 16.040054276585586 11.534011393785475 59.352271556854248 79.58670412003994 5.090996265411377 2.7441648244857779 4.64459080994129 6.4525952041149139 3.4816549569368362
leaf_count=459 31 128 64 93 76 11 18 13 12 15 24 707 20 70 42 111 26 95 20 11 370 41 11 312 18 12 165 24 69 135 98 3815 54 11 24 10 13 20 40 24 27 80 12 49 204 10 19 16 38 13 31 30 42 75 57 276 372 25 13 22 31 17
internal_value=0 0.0438504 -0.026414 0.0569068 0.0265696 -0.0070702 0.0862047 -0.034571 0.0793188 0.0372799 0.071394 -0.0270541 0.0021017 0.0148384 0.0542795 0.10091 0.0704562 0.0274684 0.0977339 -0.0397286 -0.0401794 0.000671751 0.101955 -0.0109114 0.0296935 0.111717 0.121495 0.0847483 0.107222 0.0853212 0.0524793 -0.0416103 -0.0215207 0.0954129 0.00310976 0.143989 0.0110639 -0.0353508 -0.0226947 0.0241278 0.103959 -0.0141093 0.0274178 0.0440105 -0.00487375 0.108835 0.048692 0.0567076 0.0522372 0.0645478 0.0413602 0.0541282 0.0227475 0.111412 0.0843614 0.117024 0.104308 0.0395375 0.113771 0.10219 0.0617852 0.0888431
internal_weight=0 640.465 1063.19 549.825 270.122 164.936 279.704 942.487 105.185 120.7 52.4491 139.778 116.208 47.786 22.9061 231.918 47.8921 24.4428 86.9644 826.28 823.612 27.8719 84.5507 92.352 20.772 72.36 62.1438 23.596 19.5895 46.6388 23.8557 795.74 79.8475 41.701 17.0827 38.5477 68.2506 90.6397 71.58 12.2524 25.1583 25.5099 10.3677 12.1907 44.7233 184.026 7.56104 8.85753 10.2163 5.22816 23.5272 20.6276 14.4556 176.465 30.3182 146.146 86.794 7.20734 18.7842 39.5147 11.0972 5.74368
internal_count=8771 3173 5598 2694 1357 854 1337 4996 503 602 254 735 600 240 112 1097 232 121 410 4396 4383 144 398 482 106 338 288 113 93 223 118 4239 424 199 88 175 348 479 376 64 119 133 53 60 230 865 37 43 50 26 118 103 73 828 145 683 407 35 88 188 53 28
is_linear=0
shrinkage=0.05


Tree=6
num_leaves=63
num_cat=0
split_feature=10 34 35 34 45 10 10 45 45 46 30 20 24 40 34 45 50 10 45 19 35 10 35 32 9 9 15 20 35 46 14 11 35 24 40 45 20 52 35 10 32 28 35 45 30 17 35 40 45 10 11 45 45 35 52 45 35 21 11 45 35 40
split_gain=572.735 313.882 466.695 129.055 123.203 108.103 92.4117 76.4356 57.9056 47.7551 46.7267 30.8751 30.5162 23.8607 23.4385 22.7749 22.0604 21.5952 20.63 17.8841 17.2564 16.8817 16.3732 15.4365 15.4331 12.7268 12.4751 12.4512 12.3268 11.9563 11.8186 11.5284 11.3252 12.648 11.6636 11.3297 11.1559 11.1485 10.5897 10.4666 14.5018 12.4114 9.83475 9.76435 9.75948 10.0913 9.68751 21.8397 32.452 20.586 13.4285 12.9888 10.9381 12.9549 9.57095 9.44017 9.41617 9.24487 9.20941 11.3722 9.18655 9.13409
threshold=-1.0000000180025095e-35 1351.5000000000002 19.550000000000004 600.50000000000011 150.85000000000005 396.50000000000006 367.50000000000006 158.05000000000004 107.65000000000002 99.950000000000017 9720.5000000000018 20189.000000000004 1.0000000180025095e-35 3.9500000000000006 2991.0000000000005 112.15000000000002 5.5000000000000009 103.50000000000001 100.05000000000001 504.50000000000006 43.150000000000013 1127.5000000000002 8.0500000000000025 4956.0000000000009 8228.0000000000018 5153.0000000000009 96.500000000000014 2299.5000000000005 16.650000000000002 56.350000000000001 263.50000000000006 37.500000000000007 33.350000000000001 2287.0000000000005 5.3500000000000005 91.550000000000011 877.50000000000011 3.5000000000000004 34.45000000000001 125.50000000000001 158.50000000000003 1372.5000000000002 26.950000000000003 175.75000000000003 2103.0000000000005 1481.5000000000002 36.050000000000004 6.5500000000000007 101.85000000000001 267.50000000000006 226.50000000000003 98.550000000000011 100.65000000000002 21.350000000000005 3.5000000000000004 93.250000000000014 30.650000000000002 12414.000000000002 219.50000000000003 85.050000000000011 7.6500000000000012 5.0500000000000007
decision_type=2 2 2 2 2 2 2 2 2 2 2 2 2 2 2 2 2 2 2 2 2 2 2 2 2 2 2 2 2 2 2 2 2 2 2 2 2 2 2 2 2 2 2 2 2 2 2 2 2 2 2 2 2 2 2 2 2 2 2 2 2 2
left_child=10 2 6 9 11 23 15 32 21 39 16 29 18 54 42 -2 -1 -17 -11 25 43 -8 -10 -6 30 -15 36 -24 -19 -3 -22 -18 58 -34 35 -35 -20 -33 -13 -4 55 -42 -7 -14 -21 -46 49 51 -49 52 -51 -48 -31 -54 -9 -41 -27 -28 59 -5 -23 -53
right_child=1 4 3 7 5 14 8 13 22 12 -12 38 20 19 -16 17 31 28 26 44 24 60 27 -25 -26 56 57 -29 -30 46 -32 37 33 34 -36 -37 -38 -39 -40 40 41 -43 -44 -45 45 -47 47 48 -50 50 -52 61 53 -55 -56 -57 -58 -59 -60 -61 -62 -63
leaf_value=-0.059755598614184086 -0.063556100016683645 -0.038158303233196834 -0.0086870023871167754 -0.035817158876947447 0.044501510894267543 0.058986746287149797 -0.046845770335978518 0.053436481535326291 -0.037465996977216351 -0.016768616769913477 0.047815027278532506 -0.0016865730295841702 0.058750330728254231 -0.0027254277852344555 -0.053784360567508918 -0.064494750812167587 -0.059424196503413379 -0.025329833772086537 -0.053436103520359372 -0.007556577826293303 0.03171904110119874 -0.054713361437148812 -0.041856662288961406 -0.038269440863395746 -0.0043795392498415337 0.047894883908950497 0.077899812412307368 0.05375349843021926 0.033516654765833681 -0.06126032555833906 0.05953997965830013 -0.062665149138861231 0.063204186931854325 -0.034940121642803031 -0.00080303869629228984 0.053091802251781221 0.050646431408561565 -0.0014353010913953817 -0.048898818484649942 -0.028732800452243992 0.050846394888247895 0.0049629197681132636 -0.031094400024854113 0.024567327548647711 0.056926891838383543 -0.038553365991987582 -0.01761145854886818 0.076958582064891257 -0.043278239287325632 0.0087503243172262612 0.056833395133460932 0.065216280354637446 -0.067548734172525979 0.056207169694311832 -0.0048465463664770572 0.020233797303501475 -0.037257105731390953 -0.0022263708369368185 0.061254699854306961 0.043196330876412378 0.029575774498884336 -0.0007793345377252258
leaf_weight=360.05143734812737 135.11159753799438 7.9376294016838065 20.69337323307991 5.8194913268089321 46.723853558301926 3.0745289623737326 44.772367417812347 20.555326789617538 6.3797703683376303 6.6880787014961234 11.368684500455855 25.89044651389122 223.71346324682236 51.60961064696312 195.65827822685242 23.680810958147049 20.404868900775909 24.281906068325043 3.0559296607971218 22.808183252811432 119.60904815793037 4.1975555717945126 3.6535378098487845 6.4050911962985984 21.394726395606995 3.3759546875953665 185.90961539745331 50.097363620996475 14.047472506761549 7.2667085230350521 56.067753791809082 9.3815795481204969 17.516184031963348 4.2828948795795467 42.775002747774124 24.926937609910965 16.340650647878647 35.813247919082642 21.943912774324417 12.457503378391264 73.579802691936493 18.429864346981049 208.97933351993561 23.043027251958847 16.186634898185734 3.3379915654659262 8.804868668317793 7.0772783458232871 27.102733910083771 18.982005059719086 61.779652744531631 24.585317194461826 3.0168369412422162 7.0714690089225769 10.715998142957689 46.895753264427185 84.71011421084404 3.6709963977336875 60.335158079862595 20.93991231918335 14.061433196067808 6.6640955507755271
leaf_count=1203 451 26 68 19 152 10 149 67 21 22 37 85 725 170 653 79 68 80 10 75 389 14 12 21 70 11 601 163 46 24 182 31 57 14 140 81 53 118 73 41 239 60 692 75 53 11 29 23 90 62 201 80 10 23 35 153 280 12 196 68 46 22
internal_value=0 0.010371 0.0229089 0.0369958 -0.0176859 -0.032562 -0.030813 0.0132607 0.00316476 0.0481246 -0.052225 0.0123661 0.0542448 -0.00688299 -0.0413039 -0.0520424 -0.0548969 -0.0269556 0.0696742 -0.0138144 0.0467474 -0.0303211 0.038266 0.0345229 0.0357152 -0.0224418 0.0724407 0.0472547 -0.00376297 0.021841 0.0405982 -0.0282295 0.0375911 0.0251005 0.0158286 0.0401841 0.0342482 -0.0141454 -0.0233451 0.0246658 0.0292256 0.0416558 -0.0297883 0.0555582 0.0146556 0.0406033 0.0246043 0.0109761 -0.0183821 0.0349153 0.0455321 0.0360287 -0.0144902 0.0191988 0.0334642 0.00995632 -0.0339936 0.0763483 0.0504268 0.0260129 0.0101986 0.0511424
internal_weight=0 2230.69 1541.73 1221.44 688.964 460.841 320.284 389.895 123.162 831.55 437.02 228.123 659.493 213.3 407.712 197.122 425.651 62.0102 215.665 182.028 443.828 63.0314 60.1307 53.1289 197.072 139.696 208.977 53.7509 38.3294 180.289 175.677 65.5997 176.596 89.501 71.9848 29.2098 19.3966 45.1948 47.8344 172.056 151.363 92.0097 212.054 246.756 42.3328 19.5246 172.351 74.2343 34.18 98.1167 80.7617 40.0543 17.355 10.0883 31.2713 59.3533 88.0861 189.581 87.0946 26.7594 18.259 31.2494
internal_count=8771 7314 5038 3977 2276 1528 1061 1277 405 2700 1457 748 2139 702 1355 656 1420 205 698 600 1441 209 196 173 641 461 676 175 126 590 571 217 575 292 235 95 63 149 158 561 493 299 702 800 139 64 564 244 113 320 263 131 57 33 102 194 291 613 283 87 60 102
is_linear=0
shrinkage=0.05


Tree=7
num_leaves=63
num_cat=0
split_feature=35 34 10 34 24 10 45 35 40 44 34 10 45 40 35 22 35 9 34 45 50 40 44 41 41 44 33 35 30 34 40 46 6 4 44 10 34 45 20 45 23 43 38 47 35 45 44 48 20 2 24 12 20 4 36 12 4 31 17 34 35 47
split_gain=1295.88 751.701 572.06 75.2987 74.6243 60.8057 48.7391 46.1534 35.9397 33.7292 31.6659 31.1841 34.1618 28.212 27.5588 19.5874 19.0128 18.9257 18.2195 16.7798 15.3274 15.1241 15.0151 14.7733 14.6195 14.4237 17.3444 14.2166 13.9951 13.785 13.7533 15.6132 13.314 13.2108 13.0139 12.6243 15.3035 13.3191 12.0203 16.0144 10.8282 13.1433 10.6489 10.4962 9.72719 9.51122 9.31218 9.29428 8.95131 9.95043 9.54875 14.0018 8.87873 12.4228 10.8704 8.83455 8.83149 8.59086 8.53516 8.51083 8.47759 8.47125
threshold=36.050000000000004 600.50000000000011 388.50000000000006 1563.5000000000002 185.50000000000003 1641.0000000000002 101.85000000000001 27.250000000000004 4.5500000000000007 9.6500000000000004 2812.5000000000005 125.50000000000001 158.05000000000004 4.3500000000000005 50.95000000000001 16625.500000000004 28.650000000000002 7995.0000000000009 3045.5000000000005 100.65000000000002 5.5000000000000009 32.95000000000001 22.650000000000002 6.1500000000000012 10.950000000000001 7.6500000000000012 321.50000000000006 70.250000000000014 11428.500000000002 951.50000000000011 4.7500000000000009 155.85000000000005 5622.5000000000009 5341.5000000000009 8.4500000000000011 498.50000000000006 342.50000000000006 128.55000000000004 20189.000000000004 141.55000000000004 1824.5000000000002 14.850000000000003 26.250000000000004 189.85000000000005 30.350000000000005 163.65000000000001 14.050000000000002 150.25000000000003 5476.5000000000009 24753.500000000004 5470.5000000000009 233.50000000000003 9644.0000000000018 5538.0000000000009 47.95000000000001 586.50000000000011 9639.5000000000018 1160.5000000000002 362.50000000000006 384.50000000000006 42.250000000000007 137.25000000000003
decision_type=2 2 2 2 2 2 2 2 2 2 2 2 2 2 2 2 2 2 2 2 2 2 2 2 2 2 2 2 2 2 2 2 2 2 2 2 2 2 2 2 2 2 2 2 2 2 2 2 2 2 2 2 2 2 2 2 2 2 2 2 2 2
left_child=5 4 11 9 28 16 15 -7 -6 14 33 20 -13 38 19 -5 -1 21 46 -4 -3 25 24 -22 -11 26 -10 48 -2 32 31 -21 -26 -9 52 -18 -37 -38 39 -8 41 61 -16 -42 -12 55 -15 60 50 -50 51 -14 53 -32 -54 -35 -25 -45 -24 -49 -19 -28
right_child=1 2 3 6 8 7 13 10 17 22 44 12 27 18 42 -17 35 47 -20 30 23 -23 58 56 29 -27 40 -29 -30 -31 34 -33 -34 45 -36 36 37 -39 -40 -41 43 -43 -44 57 -46 -47 -48 59 49 -51 -52 -53 54 -55 -56 -57 -58 -59 -60 -61 -62 -63
leaf_value=-0.050832319568290978 -0.051123263600975105 -0.046803251483202003 -0.040276021803995914 -0.030873944042980789 -0.035962121715884213 -0.04265290572006239 -0.041686574618172545 -0.03770341758939464 -0.017509980996310383 0.017064696653821473 0.025004821344650558 -0.047610406881814449 -0.044614952126414496 0.1073409666001765 0.031254149792407759 0.091907844370442193 -0.04498042909007452 0.015870764206871352 0.12361121374536098 -0.053979662796801733 -0.03561970276857987 0.068297620324990246 0.06315548952942196 0.11216965815315537 0.10969558830833291 -0.022186470330777149 -0.0039410584190297049 0.095904491127021874 0.054706690126850838 0.097037518707518297 0.030012646196883243 0.068683282320405922 0.0061811006744338232 0.047571156036313594 -0.0038179156654553487 -0.044455812947646819 -0.033846383332741918 0.017286613582213128 0.1395136574126554 0.064980130382354617 -0.018700499165753708 -0.053410612241967415 0.10968849539015467 0.11036911017142592 0.12894700358743344 0.098229031121666255 0.079421171637992019 0.067469082696186553 -0.046584853277260849 0.06879484092459548 0.12103310694899472 0.04495748716868557 0.069512947270682385 0.10225019645958844 -0.038829817799677667 -0.0078193789694205335 -0.0028814487983435709 0.010931135389955318 -0.041171071184931664 -0.052784466116943964 0.088991739779191434 0.067273304236165649
leaf_weight=663.9443416595459 135.89681920409203 74.309266313910484 3.9320620745420447 9.0302736759185773 61.713798090815544 49.315288886427879 4.4030875414609971 12.993424281477926 36.402538031339645 23.006158694624901 3.1496967077255231 19.279052346944809 5.6507386416196885 106.24215604364872 4.653973162174224 5.0730602145194998 102.52684514224529 5.7322449982166352 166.54000109434128 4.78431887924671 8.5881173610687238 8.1248750537633878 2.5757270306348792 3.9005885422229758 4.2435555458068839 55.018446996808052 5.0088654458522823 7.2710112184286109 3.1974194049835196 19.069634363055229 7.0239629149436942 5.6670869737863541 11.591233924031256 11.362758904695513 4.9095734953880301 36.189706921577454 20.709703847765923 33.074774652719498 3.8345103561878195 17.520473033189774 18.545307666063312 3.0550112873315802 61.678088456392288 3.3480452448129636 7.887136772274971 3.6103278845548621 41.543398052453995 2.455745503306388 8.0367631167173368 2.4347269237041465 2.8597837537527075 19.143649935722351 10.010825157165526 38.983331367373466 3.0116927325725547 19.643479704856873 2.9141438603401184 6.183899849653244 8.2074941992759687 3.6705418229103088 12.849874898791311 25.111702978610992
leaf_count=2903 597 323 17 39 267 215 19 56 156 94 13 84 24 417 19 20 447 24 644 20 37 33 11 16 17 237 21 29 13 77 28 23 48 48 20 158 89 139 15 71 78 13 244 14 32 15 166 10 35 10 12 79 40 155 12 83 12 26 35 16 52 104
internal_value=0 0.0368993 0.0670225 0.0902368 -0.0193932 -0.0423634 0.104372 -0.00700225 -0.00290965 0.0667708 0.0229759 -0.0183141 0.00815168 0.108149 0.0804708 0.0132915 -0.0468209 0.00808612 0.112271 0.0603868 -0.037394 0.00182579 0.0379215 0.00800011 0.0480087 -0.00171165 0.00982374 0.0318327 -0.0486905 0.0684044 0.0657075 0.0125321 0.0339219 0.00528633 0.0743995 -0.0329855 -0.0193171 -0.00240214 0.057842 0.0435574 0.0260682 0.045408 0.104185 0.00321653 0.0992839 0.0214227 0.0994925 0.0488274 0.0196135 -0.0197579 0.0345218 0.0245436 0.0809049 0.0912216 0.0444567 0.0124794 0.062971 0.0458582 -0.0162512 -0.00458038 0.0664353 0.0554308
internal_weight=0 1108.24 721.924 567.536 386.315 964.407 354.187 107.962 247.221 213.349 58.6468 154.388 64.6757 340.084 144.655 14.1033 856.445 185.507 314.326 78.3229 89.7121 160.799 68.6938 15.4028 57.9106 152.674 97.6554 45.3967 139.094 34.9044 74.3908 10.4514 15.8348 47.61 63.9394 192.501 89.9742 53.7845 25.7581 21.9236 61.2528 33.1756 66.3321 28.0773 11.0368 34.6166 147.786 24.7084 38.1257 10.4715 27.6542 24.7944 59.0298 46.0073 13.0225 31.0062 6.81473 9.53195 10.7832 6.12629 18.5821 30.1206
internal_count=8771 4573 2912 2251 1661 4198 1391 462 1051 860 247 661 273 1332 578 59 3736 784 1227 315 388 682 282 65 236 649 412 189 610 142 298 43 65 202 255 833 386 228 105 90 256 138 263 118 45 146 583 102 160 45 115 103 235 183 52 131 28 40 46 26 76 125
is_linear=0
shrinkage=0.05


Tree=8
num_leaves=63
num_cat=0
split_feature=15 35 35 35 40 35 40 35 40 45 40 35 31 35 40 45 50 35 26 20 52 53 49 25 37 0 37 43 20 41 52 20 49 21 0 4 31 32 40 41 43 34 40 1 22 47 32 14 14 2 25 32 15 0 17 11 27 40 42 14 23 4
split_gain=894.538 414.954 159.088 154.271 122.417 96.5288 64.5189 39.9253 31.298 32.9605 41.3389 44.8886 29.3629 25.6047 25.1672 26.064 24.9652 29.1487 22.67 19.4005 17.8123 17.4171 17.2506 16.96 15.7239 15.427 14.891 14.78 13.9371 13.5334 16.2995 24.0858 17.1186 13.1464 13.0752 15.4004 11.7133 10.5546 15.1578 16.8392 10.4675 10.1461 17.5977 9.69306 9.65888 9.39123 15.8198 13.8657 10.6663 10.586 9.47088 9.1585 8.57133 8.55569 8.04399 17.6387 11.7886 7.16887 6.96492 6.95133 6.91913 10.0146
threshold=1.0000000180025095e-35 5.0500000000000007 -1.0000000180025095e-35 16.650000000000002 -3.3499999999999992 1.0000000180025095e-35 -7.9499999999999993 18.350000000000005 0.55000000000000016 101.85000000000001 -6.0499999999999989 5.0500000000000007 5656.0000000000009 2.6500000000000008 -0.54999999999999993 94.15000000000002 2.5000000000000004 68.15000000000002 260.50000000000006 29731.500000000004 2.5000000000000004 17.500000000000004 110.95000000000002 93.500000000000014 16.150000000000002 4965.5000000000009 54.750000000000007 6.5500000000000007 728.50000000000011 -1.3499999999999999 3.5000000000000004 1770.0000000000002 93.550000000000011 2905.5000000000005 12077.500000000002 2135.5000000000005 293.50000000000006 423.50000000000006 7.5500000000000007 -0.74999999999999989 2.6500000000000008 1586.0000000000002 -7.4499999999999993 6943.5000000000009 3279.5000000000005 118.95000000000002 508.50000000000006 172.50000000000003 -575.99999999999989 3818.5000000000005 311.50000000000006 735.50000000000011 -662.49999999999989 10308.500000000002 -52.499999999999993 134.50000000000003 356.50000000000006 -2.5499999999999994 1.5500000000000003 672.50000000000011 1290.5000000000002 1614.5000000000002
decision_type=2 2 2 2 2 2 2 2 2 2 2 2 2 2 2 2 2 2 2 2 2 2 2 2 2 2 2 2 2 2 2 2 2 2 2 2 2 2 2 2 2 2 2 2 2 2 2 2 2 2 2 2 2 2 2 2 2 2 2 2 2 2
left_child=2 5 -1 8 16 -2 12 14 9 45 51 58 26 -10 15 24 17 18 25 33 -9 36 23 -13 -8 -5 -3 40 -6 30 31 -16 -32 34 35 -7 37 -22 -39 -40 -20 -27 -43 -25 -18 48 49 -48 -4 -47 -49 -11 -30 -15 55 56 -31 -38 -12 -35 61 -56
right_child=1 6 3 4 28 19 7 20 13 10 11 22 -14 53 29 -17 44 -19 27 -21 21 -23 -24 43 -26 41 -28 -29 52 54 32 -33 -34 59 -36 -37 57 38 39 -41 -42 42 -44 -45 -46 46 47 50 -50 -51 -52 -53 -54 -55 60 -57 -58 -59 -60 -61 -62 -63
leaf_value=-0.035745743197757029 -0.043326549447150184 0.31560945037391619 0.1296195404709603 0.1056981621560462 0.155477723404463 0.28148673728267803 0.34223234039587186 0.19576792711902219 0.24346834408513873 0.31416564495601101 0.30099392245561235 0.0094588985947482752 -0.016214702227493005 0.1058537820802701 0.16422499508457106 -0.0054576956321632552 0.11841796643915969 -0.015282138414425363 0.10358718714702748 0.054097771493240854 -0.020444597167165849 0.14681965190895463 -0.012480013499899788 0.11049267112749959 0.099761713793787274 0.28771035336518869 0.10285813209832727 0.0052875072579136153 0.10627215158504495 0.039478812284652352 0.26683186539002951 -0.036305788192919526 0.037425328381199906 0.28657124223605868 0.079012237581518888 0.091177469171110262 0.0064080126491693201 -0.011708728093046497 0.30991617188513809 0.011683385670879766 0.28223509048327616 0.30358794421699936 0.072233861742199854 0.30419923881977362 -0.044011617576036589 0.18778290505399201 0.32827858594745907 0.2632096689589653 0.27028723699398666 -0.004081311266049977 0.071744452752869114 0.17882441975121299 -0.025020782885628243 -0.043792865248492803 -0.0133262447507535 -0.029055389990709751 0.26387889032817341 -0.038646067781830502 0.16928718930770759 0.16021677573431223 -0.033670949163818319 0.067827908626388489
leaf_weight=13.133465170860289 3.9869402199983623 2.0809690505266185 1.4322428256273294 1.9967427104711628 1.252171784639361 3.8247151374816957 1.2897787317633622 0.83576645702123542 1.9047034755349148 4.1708268150687244 2.6001631468534461 1.8649614006280879 1.8333315700292585 1.6625680774450304 1.9184138923883418 2.6115919500589371 1.8423834368586534 1.7530916705727566 2.0284691676497455 1.5220458582043637 47.758211880922318 1.3109309524297703 4.7753388285636902 1.2920145541429522 1.3883505165576933 7.8065830990672094 1.3599831461906431 2.0277487114071846 1.3303842395544077 1.2049093618988984 1.4490551650524133 6.8231983631849289 1.8531907200813291 10.238665215671061 2.0174071341753006 1.4722392931580541 8.9819213449954969 3.1448139473795882 0.98945988714694977 0.90735309571027734 1.376269534230232 1.5777931585907938 1.7157667875289915 1.2912704497575758 1.8187429606914518 1.7176454961299881 2.8106653466820717 1.2962493300437929 22.807549603283405 1.2364358901977537 1.2872947156429289 1.7849175930023191 18.946959763765335 2.2446568980813026 24.840882830321792 3.4728832617402077 1.1380723491311071 519.3453391417861 1.6349505111575124 1.2179825231432904 35.761591069400311 4.4883488342165938
leaf_count=147 45 18 12 18 12 30 10 9 15 32 21 18 20 15 18 27 17 18 19 14 520 13 48 12 13 61 13 20 13 13 15 72 20 78 17 13 94 34 10 10 12 13 16 12 18 14 22 10 176 11 11 14 206 23 268 38 12 5808 14 10 391 48
internal_value=0 -0.0214982 0.128165 0.149007 0.0801052 0.181593 -0.0287842 -0.0301524 0.2032 0.215499 0.163926 0.115391 0.14541 0.0931574 0.0011927 0.106935 0.157898 0.179589 0.198026 0.225783 -0.0348944 -0.0352254 0.0535156 0.124364 0.216535 0.233645 0.231523 0.112154 -0.00640981 -0.00555043 0.0434529 0.00770223 0.138091 0.239704 0.187336 0.228592 -0.035636 -0.0131813 0.0556227 0.167255 0.175801 0.256661 0.183065 0.207318 0.0377276 0.246224 0.200487 0.251422 0.261976 0.107478 0.167809 0.273604 -0.0164067 0.0198835 -0.0138739 0.0424659 0.148478 -0.0378801 0.250149 0.273138 -0.0189078 -0.000906958
internal_weight=0 701.068 116.421 103.288 45.4731 24.28 676.788 671.514 57.8145 52.0025 19.4144 13.4587 5.27428 5.81193 88.2403 5.28972 23.9436 20.2825 18.5294 20.2931 583.274 582.438 9.22359 4.44825 2.67813 13.0969 3.44095 5.43249 21.5295 82.9505 12.0439 8.74161 3.30225 18.771 7.31436 5.29695 581.127 52.7998 5.04163 1.89681 3.40474 11.1001 3.29356 2.58329 3.66113 32.5881 8.34829 5.39421 24.2398 2.95408 2.58354 5.95574 20.2773 3.90722 70.9067 5.81586 2.34298 528.327 4.23511 11.4566 65.0908 29.3292
internal_count=8771 7701 1070 923 443 207 7494 7443 480 427 171 125 51 53 945 50 212 177 159 162 6498 6489 90 42 23 108 31 51 231 895 125 90 35 148 60 43 6476 574 54 20 31 90 29 24 35 256 68 43 188 25 21 46 219 38 770 63 25 5902 35 88 707 316
is_linear=0
shrinkage=0.05


Tree=9
num_leaves=63
num_cat=0
split_feature=30 35 52 35 32 31 15 44 15 36 39 42 40 31 26 52 22 24 15 11 20 9 38 21 15 10 0 37 34 35 34 11 31 21 31 42 43 39 2 33 15 33 23 20 1 24 11 29 38 19 31 23 36 43 41 1 27 48 36 35 35 25
split_gain=1214.09 197.695 44.4145 36.5026 31.626 30.0674 27.2113 25.4819 22.6073 21.4901 15.53 15.483 17.2643 14.7602 19.4613 14.9491 17.7879 16.3129 14.5356 17.4551 19.1087 14.2968 15.8073 11.694 11.2699 13.9561 12.9209 10.5329 18.8727 10.0351 9.86096 12.2557 18.6135 19.9823 12.7685 9.55885 9.49363 15.1876 15.3175 9.2375 8.95131 18.809 9.55076 8.41494 9.95184 7.01939 6.77355 9.99076 25.056 22.2758 6.66429 9.79516 6.51256 6.14261 8.08695 5.91634 15.7614 7.33698 12.2965 6.37228 10.9616 11.8622
threshold=50.500000000000007 11.950000000000001 2.5000000000000004 -1.0000000180025095e-35 173.50000000000003 50.500000000000007 -163.49999999999997 4.4500000000000011 -17.499999999999996 45.150000000000013 77.250000000000014 -1.0000000180025095e-35 2.6500000000000008 491.50000000000006 1177.5000000000002 3.5000000000000004 2738.5000000000005 1208.5000000000002 380.50000000000006 -52.499999999999993 1210.5000000000002 4809.0000000000009 4.5500000000000007 2067.5000000000005 10.500000000000002 98.500000000000014 11782.000000000002 45.250000000000007 46.500000000000007 23.350000000000005 46.500000000000007 140.50000000000003 329.50000000000006 4341.5000000000009 274.50000000000006 2.7500000000000004 0.95000000000000007 7.8500000000000005 15513.500000000002 154.50000000000003 -81.499999999999986 117.50000000000001 836.00000000000011 1708.5000000000002 4929.5000000000009 6728.0000000000009 203.50000000000003 34.500000000000007 23.050000000000004 68.500000000000014 112.50000000000001 2150.5000000000005 9.3500000000000032 1.0000000180025095e-35 0.65000000000000002 5562.5000000000009 386.50000000000006 139.85000000000005 33.150000000000013 23.850000000000005 18.350000000000005 265.50000000000006
decision_type=2 2 2 2 2 2 2 2 2 2 2 2 2 2 2 2 2 2 2 2 2 2 2 2 2 2 2 2 2 2 2 2 2 2 2 2 2 2 2 2 2 2 2 2 2 2 2 2 2 2 2 2 2 2 2 2 2 2 2 2 2 2
left_child=3 5 -3 -1 18 7 9 11 21 13 30 -2 23 14 15 16 17 35 19 20 -4 22 -5 24 -13 -26 -27 55 29 -29 31 39 33 34 52 -7 37 -15 -39 43 41 -6 -43 44 -8 -38 47 -32 53 -50 51 -42 -33 54 -49 56 57 59 -59 60 -21 -62
right_child=1 2 4 8 40 6 10 -9 -10 -11 -12 12 -14 36 -16 -17 -18 -19 -20 27 -22 -23 -24 -25 25 26 -28 28 -30 -31 46 32 -34 -35 -36 -37 45 38 -40 -41 50 42 -44 -45 -46 -47 -48 48 49 -51 -52 -53 -54 -55 -56 -57 -58 58 -60 -61 61 -63
leaf_value=0.35547124113193096 0.29071675796970581 0.30127995319301748 -0.042308071133803409 0.20099518589036777 0.21349129193838495 0.14384671245201305 0.22278972322276178 0.40409352311727909 -0.042245515514408631 0.38379803942616303 0.20719219443354234 0.28717903151774221 -0.019870719892920573 -0.042330742205760004 -0.042246329634912705 0.01472836458614544 0.3989444684950163 -0.042227665370300427 -0.022928841214516084 -0.0066906617416124751 0.30056074468039423 0.042339407112402173 0.50555830956440007 -0.042800642831541974 -0.0039438767130638985 0.34376490791942976 0.073305830974765715 0.3233381280545195 -0.042177041938555926 0.082936877745073967 -0.023396010681582004 0.30258494840943001 0.014888736298483474 -0.042293932601775643 0.43760803645571311 0.3685630582008812 -0.042246478166205144 0.32117606870735149 0.025865326519582 0.19358133004059119 -0.020295786316368733 0.1660071202961011 -0.020254636486443912 -0.042210957890786133 -0.042458562345587779 0.11427377106685342 -0.026701878272554741 -0.00049532823610391101 0.44221284137024314 0.08791554073338495 -0.036789745787976599 0.17208380722288785 0.10606701127269341 -0.027757114209465628 0.20402279155751152 -0.021368907764196223 0.27241170812727822 0.24544430081638371 -0.042095612107993965 -0.0275624953455363 0.20232205826504535 -0.042404971682788478
leaf_weight=22.7351872548461 1.1983651891350735 1.0164896138012398 0.6238394826650645 1.0240531004965312 0.97692159190774219 1.0682100690901251 0.75287874788045683 0.89428348839283067 0.87015713378786941 0.70352645218372423 1.2024083770811547 1.5134011171758146 2.2190548703074455 0.9604708626866344 0.99674564227461804 0.87742360308766354 1.2437905408442018 0.67611491307616223 23.503510072827339 4.2193230129778403 1.1656784750521181 0.58546225726604451 0.72953743115067471 0.70812508836388577 1.2996369078755381 0.90569548308849313 0.86179389804601669 0.95590525120496683 1.2170160785317419 0.79522793740034103 5.3163570091128367 0.72396452352404672 2.6169544830918312 0.69109902158379544 0.72854072600603093 0.84963821992278088 2.8405288085341458 1.0989755615592001 0.73130689933896054 0.63579953089356411 2.2794961035251613 0.71921063214540737 15.974393811076878 4.2947247885167599 0.66682178154587746 0.9578496254980563 9.7094951122999174 1.1958654634654524 0.72176261246204365 1.1513544097542761 370.79565027728677 0.93226023018360127 1.0093825086951254 3.4646448381245136 0.81123922765254963 9.6102648675441724 0.63545990735292512 0.86813949421048231 0.65035355091094971 6.8112436011433601 1.6339152045547964 0.7104605846107005
leaf_count=192 15 13 10 13 15 13 10 11 14 10 19 19 34 15 16 14 15 11 402 68 17 8 10 10 20 13 12 13 20 11 87 10 40 11 10 10 46 15 11 10 37 11 266 70 10 15 162 19 10 18 6404 14 15 57 12 158 10 13 11 110 25 11
internal_value=0 -0.0175342 -0.0288503 0.333189 -0.0296043 0.0690561 0.0531128 0.149929 0.175333 0.115033 0.0305525 0.123821 0.0971814 0.099662 0.158488 0.200921 0.24349 0.168951 0.00649235 0.0296219 0.181034 0.256275 0.327701 0.146295 0.175528 0.120437 0.211894 0.0199819 0.109059 0.214167 0.0243946 0.060716 0.113463 0.195278 0.261969 0.2434 0.0486676 0.118686 0.203182 0.0127894 -0.0345256 0.000249161 -0.0122299 -0.00732586 0.0982048 -0.00277625 0.00471606 0.0288095 0.0665969 0.224436 -0.0361686 0.0355453 0.188146 0.0125646 0.0821676 0.00946467 0.0285464 0.0181414 0.122294 0.00631667 0.0414736 0.128158
internal_weight=0 504.393 446.095 25.9444 445.078 58.2982 48.6979 9.60036 3.20921 13.0046 35.6933 8.70607 7.50771 12.3011 5.71192 4.71518 3.83775 2.59396 53.4003 29.8968 1.78952 2.33905 1.75359 5.28865 4.58053 3.06713 1.76749 28.1073 2.96815 1.75113 34.4909 12.1202 5.76994 3.15299 2.46189 1.91785 6.58913 2.79075 1.83028 6.35022 391.678 17.6705 16.6936 5.71443 1.4197 3.79838 22.3707 12.6612 7.34487 1.87312 374.007 3.21176 1.73335 5.47175 2.0071 25.1392 15.5289 14.8934 1.51849 13.3749 6.5637 2.34438
internal_count=8771 8534 7639 237 7626 895 761 134 45 191 570 123 108 181 79 63 49 34 879 477 27 31 23 74 64 45 25 450 44 24 551 186 86 46 35 23 102 41 26 100 6747 292 277 90 20 61 365 203 116 28 6455 51 25 88 31 406 248 238 24 214 104 36
is_linear=0
shrinkage=0.05


Tree=10
num_leaves=63
num_cat=0
split_feature=40 35 45 10 46 35 15 40 35 35 20 33 35 10 16 45 35 10 10 40 20 40 32 0 45 14 30 10 19 10 10 45 33 10 50 30 19 32 45 11 52 30 10 37 11 52 50 16 10 45 35 31 2 5 35 24 43 50 45 37 27 20
split_gain=699.628 220.096 183.317 215.333 163.377 147.041 90.4502 64.6757 51.5845 40.8716 29.243 27.6635 26.205 25.6491 21.8216 21.6219 21.1354 61.8967 25.2948 20.2816 19.4265 19.42 25.2769 19.0981 16.6103 24.3992 16.5038 27.0238 16.3706 15.7448 15.6909 14.1806 20.4898 18.2958 13.6608 12.7301 12.6946 12.302 12.1999 12.1784 12.8126 11.4437 11.3718 12.6184 10.8472 13.5881 12.0365 14.4077 10.8162 25.3939 11.3918 10.6164 10.5016 10.2176 10.26 10.0805 10.1865 10.055 12.6865 11.3723 9.89191 9.77634
threshold=3.6500000000000008 5.0500000000000007 117.65000000000002 -5.4999999999999991 92.050000000000011 20.550000000000004 -118.49999999999999 -5.5499999999999989 23.050000000000004 21.350000000000005 827.50000000000011 1.0000000180025095e-35 14.850000000000003 352.50000000000006 -1.4999999999999998 100.65000000000002 21.350000000000005 103.50000000000001 -489.49999999999994 -3.3499999999999992 728.50000000000011 5.6500000000000012 1329.5000000000002 1311.0000000000002 100.05000000000001 393.50000000000006 901.50000000000011 -1255.4999999999998 2.5000000000000004 2484.5000000000005 447.50000000000006 98.550000000000011 50.500000000000007 414.50000000000006 5.5000000000000009 8526.5000000000018 2.5000000000000004 607.50000000000011 103.65000000000002 15.500000000000002 3.5000000000000004 453.50000000000006 5.5000000000000009 20.850000000000005 -8.4999999999999982 3.5000000000000004 1.0000000180025095e-35 -41.499999999999993 -21.499999999999996 100.65000000000002 16.050000000000004 1271.5000000000002 29201.000000000004 5536.5000000000009 28.650000000000002 4123.5000000000009 3.0500000000000003 5.5000000000000009 88.750000000000014 32.650000000000013 1034.0000000000002 2897.0000000000005
decision_type=2 2 2 2 2 2 2 2 2 2 2 2 2 2 2 2 2 2 2 2 2 2 2 2 2 2 2 2 2 2 2 2 2 2 2 2 2 2 2 2 2 2 2 2 2 2 2 2 2 2 2 2 2 2 2 2 2 2 2 2 2 2
left_child=1 41 6 7 9 30 12 26 13 14 -7 53 -3 -6 -2 28 18 38 51 -14 -9 22 -13 -10 25 -19 -4 -28 -15 55 36 32 -25 -34 35 -22 -5 48 -18 40 -12 -1 -40 -44 45 -33 -47 -48 49 50 -20 -8 -27 -11 -55 56 61 -23 -59 -60 -36 -16
right_child=4 2 3 5 8 10 16 20 23 11 39 21 19 15 29 -17 17 24 37 -21 34 57 -24 31 -26 52 27 -29 -30 -31 -32 44 33 -35 60 -37 -38 -39 42 -41 -42 -43 43 -45 -46 46 47 -49 -50 -51 -52 -53 -54 54 -56 -57 -58 58 59 -61 -62 -63
leaf_value=-0.038760548724812528 -0.003933573806915956 -0.023690020076082383 -0.039469937476505491 0.062171470194481465 0.072341569480653886 0.076671731969436732 -0.0387394525003847 -0.049850137748380575 0.090206094937420558 0.11510428565041141 -0.027834897256903031 -0.016520849619682223 0.010372559278200265 0.11914077439772214 0.032489531251829538 -0.025053713961124192 0.11847939049525336 0.010473624809170017 -0.041991958193777129 0.10430679390041071 0.11252121095497705 -0.034890619977195669 0.1037699349870201 0.13747811084614978 -0.01111268126005535 0.17207826852951644 -0.036081082255688401 0.085363395835323153 0.0056581036656941815 -0.034126652500613537 -0.0050749985197009783 -0.035839970864039165 0.083596420320658685 -0.037992410116354049 0.016715915555962642 -0.0072033351097670426 0.12618283817055739 0.12759855760283073 0.10336733114783841 -0.039399587273035747 0.051248231169786197 0.046091719683442028 0.12049877280339974 -0.028564811484121169 -0.042924892452662108 -0.038574225543149682 -0.0041305554505261617 0.12381894928479267 0.10346347195319004 0.11797838109008491 0.085265337175473327 0.084231239986973822 0.03943683296325641 0.077360722468886464 0.0095555977945172219 0.12091364219970653 0.0073447792493967559 -0.032776292834497713 0.12922967258634108 -0.023361662026612259 0.12251842890435834 0.10745904504328055
leaf_weight=85.359043374657631 11.982423946261404 23.345769286155701 10.142218798398973 14.862549573183061 11.748354926705359 6.243080958724021 4.3938065618276587 2.1762766242027274 2.8211295157670966 4.2122012823820141 14.269532576203348 10.668464407324793 13.223198711872103 4.9512721151113501 6.5742119848728242 45.746242880821228 40.775664895772934 11.369408249855043 5.7590132504701632 10.162843331694601 73.065012589097023 53.722050756216049 7.3938483148813239 2.3553288280963924 19.297334909439087 4.6824520379304877 7.3887836933136013 12.052919194102286 8.8729545623064023 3.161006271839141 4.4286767542362204 31.131317049264908 3.7164027690887478 18.470286190509796 7.4266843497753126 2.2898510843515387 16.17470109462738 44.410341009497643 8.9477538764476758 133.47055219113827 7.9890821874141684 4.1675806343555442 2.0475553870201102 4.6300632059574127 690.25219695270061 4.9453571736812583 4.4655503779649726 4.3370487540960303 83.961859494447708 9.055784732103346 2.5316726863384247 2.9226319789886475 2.1902369409799576 8.1772761791944522 17.558997929096222 11.528972148895262 5.9586786180734626 5.9764858633279783 3.3511987030506134 1.9209480434656141 3.1445522755384445 12.845050111413
leaf_count=465 61 122 53 67 56 29 22 11 13 20 77 56 66 22 31 243 176 54 28 44 309 290 34 10 97 21 38 56 43 16 22 170 18 100 36 11 70 188 39 725 43 21 10 23 3821 27 24 23 362 39 11 13 10 39 87 51 28 31 17 10 14 58
internal_value=0 0.0383892 0.049153 0.0226656 -0.026846 -0.00924472 0.0775718 0.0762006 -0.0358423 0.0186075 -0.0294358 0.00171843 0.013784 0.00482178 0.0552672 -0.00849432 0.0896415 0.0709727 0.101101 0.0511934 0.0976794 -0.0131403 0.0327205 -0.0396458 0.0212246 0.0554324 0.0122354 0.0392086 0.046303 0.0729714 0.0829675 -0.040128 -0.00274006 -0.0176256 0.101416 0.108883 0.0955302 0.105656 0.104084 -0.0336896 0.000549691 -0.0348106 0.0665185 0.0171425 -0.0413762 -0.017557 0.0238436 0.0589103 0.0960376 0.060094 -0.00313223 0.0103825 0.129807 0.0429147 0.0310996 0.0821441 0.0645314 -0.0258899 0.0170964 0.0736318 0.0481883 0.0820788
internal_weight=0 698.358 608.832 315.124 998.845 197.438 293.707 117.686 833.813 165.032 161.972 112.981 46.7318 71.3188 52.0503 59.5705 246.976 93.9405 153.035 23.386 88.1024 83.033 18.0623 762.495 37.5394 18.2421 29.5839 19.4417 13.8242 40.0679 35.4659 759.673 24.542 22.1867 85.9261 75.3549 31.0373 145.719 56.401 155.729 22.2586 89.5266 15.6254 6.67762 735.131 44.8793 13.748 8.8026 101.308 17.3465 8.29069 7.31644 6.87269 29.9485 25.7363 36.9069 25.3779 64.9707 11.2486 5.27215 10.5712 19.4193
internal_count=8771 3372 2886 1561 5399 1033 1325 528 4570 829 874 584 232 364 245 308 1093 430 663 110 381 438 90 4206 182 85 147 94 65 184 159 4193 128 118 370 320 137 628 248 845 120 486 72 33 4065 244 74 47 440 78 39 35 31 146 126 168 117 348 58 27 50 89
is_linear=0
shrinkage=0.05


Tree=11
num_leaves=63
num_cat=0
split_feature=10 35 33 35 40 10 24 45 31 33 45 31 45 24 45 55 33 50 35 21 22 45 40 45 35 40 40 35 40 36 45 10 47 45 10 47 35 10 15 10 44 24 20 10 35 28 45 43 11 52 39 44 45 20 14 35 40 24 21 53 50 11
split_gain=515.19 250.869 409.541 134.133 122.735 80.424 71.1545 62.0119 48.763 48.7519 46.3768 35.6334 28.4383 25.0502 20.5732 19.4593 19.2833 19.1631 18.8092 18.7204 18.4751 18.7571 17.7716 17.2441 15.3687 15.2384 15.232 14.9098 14.4049 14.1837 13.5741 18.0103 12.9075 12.7516 12.767 12.4122 11.8822 11.6605 11.5054 11.4604 11.3058 11.0707 10.205 10.1421 10.0946 9.70555 10.9039 9.55395 9.54645 10.6263 9.44219 12.3758 9.36045 13.2815 8.82879 8.57053 9.80633 8.54183 8.52512 8.51169 16.9489 8.42145
threshold=-5.4999999999999991 17.350000000000005 1210.5000000000002 36.350000000000001 4.3500000000000005 447.50000000000006 1415.0000000000002 175.75000000000003 112.50000000000001 2902.5000000000005 107.65000000000002 15261.500000000002 96.15000000000002 2287.0000000000005 125.95000000000002 1.0000000180025095e-35 55.500000000000007 5.5000000000000009 20.150000000000002 33670.000000000007 18162.500000000004 100.05000000000001 3.6500000000000008 104.25000000000001 20.150000000000002 3.4500000000000006 4.7500000000000009 37.750000000000007 6.3500000000000005 2.6500000000000008 108.25000000000001 146.50000000000003 77.15000000000002 161.15000000000001 284.50000000000006 67.850000000000009 7.6500000000000012 182.50000000000003 100.50000000000001 242.50000000000003 22.350000000000005 4444.5000000000009 5145.5000000000009 1818.0000000000002 69.350000000000009 10.500000000000002 159.55000000000004 76.700000000000017 5.5000000000000009 3.5000000000000004 38.45000000000001 13.350000000000003 96.15000000000002 23506.000000000004 483.50000000000006 46.550000000000004 6.2500000000000009 1693.5000000000002 2105.5000000000005 13.500000000000002 1.0000000180025095e-35 509.50000000000006
decision_type=2 2 2 2 2 2 2 2 2 2 2 2 2 2 2 2 2 2 2 2 2 2 2 2 2 2 2 2 2 2 2 2 2 2 2 2 2 2 2 2 2 2 2 2 2 2 2 2 2 2 2 2 2 2 2 2 2 2 2 2 2 2
left_child=11 5 6 19 20 30 8 18 14 13 26 17 16 54 -3 24 -10 -1 22 45 21 -5 -8 -15 -14 -18 -7 35 -29 -12 -2 -32 -24 -23 59 39 -28 -9 -17 -20 55 44 58 -38 -42 46 -4 -27 -19 -50 -39 57 53 -11 -6 56 -25 -52 -33 -35 -61 -47
right_child=1 2 3 4 9 10 7 37 12 52 29 -13 15 23 -16 38 25 48 27 -21 -22 33 32 40 -26 47 36 28 -30 -31 31 42 -34 34 -36 -37 43 50 -40 -41 41 -43 -44 -45 -46 61 -48 -49 49 -51 51 -53 -54 -55 -56 -57 -58 -59 -60 60 -62 -63
leaf_value=-0.057526151668334496 -0.061164798871671006 -0.027351172347701475 0.052393109880285407 -0.051164934472065486 0.0022951920813764591 -0.058958378822024926 -0.041766723445431329 0.041195009522115987 -0.04103506842739385 0.056563464805438501 -0.014563817634989261 0.042114096480175653 -0.026406088460672751 0.045189890952423047 0.028095720575934843 0.032416375355371362 -0.025629409680081285 -0.061377188816858864 -0.046360452198933463 -0.043897480136719923 -0.039710642568406118 0.063807415350803365 -0.025517350767627622 0.020104409094259004 0.04879255735202833 0.065202358439992961 -0.053875376133458469 0.041628972016880136 0.0055837822746772426 0.055303007600884829 -0.056657738823321091 -0.01645791185241139 0.0686422152343623 0.070115652812298909 0.00036904435202147947 0.049011567660535466 -0.0049160604113594915 0.0063869754755818122 0.070613649244089832 0.0317281762182752 -0.022424727405421559 -0.035575231305629076 -0.051394666762522301 0.073245894907724693 0.084983688351697409 0.0024184612834859849 -0.022862561015480065 -0.025367759415902615 -0.060699866167542776 -0.0041654157806601299 0.0042010678829772262 0.017252463214231028 -0.050272254964674482 -0.064819946625203878 0.056126970314962235 -0.034964873530228091 -0.024409165593495184 -0.038993405719174139 0.046045412063388073 0.075518016410240363 -0.024121020368054538 0.033864176540086846
leaf_weight=346.20501393079758 128.87483051419258 25.409491837024689 63.505847930908203 6.3099299371242514 18.586907953023914 22.577322602272034 15.344785779714586 13.596760571002958 11.675943255424498 4.9629135727882367 9.1099574863910657 10.1160691678524 6.972812443971633 8.9384931027889234 48.974653154611588 21.879961103200912 8.1671975255012494 15.886770248413084 6.4049045741558102 8.4353876709938032 9.7601134181022626 31.602468699216843 5.7613705396652213 16.345207095146179 265.65484082698822 21.660386204719547 8.8674424886703509 51.770614773035049 59.658187240362167 35.853089958429337 37.688559800386429 11.520624488592153 9.8827585279941541 17.367860913276672 28.848710030317307 194.02998587489128 16.603459686040882 70.095740854740143 199.15550577640533 17.636079609394073 3.315495043992998 6.5602327883243552 8.5072828233242017 5.5334372520446768 6.4297996759414673 34.678663790225983 5.2080326974391928 3.3639497756957999 10.676152497529982 37.531476259231567 14.905406296253203 18.701384633779526 232.57488894462585 4.1280184984207153 12.904880106449125 154.96017056703568 50.906988739967346 49.307492136955261 10.36263996362686 7.7343321442604092 9.5230221748352033 55.153665274381638
leaf_count=1181 439 84 205 21 61 76 51 44 39 16 30 33 23 29 159 71 27 54 21 28 33 102 19 54 857 70 30 168 195 116 128 38 32 56 95 626 55 229 639 57 11 22 28 18 21 113 17 11 36 124 49 61 791 14 42 519 170 164 34 25 31 179
internal_value=0 0.0097417 0.0162827 -0.0111715 -0.0217055 -0.0331734 0.0355183 0.0220482 0.0471024 -0.0318883 0.00370316 -0.0505911 0.0523438 -0.0176468 0.00915516 0.0558077 0.0142314 -0.0528768 0.0337072 0.0286829 0.0259912 0.0323161 -0.00353487 -0.022992 0.0468693 0.0336728 -0.0277181 0.0372098 0.0223306 0.0411473 -0.0516244 -0.0335643 0.0339654 0.0378564 0.0249359 0.0448127 -0.00496894 -0.00317865 0.0668326 0.0109241 -0.0255471 0.014639 -0.00492529 0.0146216 0.0484417 0.0325445 0.0466893 0.0530273 -0.0277631 -0.0166856 -0.00712178 -0.0185421 -0.0483267 0.00144558 0.0243547 -0.0284959 -0.0135904 -0.0289669 0.01314 0.0454043 0.0205348 0.0217249
internal_weight=0 2234.25 1938.75 798.742 631.76 295.499 1140.01 527.095 612.915 520.614 98.5447 420.415 538.531 278.948 74.3841 493.663 44.8675 410.299 360.489 166.982 111.146 101.386 30.9889 247.456 272.628 33.1915 53.5817 329.5 111.429 44.963 196.954 68.0791 15.6441 95.0764 63.4739 218.071 31.0043 166.607 221.035 24.041 238.518 16.3055 30.3905 22.1369 9.74529 158.546 68.7139 25.0243 64.0944 48.2076 153.01 82.9143 241.666 9.09093 31.4918 222.212 67.2522 64.2129 21.8833 34.6252 17.2574 89.8323
internal_count=8771 7343 6351 2655 2113 992 3696 1716 1980 1750 325 1428 1737 929 243 1590 147 1395 1169 542 363 330 102 826 880 108 179 1067 363 146 667 228 51 309 207 704 103 547 710 78 797 54 100 73 32 514 222 81 214 160 503 274 821 30 103 743 224 213 72 112 56 292
is_linear=0
shrinkage=0.05


Tree=12
num_leaves=63
num_cat=0
split_feature=35 34 10 24 15 34 45 40 31 10 45 44 40 35 35 46 40 20 45 20 24 24 35 10 34 45 44 50 45 41 24 35 19 28 22 44 27 15 31 10 25 39 2 50 38 39 24 44 41 43 46 43 28 48 20 2 37 41 25 32 11 32
split_gain=1170.18 635.037 472.865 70.6436 59.9591 58.1283 38.6903 33.6184 31.6468 29.4377 31.1307 27.2378 25.537 22.4479 19.6131 19.4818 24.2252 16.6593 15.9289 21.4824 15.7202 15.6173 15.0859 15.0329 17.3989 14.7059 14.6276 14.6112 14.3216 13.3602 13.2867 12.0449 11.7951 11.0146 10.632 10.3278 10.5332 11.2892 10.2265 9.51727 9.08621 9.05483 8.96371 8.86069 10.7462 8.81558 13.409 11.657 11.0445 10.0664 8.68408 8.16541 8.14833 8.54715 8.07683 9.09538 8.15739 13.028 8.05206 8.04021 9.85839 8.01864
threshold=36.050000000000004 600.50000000000011 388.50000000000006 185.50000000000003 1012.5000000000001 2497.5000000000005 100.65000000000002 4.5500000000000007 5426.5000000000009 125.50000000000001 158.05000000000004 15.450000000000001 4.1500000000000012 28.650000000000002 27.250000000000004 152.95000000000002 4.7500000000000009 10331.500000000002 101.85000000000001 18095.000000000004 1714.5000000000002 4782.5000000000009 27.550000000000004 498.50000000000006 414.50000000000006 114.45000000000002 7.6500000000000012 5.5000000000000009 136.60000000000002 6.1500000000000012 901.50000000000011 70.250000000000014 100.50000000000001 17.500000000000004 18162.500000000004 9.4500000000000011 243.50000000000003 698.00000000000011 6261.5000000000009 498.50000000000006 2123.5000000000005 53.650000000000013 3525.5000000000005 5.5000000000000009 21.650000000000002 36.850000000000001 2345.5000000000005 9.6500000000000004 -1.3499999999999999 11.15 269.15000000000003 14.950000000000001 80.500000000000014 131.95000000000002 5476.5000000000009 24753.500000000004 53.45000000000001 9.7500000000000018 12444.000000000002 2482.5000000000005 1397.5000000000002 1700.5000000000002
decision_type=2 2 2 2 2 2 2 2 2 2 2 2 2 2 2 2 2 2 2 2 2 2 2 2 2 2 2 2 2 2 2 2 2 2 2 2 2 2 2 2 2 2 2 2 2 2 2 2 2 2 2 2 2 2 2 2 2 2 2 2 2 2
left_child=4 3 9 38 13 6 51 -5 14 27 -11 15 34 -1 -6 16 -8 26 19 -14 -13 -16 58 -15 -25 -26 28 -3 -9 -29 -30 54 33 -28 -7 39 -37 -38 -2 -18 -23 50 -22 44 -41 -17 47 -47 -48 -49 -32 -4 -27 -54 56 -56 -12 -58 -10 -44 -61 -45
right_child=1 2 5 7 8 12 11 17 22 10 31 20 18 23 21 45 35 -19 -20 -21 42 40 -24 24 25 52 32 29 30 -31 41 -33 -34 -35 -36 36 37 -39 -40 43 -42 -43 59 61 -46 46 48 49 -50 -51 -52 -53 53 -55 55 -57 57 -59 -60 60 -62 -63
leaf_value=-0.050108116148545115 -0.050122711145130262 -0.045940876668315263 -0.052791528388166413 -0.034938445588010805 -0.043558909232102969 0.012322250995100387 -0.021096382144668583 -0.027352601873122714 -0.052796783660370585 -0.046598408654357111 0.057449140021890457 -0.044297176124733273 -0.040791002103366565 -0.04396113971751589 -0.022921560054813772 0.063728911918891629 -0.018039234721963109 0.079491972892070037 0.10693926446602897 0.12581101553142837 -0.037656552913721122 0.014249394758233664 0.11785951885458995 -0.041493448928372596 -0.041410377089941913 -0.0042402728596648374 -0.026892004324128083 -0.034793454555468582 -0.0039869192215414564 0.058628449365853541 0.036941492196341442 0.087531808801569549 -0.025237273211261003 0.086502004862892681 0.090908119175443072 -0.027816826473190337 0.13231823939387738 0.016778298170517455 0.029630877373728777 0.0092224300417615441 0.081399812714188419 0.12884419128487401 0.070440580106832407 -0.018875866292005057 0.096934533716832333 0.080853250769467644 0.011715687224194733 -0.034496829002272938 0.10000371126808368 0.063380342046464255 -0.023752179338631111 0.053801842253396286 0.0084110328343627618 0.07500378376750183 -0.045755269675403137 0.063476788443108334 -0.021012157263490452 0.1065363914159253 0.07292612895718012 -0.034614710277663441 0.048809436758590598 0.077477874070248767
leaf_weight=647.56942807137966 129.53709545731544 72.181150048971176 7.7918716669082624 60.204063549637794 35.498500779271126 11.110603764653208 9.0689185559749586 17.173121094703674 2.7527581304311735 18.607011586427689 15.161843553185465 5.2342192083597174 4.2933510839939109 99.229246214032173 25.148688703775406 39.715274348855019 2.5878489017486563 7.8195414096117011 218.33850811421871 3.5223585069179535 2.9345401376485816 18.281745389103893 7.1265964061021805 37.972885355353355 13.729292824864386 19.123778164386749 3.7536305487155897 8.4227790981531125 33.257193744182587 7.0137594640254965 60.221655562520027 7.6048207879066458 49.129316702485085 4.9865110665559769 7.0253446698188773 5.3242404460906974 3.4250904917716962 5.5237449705600739 4.1481547057628623 3.8246541917324057 6.9537602216005316 2.4514820575714102 26.107946902513504 3.9238574355840665 40.149425968527794 28.543522343039513 3.6434581428766242 4.762183800339697 127.55572736263275 5.8588599562644958 6.5328857749700537 2.3350288867950439 9.6026566475629824 9.6713848412036878 7.8173521459102613 2.5200731456279755 10.460742667317389 2.4758466631174079 2.3700588643550873 4.7642156928777721 13.796091437339781 4.8014170825481415
leaf_count=2936 593 323 34 267 160 45 38 73 12 84 62 22 19 447 110 152 10 32 796 13 12 76 27 171 61 80 16 37 141 28 249 29 215 21 26 21 13 22 17 15 28 10 103 15 152 108 14 19 478 23 27 10 40 40 35 10 43 10 10 19 54 18
internal_value=0 0.0343089 0.0610235 -0.0184015 -0.0413447 0.081115 0.0681002 -0.00247747 -0.00436906 -0.0176142 0.00797998 0.0709559 0.0998507 -0.0456803 -0.0150925 0.0769964 0.0557662 0.00806768 0.104429 0.0342927 0.0379499 0.00496369 0.0708148 -0.0305358 -0.0157502 0.00300292 0.00492127 -0.0364985 0.0149039 0.00765381 0.0219862 0.0300375 -0.0157162 0.0378027 0.0427642 0.0657871 0.0278691 0.0610002 -0.047648 0.0755761 0.032753 0.0344676 0.0469935 0.0801732 0.0893058 0.0849425 0.0898878 0.0642135 0.0975519 0.0194949 0.0310017 -0.0282136 0.0188831 0.0418261 0.0186618 -0.0191265 0.0325641 0.0033985 0.00536862 0.0525547 0.0273954 0.0341465
internal_weight=0 1127.44 748.228 379.215 935.031 595.962 351.672 245.529 98.1321 152.265 64.6477 341.545 244.29 836.899 85.8827 288.708 78.6292 185.325 226.154 7.81571 52.837 50.3842 12.2494 189.329 90.1 52.1271 177.506 87.6177 119.636 15.4365 102.463 46.0407 57.8695 8.74014 18.1359 69.5603 14.2731 8.94884 133.685 55.2872 25.2355 69.206 47.6028 52.6994 43.9741 210.079 170.364 39.1646 131.199 10.621 66.7545 10.1269 38.3978 19.274 38.4359 10.3374 28.0984 12.9366 5.12282 44.6683 18.5603 8.72527
internal_count=8771 4573 2912 1661 4198 2251 1352 1051 423 661 273 1308 899 3775 374 1098 304 784 828 32 210 214 49 839 392 221 752 388 500 65 427 189 252 37 71 266 56 35 610 210 104 286 188 200 167 794 642 150 492 42 276 44 160 80 160 45 115 53 22 176 73 33
is_linear=0
shrinkage=0.05


Tree=13
num_leaves=63
num_cat=0
split_feature=10 35 35 35 40 30 36 30 45 31 40 10 21 29 30 20 20 10 30 47 31 25 52 17 13 37 35 44 13 12 30 20 26 40 44 35 10 47 11 53 52 17 41 1 1 40 21 52 26 2 30 9 36 49 33 10 14 35 1 11 9 45
split_gain=765.521 285.294 121.825 172.55 121.614 62.3901 39.0854 39.0827 24.6093 27.8777 30.4741 23.851 28.9786 20.4689 15.5531 15.2508 13.7136 13.5122 12.967 12.7984 12.7294 11.9126 11.9769 10.5382 11.3379 15.1529 9.47401 9.45729 12.2524 9.43858 9.20726 8.80441 8.57691 8.21499 14.8381 7.81599 17.8504 7.4105 7.29303 7.08543 6.73319 8.23742 14.3477 6.47701 6.34125 8.80827 9.75222 8.09857 10.4908 14.2378 9.29685 6.78669 6.49942 5.74564 5.63621 16.6288 11.6376 5.56884 5.48781 5.45241 13.2714 5.33004
threshold=-21.499999999999996 5.0500000000000007 16.650000000000002 1.0000000180025095e-35 -3.3499999999999992 1.0000000180025095e-35 8.2500000000000018 2521.5000000000005 105.05000000000001 196.50000000000003 -6.0499999999999989 -380.99999999999994 1922.5000000000002 2063.5000000000005 600.50000000000011 1460.5000000000002 996.00000000000011 -1255.4999999999998 109.50000000000001 136.65000000000001 499.50000000000006 93.500000000000014 3.5000000000000004 -109.49999999999999 329.50000000000006 2.0500000000000003 62.350000000000001 -14.749999999999998 -70.499999999999986 56.500000000000007 1620.5000000000002 1872.5000000000002 190.50000000000003 -11.949999999999998 11.65 3.1500000000000008 267.50000000000006 143.45000000000002 1413.5000000000002 13.500000000000002 3.5000000000000004 139.50000000000003 1.0000000180025095e-35 25388.000000000004 6702.0000000000009 0.55000000000000016 1769.5000000000002 3.5000000000000004 129.50000000000003 19144.500000000004 132.50000000000003 6247.5000000000009 17.350000000000005 79.450000000000017 1259.5000000000002 -632.99999999999989 339.50000000000006 11.250000000000002 30743.500000000004 -335.49999999999994 6981.0000000000009 73.700000000000003
decision_type=2 2 2 2 2 2 2 2 2 2 2 2 2 2 2 2 2 2 2 2 2 2 2 2 2 2 2 2 2 2 2 2 2 2 2 2 2 2 2 2 2 2 2 2 2 2 2 2 2 2 2 2 2 2 2 2 2 2 2 2 2 2
left_child=2 5 3 -1 7 -2 15 11 30 29 -11 13 19 38 31 21 -6 -18 32 -13 27 22 -3 24 25 -17 33 28 -8 -10 44 -7 -12 34 -9 37 -37 -33 54 -27 57 -42 -43 -35 -5 46 53 50 -49 51 52 -50 -48 -46 -4 56 -56 -25 -32 60 -29 -22
right_child=1 6 4 8 16 14 20 26 9 10 18 12 -14 -15 -16 23 17 -19 -20 -21 61 -23 -24 40 -26 39 -28 59 -30 -31 58 35 -34 43 -36 36 -38 -39 -40 -41 41 42 -44 -45 45 -47 47 48 49 -51 -52 -53 -54 -55 55 -57 -58 -59 -60 -61 -62 -63
leaf_value=-0.03512884273238584 -0.043175713957920421 0.00028640745649891595 0.22829334070118812 0.22279946486838154 0.13884957192285366 0.077591382076897975 0.18121170906992909 0.24066166045814411 0.24245981755158186 0.18869282980107527 0.048881822959643453 0.065524327339461327 -0.020498235111070424 0.011433601275132495 -0.0046665101418617355 -0.043422024347418299 0.16051458360099397 -0.02825884784220925 0.010550671914268643 0.22356619777836101 -0.014593708556181979 0.18104920209348285 0.16633710563189849 0.0095300861673491295 -0.043755638368774073 0.26882959978504622 -0.043576630453460385 -0.043730014730288168 -0.016850217858835517 0.096420732368607806 0.026916604430453933 0.22658859520414876 0.21444354036862531 -0.026025810527657591 -0.0012404374567979003 0.18444616722349483 -0.010468547483123546 0.1022088354056213 0.11501870359201574 0.094740802001442373 -0.001050216670950777 0.2144720081177611 -0.043391531589328569 0.10869299876546201 0.025075237354618654 0.05947645315757915 0.12552835655773073 0.22963106271590386 0.12084911785511049 0.23139206853625877 0.22886692660455063 -0.017123747690779258 0.22453880798241013 0.16827793901405289 0.10208540523962817 -0.0022156339513804998 0.26566753741670462 -0.037881739211074322 0.16738712815891521 -0.023963605981543196 0.1490920143281953 -0.039437986314339139
leaf_weight=12.347408294677733 4.1731635257601765 4.5490073263645163 8.9010168835520798 12.036976419389246 1.3641764968633641 2.0230593830347123 1.3336901217699053 1.3946362212300303 5.1770406961441067 5.3020946383476302 1.5941548123955702 2.2589750513434428 4.2699178382754326 1.7835596203804005 1.2472469136118878 0.9965160116553301 0.97599707543849845 32.981059156358242 8.2254969477653486 2.9589622169733047 22.676834605634212 1.9944870471954343 1.4264533668756483 9.4124168530106562 1.5435934588313101 1.2773960158228876 3.269900806248188 2.0993130207061763 1.8836431056261052 1.4071038812398908 1.3775653764605515 10.5762806981802 1.5359673425555227 2.8177410066127759 1.1621996164321897 6.267589069902896 1.4455336183309553 1.3504428043961514 2.7893580123782149 1.077470928430557 5.8583410233259183 1.351115055382252 0.89795202016830433 1.3055828735232351 1.404452629387378 1.4345831871032704 4.6367986276745858 2.7080212384462348 1.7967527806758883 1.6141408383846281 16.650309592485428 1.7685613334178922 2.579623207449913 1.3973575681447981 1.6912300288677213 1.1844908297061909 3.0445057526230812 18.109796404838562 1.4038629978895185 100.57744222134352 1.5521519258618353 449.71274631470442
leaf_count=143 49 48 58 76 13 15 14 10 33 34 13 19 43 16 11 11 9 366 80 20 261 18 14 101 16 12 35 22 21 11 11 64 11 29 11 41 12 10 20 10 61 12 10 12 10 12 30 17 13 10 103 14 17 10 13 11 21 201 10 1134 15 5224
internal_value=0 -0.0242569 0.0975633 0.137913 0.0505504 0.134635 -0.0311057 0.111619 0.166767 0.124149 0.0897215 0.141061 0.076099 0.172841 0.167024 0.0120153 -0.0165886 -0.0228331 0.0435104 0.155146 -0.0347122 0.0752421 0.0399258 -0.00041946 0.0683702 0.120014 0.0261583 -0.0191784 0.0652529 0.21125 0.186262 0.176909 0.130124 0.0602931 0.130706 0.18714 0.147917 0.212505 0.189188 0.189175 -0.00987013 0.0301774 0.111519 0.0166307 0.191384 0.180877 0.185917 0.193807 0.149883 0.108187 0.208323 0.0524082 0.160921 0.0964953 0.203147 0.16534 0.207249 -0.0216672 0.0978159 -0.0217846 0.0382341 -0.0382453
internal_weight=0 655.414 160.552 86.3983 74.1533 27.0833 628.33 38.8321 74.0509 23.2419 16.6577 28.882 9.48786 19.3942 22.9102 48.4945 35.3212 33.9571 11.3556 5.21794 579.836 7.96995 5.97546 40.5246 4.89498 3.35138 9.95006 107.446 3.21733 6.58414 50.809 21.6629 3.13012 6.68016 2.55684 19.6398 7.71312 11.9267 17.6106 2.35487 35.6296 8.10741 2.24907 4.12332 48.0276 35.9906 34.556 31.7542 7.88748 5.17945 23.8667 3.56531 7.21642 2.80181 14.8212 5.92023 4.73574 27.5222 2.78143 104.229 3.65146 472.39
internal_count=8771 7407 1364 658 706 202 7205 318 515 182 138 221 82 139 153 514 388 375 104 39 6691 80 62 434 49 33 97 1206 35 44 333 142 24 62 21 127 53 74 123 22 385 83 22 41 312 236 224 204 54 37 150 27 47 20 103 45 34 302 21 1171 37 5485
is_linear=0
shrinkage=0.05


Tree=14
num_leaves=63
num_cat=0
split_feature=35 35 32 53 20 35 26 15 39 49 43 17 16 45 32 24 15 15 23 34 38 9 1 43 21 44 23 35 15 32 1 36 37 35 11 41 40 12 10 16 2 35 36 43 15 20 8 18 40 38 15 44 22 35 46 19 25 19 20 22 39 40
split_gain=811.634 200.52 41.7772 24.8747 17.241 18.1124 18.0031 13.2261 15.8619 12.7228 17.2486 14.4632 12.6372 12.1729 28.5835 11.9754 11.5641 10.2151 18.7436 10.1887 17.1443 11.2075 9.92737 11.5034 14.7052 11.1868 9.64354 17.3307 9.48344 10.844 9.76437 9.40065 9.21534 13.3288 9.05707 8.12568 13.2262 20.2308 13.5939 8.06106 8.3937 7.96178 11.6459 7.39298 7.51368 7.01784 14.1111 31.9441 14.7028 6.72313 6.25204 6.21352 5.98049 7.73848 5.44996 5.15418 5.0952 4.54038 4.29966 4.25231 4.25032 4.18552
threshold=-1.0000000180025095e-35 11.250000000000002 173.50000000000003 12.500000000000002 5145.5000000000009 5.5500000000000007 1177.5000000000002 380.50000000000006 89.500000000000014 88.65000000000002 0.45000000000000007 -204.99999999999997 -8.4999999999999982 86.050000000000011 59.500000000000007 2788.5000000000005 109.50000000000001 -995.99999999999989 4657.5000000000009 3445.0000000000005 29.450000000000003 16833.500000000004 5562.5000000000009 5.4500000000000011 1395.5000000000002 3.8500000000000001 1290.5000000000002 3.1500000000000008 -163.49999999999997 698.50000000000011 13072.000000000002 14.950000000000001 45.250000000000007 18.750000000000004 32.500000000000007 6.6500000000000012 0.25000000000000006 345.50000000000006 64.500000000000014 -132.99999999999997 25143.500000000004 30.350000000000005 2.0500000000000003 12.850000000000003 370.50000000000006 3161.0000000000005 2995.5000000000005 188.50000000000003 -3.0499999999999994 5.6500000000000012 490.50000000000006 5.6500000000000012 637.50000000000011 5.9500000000000011 171.55000000000004 338.50000000000006 1110.5000000000002 359.50000000000006 2269.5000000000005 1152.0000000000002 99.800000000000011 3.6500000000000008
decision_type=2 2 2 2 2 2 2 2 2 2 2 2 2 2 2 2 2 2 2 2 2 2 2 2 2 2 2 2 2 2 2 2 2 2 2 2 2 2 2 2 2 2 2 2 2 2 2 2 2 2 2 2 2 2 2 2 2 2 2 2 2 2
left_child=-1 4 3 -3 5 6 9 8 12 10 35 -11 16 14 34 59 -5 18 -4 21 -21 28 -15 24 -24 -26 27 -13 29 30 -6 -25 43 -34 -7 36 37 -2 -38 -30 52 42 -19 44 -14 46 47 48 -44 -48 56 -28 53 -41 -50 61 -51 -54 -12 -16 -43 -9
right_child=1 2 17 7 19 13 -8 55 -10 11 58 26 32 22 15 -17 -18 41 -20 20 -22 -23 23 31 25 -27 51 -29 39 -31 -32 -33 33 -35 -36 -37 38 -39 -40 40 -42 60 45 -45 -46 -47 49 -49 54 50 -52 -53 57 -55 -56 -57 -58 -59 -60 -61 -62 -63
